svm_type c_svc
kernel_type polynomial
degree 2
gamma 1
coef0 1
nr_class 2
total_sv 5
rho 1.66653
label 1 -1
nr_sv 3 2
SV
0.8887164347987063 1:-1 2:0 
0.1502852229699299 1:0 2:2 
0.3681704323551298 1:0 2:-2 
-0.4857048695492317 1:0 2:1 
-0.9214672205745343 1:0 2:-1 
