svm_type c_svc
kernel_type polynomial
degree 2
gamma 1
coef0 1
nr_class 2
total_sv 1355
rho 0.999282
label 0 1
nr_sv 664 691
SV
0.01 1:0.3410918 2:-4.5289375 
0.01 1:0.21278516 2:-3.721375 
0.01 1:0.20930078 2:-3.767125 
0.01 1:0.2253418 2:-3.977875 
0.01 1:0.14176563 2:-2.326 
0.01 1:0.16395313 2:-2.691875 
0.01 1:0.30213477 2:-3.89275 
0.01 1:0.33438867 2:-4.930875 
0.01 1:0.20269141 2:-3.6675625 
0.01 1:0.25022266 2:-4.73425 
0.01 1:0.21973828 2:-3.86075 
0.01 1:0.25520508 2:-4.975 
0.01 1:0.2812207 2:-4.057375 
0.01 1:0.25332422 2:-3.5625625 
0.01 1:0.25852344 2:-4.745875 
0.01 1:0.28472852 2:-5.4161875 
0.01 1:0.28683789 2:-4.4883125 
0.01 1:0.25545898 2:-3.367125 
0.01 1:0.34923437 2:-6.008875 
0.01 1:0.24427539 2:-4.5516875 
0.01 1:0.17282227 2:-3.03875 
0.01 1:0.23999219 2:-3.8719375 
0.01 1:0.25048242 2:-4.595625 
0.01 1:0.24038672 2:-3.35325 
0.01 1:0.20749805 2:-4.2295 
0.01 1:0.25561523 2:-4.500125 
0.01 1:0.23658008 2:-4.75075 
0.01 1:0.18142773 2:-3.918625 
0.01 1:0.19194531 2:-3.868625 
0.01 1:0.22082227 2:-3.1940625 
0.01 1:0.24281055 2:-4.319375 
0.01 1:0.32563867 2:-6.033 
0.01 1:0.28956836 2:-6.3693125 
0.01 1:0.30739453 2:-6.3014375 
0.01 1:0.2695293 2:-5.3064375 
0.01 1:0.24242383 2:-3.8374375 
0.01 1:0.32865234 2:-6.080125 
0.01 1:0.10011719 2:-1.7415625 
0.01 1:0.2907207 2:-4.073875 
0.01 1:0.24306445 2:-4.2538125 
0.01 1:0.14360156 2:-2.328 
0.01 1:0.19375391 2:-2.2433125 
0.01 1:0.17743945 2:-2.8775625 
0.01 1:0.24010547 2:-3.806125 
0.01 1:0.2029668 2:-3.2101875 
0.01 1:0.20204297 2:-4.244125 
0.01 1:0.24741992 2:-3.6719375 
0.01 1:0.18073242 2:-3.306625 
0.01 1:0.21047461 2:-3.4828125 
0.01 1:0.25583398 2:-4.462875 
0.01 1:0.31945313 2:-3.7214375 
0.01 1:0.16511328 2:-3.0784375 
0.01 1:0.22986914 2:-4.2670625 
0.01 1:0.25695703 2:-4.2045 
0.01 1:0.19022461 2:-2.65175 
0.01 1:0.17742578 2:-3.540875 
0.01 1:0.22826562 2:-4.2855625 
0.01 1:0.17953516 2:-3.5239375 
0.01 1:0.24360156 2:-4.0944375 
0.01 1:0.24295898 2:-4.509125 
0.01 1:0.20408203 2:-4.0919375 
0.01 1:0.27999219 2:-5.3160625 
0.01 1:0.35347656 2:-4.989375 
0.01 1:0.17929883 2:-3.351875 
0.01 1:0.24193359 2:-4.4168125 
0.01 1:0.33174023 2:-5.8703125 
0.01 1:0.25383398 2:-5.38075 
0.01 1:0.16731445 2:-3.6010625 
0.01 1:0.32777344 2:-5.440125 
0.01 1:0.15299414 2:-3.1221875 
0.01 1:0.27254883 2:-4.6736875 
0.01 1:0.28758984 2:-5.0668125 
0.01 1:0.21142773 2:-3.8814375 
0.01 1:0.32301953 2:-5.892625 
0.01 1:0.30759375 2:-4.9255 
0.01 1:0.29525195 2:-4.3768125 
0.01 1:0.20280859 2:-4.48875 
0.01 1:0.31284375 2:-5.4084375 
0.01 1:0.28872656 2:-4.489375 
0.01 1:0.32238477 2:-4.7973125 
0.01 1:0.11400195 2:-1.7169375 
0.01 1:0.26433008 2:-4.84575 
0.01 1:0.19905273 2:-3.9894375 
0.01 1:0.21120898 2:-3.8875625 
0.01 1:0.33769336 2:-4.283375 
0.01 1:0.25076563 2:-3.720375 
0.01 1:0.21123242 2:-3.571625 
0.01 1:0.30485937 2:-4.899375 
0.01 1:0.35706836 2:-5.6120625 
0.01 1:0.34130664 2:-5.77475 
0.01 1:0.41410156 2:-6.125625 
0.01 1:0.30953711 2:-4.07725 
0.01 1:0.33800977 2:-5.994625 
0.01 1:0.31397852 2:-5.3356875 
0.01 1:0.18425391 2:-2.939625 
0.01 1:0.24570312 2:-4.9655625 
0.01 1:0.37860742 2:-5.246875 
0.01 1:0.24998438 2:-4.0945625 
0.01 1:0.33074023 2:-4.362625 
0.01 1:0.33091797 2:-5.019 
0.01 1:0.27071094 2:-4.3335625 
0.01 1:0.45618164 2:-6.5829375 
0.01 1:0.33854297 2:-5.295 
0.01 1:0.22813477 2:-4.2560625 
0.01 1:0.30953906 2:-4.6729375 
0.01 1:0.2481582 2:-3.858375 
0.01 1:0.21472266 2:-3.5068125 
0.01 1:0.37671289 2:-6.0123125 
0.01 1:0.19826563 2:-3.12325 
0.01 1:0.3164668 2:-4.8870625 
0.01 1:0.23749609 2:-3.4766875 
0.01 1:0.13395313 2:-2.58675 
0.01 1:0.19339844 2:-3.679375 
0.01 1:0.35138672 2:-6.545875 
0.01 1:0.41430469 2:-6.158625 
0.01 1:0.16781836 2:-3.0938125 
0.01 1:0.19691211 2:-3.7371875 
0.01 1:0.23649805 2:-4.5658125 
0.01 1:0.27231445 2:-5.374625 
0.01 1:0.19805664 2:-3.72775 
0.01 1:0.22445117 2:-4.268625 
0.01 1:0.18566992 2:-3.2955625 
0.01 1:0.18064844 2:-2.9850625 
0.01 1:0.21657813 2:-4.06625 
0.01 1:0.18422461 2:-4.210375 
0.01 1:0.19327734 2:-3.2901875 
0.01 1:0.21365234 2:-3.4150625 
0.01 1:0.33034961 2:-5.5365 
0.01 1:0.21073242 2:-4.0100625 
0.01 1:0.26469922 2:-4.9360625 
0.01 1:0.23485742 2:-4.6140625 
0.01 1:0.22956055 2:-3.8821875 
0.01 1:0.32654492 2:-4.898875 
0.01 1:0.14727148 2:-2.874875 
0.01 1:0.1603125 2:-3.0386875 
0.01 1:0.25876172 2:-4.130375 
0.01 1:0.16967773 2:-3.1008125 
0.01 1:0.3061543 2:-5.050625 
0.01 1:0.20520508 2:-3.3331875 
0.01 1:0.41492578 2:-5.714125 
0.01 1:0.22654883 2:-3.437625 
0.01 1:0.20959766 2:-3.6588125 
0.01 1:0.41219531 2:-7.08375 
0.01 1:0.37899609 2:-5.7434375 
0.01 1:0.23011133 2:-4.3325 
0.01 1:0.21526367 2:-4.8820625 
0.01 1:0.24758789 2:-4.41875 
0.01 1:0.22350586 2:-3.3078125 
0.01 1:0.23622656 2:-4.2471875 
0.01 1:0.232125 2:-4.18675 
0.01 1:0.26061719 2:-5.466125 
0.01 1:0.14883398 2:-2.7278125 
0.01 1:0.35357227 2:-5.38325 
0.01 1:0.2024707 2:-3.138375 
0.01 1:0.20955859 2:-3.6585 
0.01 1:0.25238086 2:-5.8245 
0.01 1:0.23483594 2:-5.0375 
0.01 1:0.29261328 2:-3.979625 
0.01 1:0.26975781 2:-5.03375 
0.01 1:0.17326563 2:-3.60525 
0.01 1:0.33228906 2:-5.591625 
0.01 1:0.18976758 2:-4.0565625 
0.01 1:0.34725 2:-6.13525 
0.01 1:0.35916992 2:-5.396 
0.01 1:0.17447852 2:-3.6551875 
0.01 1:0.15878711 2:-2.5393125 
0.01 1:0.25078516 2:-2.29325 
0.01 1:0.26062305 2:-4.298875 
0.01 1:0.24077344 2:-3.8563125 
0.01 1:0.20375781 2:-3.5795625 
0.01 1:0.14821484 2:-2.779125 
0.01 1:0.26252539 2:-4.9896875 
0.01 1:0.26462695 2:-4.9809375 
0.01 1:0.29369727 2:-5.4644375 
0.01 1:0.20362305 2:-3.25075 
0.01 1:0.30563672 2:-5.15925 
0.01 1:0.31766992 2:-6.3675 
0.01 1:0.22471289 2:-4.2440625 
0.01 1:0.27881836 2:-4.3296875 
0.01 1:0.19554297 2:-3.01125 
0.01 1:0.190125 2:-3.3479375 
0.01 1:0.21074023 2:-3.88475 
0.01 1:0.33461719 2:-6.2285 
0.01 1:0.28325391 2:-5.2513125 
0.01 1:0.20330078 2:-3.322625 
0.01 1:0.15338477 2:-3.1585 
0.01 1:0.30098828 2:-6.4419375 
0.01 1:0.25196094 2:-4.2266875 
0.01 1:0.32263086 2:-4.926 
0.01 1:0.20867383 2:-3.7443125 
0.01 1:0.40891211 2:-5.9803125 
0.01 1:0.28354492 2:-5.3231875 
0.01 1:0.25924609 2:-4.822625 
0.01 1:0.19199219 2:-3.532125 
0.01 1:0.1585332 2:-3.044875 
0.01 1:0.28410352 2:-5.23025 
0.01 1:0.15351367 2:-2.8905 
0.01 1:0.15839062 2:-3.244375 
0.01 1:0.28703906 2:-4.3553125 
0.01 1:0.32134961 2:-4.70525 
0.01 1:0.29367383 2:-5.8570625 
0.01 1:0.37031445 2:-6.1486875 
0.01 1:0.32792187 2:-5.7695 
0.01 1:0.18212695 2:-3.0996875 
0.01 1:0.20576172 2:-3.9106875 
0.01 1:0.17179883 2:-4.12625 
0.01 1:0.29987891 2:-4.787625 
0.01 1:0.25779102 2:-4.3279375 
0.01 1:0.18485742 2:-3.0564375 
0.01 1:0.29156445 2:-5.253375 
0.01 1:0.39798438 2:-6.242 
0.01 1:0.2566875 2:-3.594875 
0.01 1:0.22074023 2:-4.273625 
0.01 1:0.26783984 2:-4.52525 
0.01 1:0.20331055 2:-3.11325 
0.01 1:0.31331055 2:-5.447375 
0.01 1:0.24185742 2:-3.9803125 
0.01 1:0.23067773 2:-3.8641875 
0.01 1:0.16270117 2:-3.36225 
0.01 1:0.13560352 2:-2.6184375 
0.01 1:0.15501172 2:-2.64975 
0.01 1:0.24146484 2:-4.1600625 
0.01 1:0.23153711 2:-4.829875 
0.01 1:0.18877148 2:-3.847 
0.01 1:0.23161719 2:-3.56975 
0.01 1:0.29176172 2:-4.8688125 
0.01 1:0.22223242 2:-3.4744375 
0.01 1:0.33366406 2:-5.530375 
0.01 1:0.26469922 2:-4.0971875 
0.01 1:0.29336914 2:-4.1166875 
0.01 1:0.24281641 2:-5.575625 
0.01 1:0.22475195 2:-4.8864375 
0.01 1:0.26757813 2:-4.801875 
0.01 1:0.20795508 2:-4.25675 
0.01 1:0.22549609 2:-3.8956875 
0.01 1:0.28198828 2:-4.9028125 
0.01 1:0.23154102 2:-3.049125 
0.01 1:0.29921875 2:-4.207375 
0.01 1:0.21028906 2:-4.5154375 
0.01 1:0.34023633 2:-5.672375 
0.01 1:0.24957031 2:-3.7960625 
0.01 1:0.24188086 2:-4.23675 
0.01 1:0.31042773 2:-4.4314375 
0.01 1:0.34219727 2:-5.2260625 
0.01 1:0.35018164 2:-5.125875 
0.01 1:0.18048437 2:-4.2701875 
0.01 1:0.19608398 2:-4.017625 
0.01 1:0.41067188 2:-4.9038125 
0.01 1:0.26073828 2:-4.4661875 
0.01 1:0.30478516 2:-5.997625 
0.01 1:0.28873242 2:-4.8899375 
0.01 1:0.30873047 2:-4.7131875 
0.01 1:0.2971875 2:-5.19825 
0.01 1:0.15535547 2:-2.8955625 
0.01 1:0.18933789 2:-4.245625 
0.01 1:0.20493945 2:-4.4815625 
0.01 1:0.20520117 2:-4.3355625 
0.01 1:0.28427539 2:-6.015875 
0.01 1:0.32064062 2:-4.5230625 
0.01 1:0.29853516 2:-5.612 
0.01 1:0.29695703 2:-4.6118125 
0.01 1:0.25051172 2:-4.4695625 
0.01 1:0.27487305 2:-4.0334375 
0.01 1:0.20391602 2:-4.0611875 
0.01 1:0.16025195 2:-3.435125 
0.01 1:0.23607227 2:-3.982375 
0.01 1:0.13055664 2:-2.9695625 
0.01 1:0.29422656 2:-4.070625 
0.01 1:0.27893359 2:-4.1188125 
0.01 1:0.25 2:-4.624625 
0.01 1:0.24992773 2:-4.1205 
0.01 1:0.23971289 2:-2.3139375 
0.01 1:0.15878516 2:-3.40725 
0.01 1:0.20848828 2:-4.2624375 
0.01 1:0.19512891 2:-2.7455625 
0.01 1:0.24230469 2:-3.88125 
0.01 1:0.20780078 2:-3.6144375 
0.01 1:0.38570117 2:-6.1624375 
0.01 1:0.26369336 2:-3.4615625 
0.01 1:0.19176563 2:-3.596625 
0.01 1:0.20479688 2:-3.65725 
0.01 1:0.21351367 2:-4.0935625 
0.01 1:0.27233203 2:-4.8715625 
0.01 1:0.27134375 2:-5.155875 
0.01 1:0.49560547 2:-4.876 
0.01 1:0.46247266 2:-6.5006875 
0.01 1:0.19136719 2:-3.8434375 
0.01 1:0.29970312 2:-5.043875 
0.01 1:0.29831055 2:-5.1241875 
0.01 1:0.28662109 2:-4.48925 
0.01 1:0.34935352 2:-5.6198125 
0.01 1:0.20848437 2:-3.6273125 
0.01 1:0.20121875 2:-4.0243125 
0.01 1:0.14899805 2:-3.17775 
0.01 1:0.23904492 2:-4.1831875 
0.01 1:0.29427539 2:-5.2129375 
0.01 1:0.25907031 2:-4.19675 
0.01 1:0.24218555 2:-4.0425625 
0.01 1:0.33318164 2:-5.25925 
0.01 1:0.30161523 2:-4.6424375 
0.01 1:0.25876172 2:-4.4411875 
0.01 1:0.31580664 2:-4.41175 
0.01 1:0.22221094 2:-3.5665625 
0.01 1:0.17070703 2:-2.7125625 
0.01 1:0.34091016 2:-6.29425 
0.01 1:0.30637695 2:-5.419 
0.01 1:0.28838281 2:-3.5944375 
0.01 1:0.33039063 2:-4.84375 
0.01 1:0.12201367 2:-2.4213125 
0.01 1:0.12792188 2:-2.72125 
0.01 1:0.24037891 2:-4.7795625 
0.01 1:0.27083008 2:-5.292 
0.01 1:0.28100586 2:-4.2859375 
0.01 1:0.23928711 2:-4.124 
0.01 1:0.1924707 2:-2.783375 
0.01 1:0.23286914 2:-5.2669375 
0.01 1:0.29061914 2:-4.0594375 
0.01 1:0.19408398 2:-3.9269375 
0.01 1:0.26412695 2:-4.2101875 
0.01 1:0.21005664 2:-3.972625 
0.01 1:0.16924805 2:-2.906375 
0.01 1:0.20646875 2:-2.1166875 
0.01 1:0.20067773 2:-3.568125 
0.01 1:0.15938086 2:-2.61975 
0.01 1:0.13369531 2:-2.6811875 
0.01 1:0.32763281 2:-5.387875 
0.01 1:0.32768359 2:-4.3649375 
0.01 1:0.31093164 2:-4.075 
0.01 1:0.27546094 2:-3.8045625 
0.01 1:0.13558008 2:-2.7353125 
0.01 1:0.13674414 2:-2.6331875 
0.01 1:0.17536328 2:-2.5829375 
0.01 1:0.17499414 2:-3.1650625 
0.01 1:0.37183789 2:-5.4435625 
0.01 1:0.2622793 2:-3.6535625 
0.01 1:0.2242832 2:-4.2979375 
0.01 1:0.26228711 2:-4.840375 
0.01 1:0.26307031 2:-5.029625 
0.01 1:0.18622852 2:-3.6644375 
0.01 1:0.24138477 2:-4.280625 
0.01 1:0.18686914 2:-3.620375 
0.01 1:0.21102148 2:-3.918625 
0.01 1:0.19193555 2:-3.7229375 
0.01 1:0.21610352 2:-3.9500625 
0.01 1:0.1417793 2:-3.0480625 
0.01 1:0.14555078 2:-2.8571875 
0.01 1:0.38156445 2:-5.0653125 
0.01 1:0.19796289 2:-3.3866875 
0.01 1:0.241125 2:-4.6085 
0.01 1:0.15921289 2:-3.507 
0.01 1:0.33741797 2:-4.1974375 
0.01 1:0.38328516 2:-4.62175 
0.01 1:0.24904492 2:-3.73525 
0.01 1:0.29635937 2:-5.16975 
0.01 1:0.20030078 2:-2.847375 
0.01 1:0.31775977 2:-6.0183125 
0.01 1:0.22721484 2:-3.4686875 
0.01 1:0.27606055 2:-4.38525 
0.01 1:0.32179492 2:-5.032375 
0.01 1:0.27463477 2:-4.7225625 
0.01 1:0.24032227 2:-2.5743125 
0.01 1:0.29904102 2:-4.7209375 
0.01 1:0.22859766 2:-4.4310625 
0.01 1:0.28493359 2:-4.7819375 
0.01 1:0.23117969 2:-3.998875 
0.01 1:0.26120508 2:-4.383875 
0.01 1:0.2605957 2:-4.3708125 
0.01 1:0.18442383 2:-2.95375 
0.01 1:0.20431445 2:-3.215375 
0.01 1:0.1944375 2:-2.5219375 
0.01 1:0.28550391 2:-5.3475 
0.01 1:0.18749609 2:-3.3806875 
0.01 1:0.27007617 2:-3.8908125 
0.01 1:0.25576563 2:-4.5810625 
0.01 1:0.37045117 2:-4.9888125 
0.01 1:0.19125781 2:-3.532875 
0.01 1:0.15580078 2:-2.8648125 
0.01 1:0.26342773 2:-5.2706875 
0.01 1:0.23411719 2:-4.732375 
0.01 1:0.21206641 2:-3.21275 
0.01 1:0.14313281 2:-2.5671875 
0.01 1:0.23705078 2:-3.43175 
0.01 1:0.1920293 2:-3.27425 
0.01 1:0.2469043 2:-4.0656875 
0.01 1:0.26807813 2:-5.1476875 
0.01 1:0.28873242 2:-5.3585625 
0.01 1:0.22346289 2:-3.69775 
0.01 1:0.27311133 2:-4.796125 
0.01 1:0.15916406 2:-3.2581875 
0.01 1:0.15374414 2:-2.988625 
0.01 1:0.17035938 2:-3.4815 
0.01 1:0.25020898 2:-5.5086875 
0.01 1:0.37479883 2:-5.386375 
0.01 1:0.29986719 2:-4.7735 
0.01 1:0.23632617 2:-4.5579375 
0.01 1:0.17743555 2:-3.588875 
0.01 1:0.20583594 2:-3.8805625 
0.01 1:0.14875 2:-3.2656875 
0.01 1:0.29453516 2:-5.3086875 
0.01 1:0.17205664 2:-3.2275 
0.01 1:0.20431055 2:-3.3575625 
0.01 1:0.14473438 2:-2.6431875 
0.01 1:0.17999805 2:-3.188375 
0.01 1:0.21411133 2:-4.511625 
0.01 1:0.17485547 2:-4.1879375 
0.01 1:0.19777344 2:-3.8985625 
0.01 1:0.27263477 2:-4.8355625 
0.01 1:0.29992578 2:-5.9721875 
0.01 1:0.26198242 2:-4.4570625 
0.01 1:0.16823828 2:-3.0603125 
0.01 1:0.38785547 2:-6.0408125 
0.01 1:0.25989063 2:-4.4441875 
0.01 1:0.2641543 2:-5.26025 
0.01 1:0.19116797 2:-3.537 
0.01 1:0.22655664 2:-4.522125 
0.01 1:0.20908984 2:-3.960375 
0.01 1:0.21517578 2:-4.135625 
0.01 1:0.18426758 2:-3.6134375 
0.01 1:0.26534961 2:-4.584875 
0.01 1:0.20772852 2:-4.1331875 
0.01 1:0.21326367 2:-4.75775 
0.01 1:0.26407422 2:-4.263 
0.01 1:0.32963867 2:-4.34625 
0.01 1:0.25349023 2:-4.5400625 
0.01 1:0.2839375 2:-3.751 
0.01 1:0.32989453 2:-5.54075 
0.01 1:0.24245508 2:-4.3968125 
0.01 1:0.29016016 2:-4.3633125 
0.01 1:0.23755859 2:-3.473125 
0.01 1:0.38863281 2:-5.3104375 
0.01 1:0.24222656 2:-5.4225625 
0.01 1:0.21442773 2:-3.6674375 
0.01 1:0.31078125 2:-6.1899375 
0.01 1:0.22908008 2:-3.718375 
0.01 1:0.22781055 2:-4.3150625 
0.01 1:0.25176172 2:-4.0845 
0.01 1:0.28462695 2:-4.9796875 
0.01 1:0.32765625 2:-6.1134375 
0.01 1:0.28731836 2:-4.74125 
0.01 1:0.20834961 2:-4.2320625 
0.01 1:0.17422266 2:-3.7083125 
0.01 1:0.30327344 2:-3.6006875 
0.01 1:0.3072793 2:-4.848875 
0.01 1:0.26654492 2:-5.1500625 
0.01 1:0.1295293 2:-3.367125 
0.01 1:0.23221289 2:-4.4115625 
0.01 1:0.27590625 2:-3.695875 
0.01 1:0.30420313 2:-4.8570625 
0.01 1:0.21083008 2:-3.9205 
0.01 1:0.16150391 2:-2.4311875 
0.01 1:0.20247656 2:-3.79575 
0.01 1:0.44400781 2:-5.9770625 
0.01 1:0.25951953 2:-5.152625 
0.01 1:0.42876367 2:-5.30325 
0.01 1:0.1179043 2:-2.1775 
0.01 1:0.25626172 2:-5.3840625 
0.01 1:0.19625977 2:-3.6430625 
0.01 1:0.17764844 2:-3.2908125 
0.01 1:0.18736719 2:-2.937875 
0.01 1:0.1716875 2:-2.1968125 
0.01 1:0.18112891 2:-2.400875 
0.01 1:0.15217187 2:-2.60975 
0.01 1:0.18863477 2:-2.969625 
0.01 1:0.26146289 2:-3.535125 
0.01 1:0.20898242 2:-4.439375 
0.01 1:0.26378125 2:-4.713375 
0.01 1:0.23567187 2:-4.2323125 
0.01 1:0.26649414 2:-2.323875 
0.01 1:0.28462305 2:-4.135875 
0.01 1:0.23976953 2:-3.0374375 
0.01 1:0.2815625 2:-5.006875 
0.01 1:0.34183008 2:-6.1061875 
0.01 1:0.43492188 2:-5.8491875 
0.01 1:0.23149414 2:-3.71125 
0.01 1:0.19496289 2:-3.4786875 
0.01 1:0.18332617 2:-3.5046875 
0.01 1:0.25603906 2:-5.0956875 
0.01 1:0.23721094 2:-4.3766875 
0.01 1:0.4214043 2:-5.82125 
0.01 1:0.1371543 2:-3.1536875 
0.01 1:0.16753516 2:-3.496375 
0.01 1:0.3160957 2:-4.733375 
0.01 1:0.3223125 2:-4.3729375 
0.01 1:0.24029297 2:-3.9731875 
0.01 1:0.20357812 2:-4.131875 
0.01 1:0.3845 2:-6.7055 
0.01 1:0.16818945 2:-3.3835 
0.01 1:0.22876367 2:-4.0488125 
0.01 1:0.37111523 2:-5.247875 
0.01 1:0.29886328 2:-4.5400625 
0.01 1:0.24101172 2:-4.306 
0.01 1:0.21640234 2:-3.2531875 
0.01 1:0.17535547 2:-2.8948125 
0.01 1:0.19968945 2:-4.0008125 
0.01 1:0.24900586 2:-5.3428125 
0.01 1:0.30044727 2:-3.9584375 
0.01 1:0.39750977 2:-6.3005625 
0.01 1:0.29013086 2:-5.3005625 
0.01 1:0.35803711 2:-4.82725 
0.01 1:0.3109375 2:-4.4159375 
0.01 1:0.18674414 2:-3.1843125 
0.01 1:0.19158008 2:-3.4986875 
0.01 1:0.22756836 2:-4.4533125 
0.01 1:0.31170117 2:-5.809375 
0.01 1:0.39331055 2:-4.977875 
0.01 1:0.434875 2:-4.560125 
0.01 1:0.32683789 2:-6.4313125 
0.01 1:0.25697852 2:-3.605125 
0.01 1:0.29839258 2:-3.6773125 
0.01 1:0.20086914 2:-3.31725 
0.01 1:0.19551367 2:-3.2100625 
0.01 1:0.2393457 2:-4.0664375 
0.01 1:0.42033008 2:-5.502875 
0.01 1:0.36908789 2:-5.0501875 
0.01 1:0.25655664 2:-5.4074375 
0.01 1:0.29278125 2:-3.8043125 
0.01 1:0.22444141 2:-3.7030625 
0.01 1:0.19939453 2:-4.548 
0.01 1:0.16262695 2:-3.097125 
0.01 1:0.15764063 2:-3.175875 
0.01 1:0.21278125 2:-4.3166875 
0.01 1:0.25874023 2:-3.8271875 
0.01 1:0.34544727 2:-5.52875 
0.01 1:0.2707832 2:-5.3389375 
0.01 1:0.35224805 2:-6.4756875 
0.01 1:0.28278711 2:-4.718 
0.01 1:0.26830078 2:-4.02525 
0.01 1:0.31943359 2:-2.8864375 
0.01 1:0.29039648 2:-5.8028125 
0.01 1:0.39713867 2:-5.9639375 
0.01 1:0.19082227 2:-4.2091875 
0.01 1:0.2089043 2:-4.3419375 
0.01 1:0.20897656 2:-5.02475 
0.01 1:0.20699023 2:-4.0103125 
0.01 1:0.20453516 2:-4.0585 
0.01 1:0.26362891 2:-5.6733125 
0.01 1:0.21373242 2:-4.1996875 
0.01 1:0.23918164 2:-4.54575 
0.01 1:0.33097266 2:-4.5104375 
0.01 1:0.25359766 2:-4.1344375 
0.01 1:0.47638086 2:-5.2835625 
0.01 1:0.1555293 2:-2.655 
0.01 1:0.20973633 2:-4.038875 
0.01 1:0.22877148 2:-3.5505625 
0.01 1:0.37748242 2:-5.4595 
0.01 1:0.305625 2:-5.8485 
0.01 1:0.26438477 2:-4.9513125 
0.01 1:0.29331641 2:-4.4920625 
0.01 1:0.22305664 2:-3.5366875 
0.01 1:0.38578516 2:-5.4433125 
0.01 1:0.23917187 2:-5.222875 
0.01 1:0.19100977 2:-3.729375 
0.01 1:0.30858789 2:-4.687 
0.01 1:0.26789844 2:-4.5989375 
0.01 1:0.11754102 2:-2.3025625 
0.01 1:0.22719727 2:-4.9126875 
0.01 1:0.13848047 2:-2.4273125 
0.01 1:0.39603125 2:-4.306 
0.01 1:0.34011914 2:-4.586625 
0.01 1:0.29912695 2:-3.834875 
0.01 1:0.27871484 2:-4.2055625 
0.01 1:0.37595117 2:-6.845625 
0.01 1:0.35535352 2:-5.9386875 
0.01 1:0.30757422 2:-4.07725 
0.01 1:0.23122266 2:-3.48075 
0.01 1:0.30176563 2:-5.1461875 
0.01 1:0.3050957 2:-3.9534375 
0.01 1:0.32823438 2:-4.709125 
0.01 1:0.30285156 2:-5.0973125 
0.01 1:0.12105859 2:-2.527625 
0.01 1:0.2517832 2:-5.5881875 
0.01 1:0.28070312 2:-4.0356875 
0.01 1:0.22875781 2:-3.6044375 
0.01 1:0.22660742 2:-3.98925 
0.01 1:0.36618555 2:-6.76 
0.01 1:0.28746484 2:-4.5245625 
0.01 1:0.28910742 2:-3.9309375 
0.01 1:0.20044727 2:-3.71625 
0.01 1:0.18832617 2:-3.489 
0.01 1:0.18031055 2:-3.44725 
0.01 1:0.17847266 2:-3.3421875 
0.01 1:0.12914453 2:-2.9133125 
0.01 1:0.13036719 2:-2.7336875 
0.01 1:0.4510293 2:-4.106875 
0.01 1:0.1760957 2:-3.3080625 
0.01 1:0.22874609 2:-4.1489375 
0.01 1:0.24329687 2:-3.3068125 
0.01 1:0.25021875 2:-4.4340625 
0.01 1:0.32984766 2:-4.237625 
0.01 1:0.19756445 2:-4.0320625 
0.01 1:0.35183594 2:-4.9570625 
0.01 1:0.28196289 2:-3.4839375 
0.01 1:0.17928516 2:-2.8095 
0.01 1:0.22643555 2:-2.9925625 
0.01 1:0.27652734 2:-5.0469375 
0.01 1:0.23964258 2:-3.02975 
0.01 1:0.23642187 2:-4.082625 
0.01 1:0.24691016 2:-5.0823125 
0.01 1:0.30623242 2:-5.047625 
0.01 1:0.2612793 2:-4.6709375 
0.01 1:0.24193164 2:-3.122625 
0.01 1:0.16492187 2:-3.25625 
0.01 1:0.23319922 2:-5.2978125 
0.01 1:0.24421875 2:-5.166 
0.01 1:0.099 2:-2.1715625 
0.01 1:0.42770703 2:-5.0911875 
0.01 1:0.18293945 2:-3.1890625 
0.01 1:0.41494922 2:-6.254125 
0.01 1:0.26510352 2:-4.29625 
0.01 1:0.14791016 2:-3.037625 
0.01 1:0.26779102 2:-3.713875 
0.01 1:0.30507812 2:-4.618125 
0.01 1:0.25939062 2:-4.4408125 
0.01 1:0.19146484 2:-3.2836875 
0.01 1:0.328875 2:-6.424 
0.01 1:0.31377148 2:-4.4531875 
0.01 1:0.22067578 2:-3.08325 
0.01 1:0.20544336 2:-3.30175 
0.01 1:0.32701953 2:-4.8238125 
0.01 1:0.3604707 2:-4.7850625 
0.01 1:0.35847852 2:-5.94475 
0.01 1:0.35266797 2:-6.0053125 
0.01 1:0.20885156 2:-2.680375 
0.01 1:0.23266016 2:-3.5296875 
0.01 1:0.2960625 2:-5.3981875 
0.01 1:0.37524414 2:-5.9794375 
0.01 1:0.12005273 2:-2.1151875 
0.01 1:0.26159375 2:-4.0564375 
0.01 1:0.29214844 2:-5.2791875 
0.01 1:0.2569082 2:-4.4128125 
0.01 1:0.35055469 2:-5.5453125 
0.01 1:0.16456836 2:-2.996875 
0.01 1:0.27766992 2:-4.905625 
0.01 1:0.13338672 2:-2.776875 
0.01 1:0.19645117 2:-3.3471875 
0.01 1:0.20576172 2:-4.013875 
0.01 1:0.19426953 2:-3.063375 
0.01 1:0.1242207 2:-2.5944375 
0.01 1:0.23111133 2:-4.5469375 
0.01 1:0.23511719 2:-4.8870625 
0.01 1:0.22686523 2:-4.147 
0.01 1:0.22783594 2:-4.2703125 
0.01 1:0.2359375 2:-4.10925 
0.01 1:0.23233203 2:-4.4281875 
0.01 1:0.18862109 2:-3.5570625 
0.01 1:0.2521875 2:-3.2321875 
0.01 1:0.2864082 2:-5.2571875 
0.01 1:0.28647266 2:-5.2295 
0.01 1:0.36582813 2:-4.68175 
0.01 1:0.20115625 2:-3.74225 
0.01 1:0.34041602 2:-5.3165625 
0.01 1:0.17203125 2:-3.1764375 
0.01 1:0.25717578 2:-3.669125 
0.01 1:0.26255664 2:-4.367875 
0.01 1:0.30680469 2:-5.958625 
0.01 1:0.20039648 2:-3.85675 
0.01 1:0.27812891 2:-5.2914375 
0.01 1:0.24467969 2:-4.843 
0.01 1:0.37833008 2:-5.1865 
0.01 1:0.25216211 2:-4.5590625 
0.01 1:0.3233418 2:-5.5028125 
0.01 1:0.40981836 2:-7.1111875 
0.01 1:0.30793164 2:-4.2683125 
0.01 1:0.20666992 2:-3.698125 
-0.01 1:0.20027539 2:-3.534375 
-0.01 1:0.29193555 2:-4.3520625 
-0.01 1:0.20337891 2:-3.3363125 
-0.01 1:0.21072461 2:-4.0576875 
-0.01 1:0.23323633 2:-4.245875 
-0.01 1:0.22111914 2:-4.2523125 
-0.01 1:0.28816211 2:-3.75325 
-0.01 1:0.32394141 2:-4.4250625 
-0.01 1:0.26214258 2:-4.100125 
-0.01 1:0.27851172 2:-5.1588125 
-0.01 1:0.4166543 2:-6.32025 
-0.01 1:0.25207813 2:-5.338125 
-0.01 1:0.39188867 2:-5.9671875 
-0.01 1:0.36164258 2:-5.9445 
-0.01 1:0.21068945 2:-3.207875 
-0.0001261122549627103 1:0.2195957 2:-4.1358125 
-0.01 1:0.14884961 2:-3.037 
-0.01 1:0.24953906 2:-2.5758125 
-0.01 1:0.19739063 2:-3.8541875 
-0.01 1:0.21387305 2:-4.0073125 
-0.01 1:0.26468555 2:-4.594875 
-0.01 1:0.29884375 2:-5.16125 
-0.01 1:0.19408008 2:-3.92775 
-0.01 1:0.20691602 2:-3.74675 
-0.01 1:0.37451172 2:-5.1918125 
-0.01 1:0.20191211 2:-3.6116875 
-0.01 1:0.28771484 2:-4.489 
-0.01 1:0.29344141 2:-5.347125 
-0.01 1:0.27433398 2:-3.6994375 
-0.01 1:0.27416016 2:-5.666125 
-0.01 1:0.20360742 2:-3.3480625 
-0.01 1:0.36351563 2:-4.783125 
-0.01 1:0.22704492 2:-4.5253125 
-0.01 1:0.26074023 2:-4.97875 
-0.001377904328298054 1:0.26513867 2:-4.947625 
-0.01 1:0.23526758 2:-3.806875 
-0.01 1:0.24554297 2:-3.801875 
-0.01 1:0.18567383 2:-3.1919375 
-0.009986074734946525 1:0.13382422 2:-2.432 
-0.01 1:0.19883789 2:-3.663375 
-0.01 1:0.28984375 2:-4.7261875 
-0.01 1:0.20630469 2:-3.6949375 
-0.01 1:0.2452207 2:-4.069625 
-0.01 1:0.28319336 2:-3.9333125 
-0.01 1:0.2803125 2:-4.0429375 
-0.01 1:0.20727734 2:-4.0871875 
-0.01 1:0.39870508 2:-6.2614375 
-0.01 1:0.2919043 2:-4.370125 
-0.01 1:0.32923242 2:-4.2795625 
-0.01 1:0.30735742 2:-5.0974375 
-0.01 1:0.33907031 2:-5.9951875 
-0.01 1:0.37076953 2:-6.1594375 
-0.01 1:0.27346484 2:-5.3194375 
-0.01 1:0.16535352 2:-3.2903125 
-0.01 1:0.27598633 2:-4.2910625 
-0.0001556056572523992 1:0.1092793 2:-0.1195 
-0.01 1:0.16263086 2:-2.6108125 
-0.01 1:0.33381445 2:-2.8750625 
-0.01 1:0.26952539 2:-5.3805 
-0.01 1:0.29372266 2:-4.1110625 
-0.01 1:0.20782617 2:-3.9805 
-0.01 1:0.27696094 2:-3.481375 
-0.01 1:0.21545312 2:-4.1344375 
-0.01 1:0.25381836 2:-5.42575 
-0.01 1:0.32707617 2:-5.3795 
-0.01 1:0.27837695 2:-4.208625 
-0.01 1:0.15584961 2:-2.3285625 
-0.01 1:0.22990625 2:-4.26575 
-0.01 1:0.19857227 2:-3.7183125 
-0.01 1:0.25841797 2:-3.5398125 
-0.0001890358406620364 1:0.19793945 2:-4.1524375 
-0.01 1:0.34739258 2:-4.986 
-0.01 1:0.21938672 2:-3.08825 
-0.01 1:0.23962695 2:-3.3054375 
-0.01 1:0.16482422 2:-2.99575 
-0.01 1:0.24912695 2:-4.228375 
-0.01 1:0.41664844 2:-5.8334375 
-0.01 1:0.33728711 2:-5.5165625 
-0.01 1:0.18858594 2:-4.2381875 
-0.01 1:0.32582617 2:-5.0324375 
-0.01 1:0.34221484 2:-5.6703125 
-0.01 1:0.35523242 2:-5.1198125 
-0.01 1:0.34974219 2:-5.7724375 
-0.01 1:0.24108398 2:-4.31275 
-0.01 1:0.19125977 2:-2.2409375 
-0.01 1:0.13840234 2:-2.729 
-0.01 1:0.17469141 2:-2.1999375 
-0.01 1:0.15491016 2:-3.04925 
-0.01 1:0.25251563 2:-4.2004375 
-0.01 1:0.29622656 2:-4.78775 
-0.01 1:0.27733398 2:-4.9113125 
-0.01 1:0.2777793 2:-5.2920625 
-0.01 1:0.37499023 2:-5.383375 
-0.01 1:0.2316875 2:-4.8935 
-0.01 1:0.30944727 2:-5.53075 
-0.01 1:0.22442969 2:-3.56525 
-0.01 1:0.33296875 2:-5.5289375 
-0.01 1:0.18732031 2:-3.1871875 
-0.01 1:0.32608203 2:-5.2506875 
-0.01 1:0.22222266 2:-3.8930625 
-0.01 1:0.12272852 2:-2.4301875 
-0.01 1:0.1909375 2:-3.7321875 
-0.01 1:0.24605078 2:-3.83775 
-0.01 1:0.20766602 2:-4.0169375 
-0.01 1:0.29980664 2:-6.0154375 
-0.01 1:0.20545117 2:-3.250625 
-0.01 1:0.40899219 2:-5.5123125 
-0.01 1:0.35889258 2:-6.5419375 
-0.01 1:0.17334375 2:-3.4825625 
-0.01 1:0.22425781 2:-3.2 
-0.01 1:0.31458398 2:-6.05 
-0.01 1:0.16792383 2:-3.2284375 
-0.01 1:0.29650781 2:-3.8868125 
-0.009985486467629758 1:0.31701953 2:-3.7220625 
-0.01 1:0.19992188 2:-2.851375 
-0.01 1:0.20560742 2:-3.632625 
-0.01 1:0.30542383 2:-4.773875 
-0.01 1:0.25853125 2:-4.44175 
-0.01 1:0.17407812 2:-3.102625 
-0.01 1:0.18902344 2:-4.05675 
-0.01 1:0.2909043 2:-5.123375 
-0.01 1:0.29452344 2:-5.858625 
-0.01 1:0.33484766 2:-6.761375 
-0.01 1:0.14933984 2:-2.861125 
-0.01 1:0.3395625 2:-5.95575 
-0.01 1:0.22405859 2:-3.8614375 
-0.009594365874133953 1:0.47209961 2:-4.102375 
-0.01 1:0.1967793 2:-4.2446875 
-0.01 1:0.26083203 2:-4.1255 
-0.01 1:0.23815625 2:-3.5234375 
-0.009179099689249676 1:0.48716016 2:-4.86025 
-0.01 1:0.19580078 2:-3.2155625 
-0.01 1:0.17663867 2:-3.0438125 
-0.01 1:0.33233008 2:-5.5936875 
-0.01 1:0.2788125 2:-4.1191875 
-0.01 1:0.15241797 2:-2.6614375 
-0.0008168065723438608 1:0.24530469 2:-4.861 
-0.01 1:0.20821875 2:-4.0215 
-0.01 1:0.26531055 2:-4.804 
-0.01 1:0.16033594 2:-3.4038125 
-0.01 1:0.39354883 2:-5.9889375 
-0.01 1:0.19991992 2:-3.5648125 
-0.01 1:0.1582793 2:-2.42875 
-0.01 1:0.2107832 2:-4.512875 
-0.009874414431263228 1:0.46201172 2:-5.260375 
-0.01 1:0.24689063 2:-3.7405625 
-0.01 1:0.32481836 2:-6.3535 
-0.01 1:0.19142383 2:-2.952 
-0.01 1:0.39512695 2:-6.255875 
-0.01 1:0.30325391 2:-4.8945625 
-0.01 1:0.35478711 2:-6.158125 
-0.01 1:0.19614844 2:-2.9331875 
-0.01 1:0.26508984 2:-4.06 
-0.01 1:0.25771875 2:-4.141 
-0.01 1:0.33543164 2:-4.2331875 
-0.01 1:0.23030078 2:-4.562125 
-0.000371331279424074 1:0.57983398 2:-1.5735625 
-0.01 1:0.33235938 2:-5.230375 
-0.01 1:0.34958789 2:-6.155125 
-0.01 1:0.25418359 2:-5.4633125 
-0.01 1:0.28505859 2:-5.2948125 
-0.01 1:0.23946289 2:-4.7473125 
-0.01 1:0.14767578 2:-2.7695625 
-0.01 1:0.17573242 2:-3.1003125 
-0.01 1:0.15929102 2:-3.25825 
-0.01 1:0.22725195 2:-4.150375 
-0.01 1:0.2184043 2:-3.258125 
-0.01 1:0.19228711 2:-3.721375 
-0.01 1:0.25866406 2:-5.145625 
-0.01 1:0.38022852 2:-5.2323125 
-0.01 1:0.38319141 2:-5.44775 
-0.01 1:0.18878906 2:-3.0636875 
-0.01 1:0.23607031 2:-2.3098125 
-0.01 1:0.28633789 2:-3.591 
-0.01 1:0.37462109 2:-4.6270625 
-0.01 1:0.17601953 2:-3.165375 
-0.01 1:0.25864844 2:-4.2033125 
-0.01 1:0.26000781 2:-4.66625 
-0.01 1:0.26664453 2:-5.2673125 
-0.01 1:0.32275195 2:-4.5200625 
-0.01 1:0.24077344 2:-3.4290625 
-0.01 1:0.24723047 2:-4.4385 
-0.01 1:0.18081641 2:-3.34325 
-0.01 1:0.29744727 2:-5.4004375 
-0.01 1:0.28400586 2:-4.984125 
-0.01 1:0.2720625 2:-5.821875 
-0.01 1:0.17764258 2:-3.615625 
-0.01 1:0.25649609 2:-4.84025 
-0.01 1:0.24776758 2:-4.3211875 
-0.01 1:0.33349023 2:-5.87225 
-0.01 1:0.29653906 2:-5.3133125 
-0.01 1:0.23552734 2:-4.1799375 
-9.048603024129921e-05 1:0.1796543 2:-4.172875 
-0.01 1:0.2641543 2:-3.894125 
-0.01 1:0.16354492 2:-3.2545625 
-0.01 1:0.18545703 2:-3.2850625 
-0.00970210083021154 1:0.25119336 2:-5.2188125 
-0.01 1:0.27126758 2:-4.673875 
-0.01 1:0.20120117 2:-4.0053125 
-0.01 1:0.28327148 2:-5.4188125 
-0.01 1:0.20894531 2:-4.481875 
-0.01 1:0.24595313 2:-5.170875 
-0.01 1:0.21396484 2:-4.0625625 
-0.01 1:0.34316602 2:-5.2844375 
-0.01 1:0.12046484 2:-2.772625 
-0.01 1:0.14162891 2:-2.912125 
-0.01 1:0.27169336 2:-5.148125 
-0.01 1:0.22425781 2:-4.310125 
-0.01 1:0.24679883 2:-3.1264375 
-0.01 1:0.31150781 2:-4.6233125 
-0.01 1:0.16879297 2:-3.4405 
-0.01 1:0.16398828 2:-2.6860625 
-0.01 1:0.20332227 2:-4.2685625 
-0.01 1:0.18257227 2:-3.9139375 
-0.01 1:0.19210547 2:-3.7350625 
-0.01 1:0.22722266 2:-2.2946875 
-0.01 1:0.24657422 2:-5.283375 
-0.01 1:0.42236328 2:-6.1394375 
-0.01 1:0.29729883 2:-3.9883125 
-0.01 1:0.18282422 2:-2.9845625 
-0.01 1:0.3836875 2:-4.3201875 
-0.01 1:0.2065332 2:-3.6621875 
-0.01 1:0.33454297 2:-4.7880625 
-0.01 1:0.33027148 2:-4.956875 
-0.01 1:0.33810352 2:-4.35 
-0.01 1:0.24404688 2:-4.05025 
-0.01 1:0.2444375 2:-4.2815625 
-0.01 1:0.3780293 2:-5.445875 
-0.01 1:0.22146875 2:-4.413 
-0.01 1:0.28387695 2:-4.8706875 
-0.01 1:0.33854492 2:-5.526625 
-0.01 1:0.13337695 2:-2.63725 
-0.01 1:0.13434375 2:-2.3210625 
-0.01 1:0.096986328 2:-2.1764375 
-0.01 1:0.31599023 2:-4.90325 
-0.01 1:0.17550586 2:-2.5815625 
-0.01 1:0.22113672 2:-3.8909375 
-0.01 1:0.39140039 2:-5.2985625 
-0.01 1:0.31619727 2:-6.3761875 
-0.01 1:0.30473828 2:-5.8505 
-0.01 1:0.31535937 2:-4.855125 
-0.01 1:0.18673828 2:-3.8420625 
-0.01 1:0.36483398 2:-5.3958125 
-0.01 1:0.29403906 2:-5.0471875 
-0.01 1:0.22812305 2:-4.5526875 
-0.01 1:0.19526562 2:-3.679375 
-0.01 1:0.17013477 2:-2.714375 
-0.01 1:0.25456445 2:-3.6688125 
-0.01 1:0.20374609 2:-3.9115625 
-0.01 1:0.34056836 2:-6.399125 
-0.01 1:0.25320117 2:-3.239875 
-0.01 1:0.37266602 2:-5.2381875 
-0.01 1:0.18521094 2:-4.1219375 
-0.01 1:0.25394141 2:-4.367 
-0.01 1:0.21207031 2:-3.7689375 
-0.01 1:0.18333398 2:-3.381 
-0.01 1:0.36661328 2:-6.022 
-0.01 1:0.29732031 2:-4.5391875 
-0.01 1:0.18808398 2:-3.4816875 
-0.01 1:0.28383789 2:-4.5254375 
-0.01 1:0.2390332 2:-4.7351875 
-0.01 1:0.20263086 2:-3.304875 
-0.009987128437711018 1:0.15628906 2:-3.502625 
-0.01 1:0.30438672 2:-5.9503125 
-0.01 1:0.29786133 2:-5.276125 
-0.01 1:0.21866016 2:-3.9565625 
-0.01 1:0.22593945 2:-3.865125 
-0.01 1:0.25855664 2:-4.6235625 
-0.01 1:0.38501367 2:-5.7355 
-0.01 1:0.4509043 2:-6.5925625 
-0.01 1:0.1232832 2:-2.5836875 
-0.01 1:0.23148828 2:-3.603875 
-0.01 1:0.19696289 2:-4.0366875 
-0.01 1:0.22231836 2:-4.296375 
-0.0001255855687367719 1:0.24168555 2:-5.2645625 
-0.01 1:0.28589844 2:-4.4878125 
-0.01 1:0.23910742 2:-3.884375 
-0.01 1:0.13827344 2:-2.6864375 
-0.01 1:0.19926562 2:-3.3844375 
-0.007744148288514273 1:0.28926172 2:-5.3529375 
-0.01 1:0.21072852 2:-3.4869375 
-0.01 1:0.26099023 2:-5.0278125 
-0.01 1:0.32032812 2:-4.418125 
-0.01 1:0.32371875 2:-4.4525 
-0.01 1:0.33609766 2:-5.6264375 
-0.01 1:0.27365625 2:-5.3413125 
-0.01 1:0.24564648 2:-3.865375 
-0.01 1:0.26067187 2:-3.8223125 
-0.01 1:0.16032422 2:-3.1524375 
-0.01 1:0.1959375 2:-2.11625 
-0.01 1:0.15376367 2:-2.8881875 
-0.01 1:0.26091406 2:-5.306875 
-0.003703959478636314 1:0.10405664 2:-2.366625 
-0.01 1:0.2372207 2:-4.8894375 
-0.01 1:0.29868555 2:-5.44775 
-0.01 1:0.24383789 2:-4.421625 
-0.01 1:0.2594668 2:-4.8190625 
-0.01 1:0.14549609 2:-2.8609375 
-0.01 1:0.32909766 2:-4.8469375 
-0.01 1:0.3237793 2:-4.92775 
-0.01 1:0.18314453 2:-2.6559375 
-0.01 1:0.18030859 2:-2.8774375 
-0.002859231738643421 1:0.18048438 2:-3.661 
-0.01 1:0.17422852 2:-3.18075 
-0.01 1:0.25723633 2:-4.8356875 
-0.01 1:0.23702539 2:-4.615 
-0.01 1:0.20492383 2:-3.8988125 
-0.01 1:0.28030664 2:-4.3249375 
-5.167712601754841e-05 1:0.14083398 2:-3.0911875 
-0.01 1:0.35353711 2:-6.4664375 
-0.01 1:0.30776562 2:-5.9931875 
-0.01 1:0.18944727 2:-4.271 
-0.01 1:0.33039648 2:-5.4395 
-0.01 1:0.3229082 2:-6.2829375 
-0.01 1:0.20204688 2:-3.360375 
-0.01 1:0.26016406 2:-4.3838125 
-0.01 1:0.24214063 2:-4.5038125 
-0.01 1:0.43591602 2:-5.860375 
-0.01 1:0.2802832 2:-4.3881875 
-0.01 1:0.24125 2:-3.3565 
-0.01 1:0.18046875 2:-2.948375 
-0.01 1:0.23874805 2:-3.977375 
-0.01 1:0.32398437 2:-5.519 
-0.01 1:0.29339648 2:-3.8018125 
-0.01 1:0.22622461 2:-3.44825 
-0.01 1:0.27026563 2:-4.021375 
-0.01 1:0.31517969 2:-4.672375 
-0.01 1:0.24999023 2:-4.23425 
-0.01 1:0.22804492 2:-3.699125 
-0.01 1:0.28069141 2:-5.3175625 
-0.01 1:0.33494336 2:-6.0705625 
-0.01 1:0.28961328 2:-5.0679375 
-0.002255851711485727 1:0.28564844 2:-5.3563125 
-0.01 1:0.17954883 2:-3.3505625 
-0.01 1:0.19839258 2:-3.6535625 
-0.01 1:0.23759961 2:-3.883125 
-0.01 1:0.15335352 2:-3.1814375 
-0.009831932128896131 1:0.13378516 2:-3.048875 
-0.01 1:0.33393945 2:-5.0185 
-0.007140768261356579 1:0.17191797 2:-3.66225 
-0.01 1:0.18870117 2:-3.0108125 
-0.01 1:0.29270508 2:-5.25575 
-0.01 1:0.30638672 2:-3.60425 
-0.01 1:0.32026367 2:-6.1031875 
-0.01 1:0.19036914 2:-4.209875 
-0.01 1:0.15630273 2:-3.26325 
-0.01 1:0.11491797 2:-2.302125 
-0.01 1:0.19397852 2:-3.848375 
-0.01 1:0.24354102 2:-4.6081875 
-0.01 1:0.26442188 2:-5.5128125 
-0.01 1:0.4214707 2:-4.5469375 
-0.01 1:0.21372266 2:-3.2156875 
-0.01 1:0.18944141 2:-3.60075 
-0.01 1:0.28433203 2:-4.1348125 
-0.01 1:0.24639844 2:-4.5955625 
-0.01 1:0.23691406 2:-3.568375 
-0.01 1:0.17810742 2:-3.70925 
-0.01 1:0.20986328 2:-4.2008125 
-0.01 1:0.34071094 2:-6.2910625 
-0.01 1:0.17310937 2:-2.4065 
-0.01 1:0.13572852 2:-2.5335 
-0.01 1:0.25425781 2:-3.375125 
-0.001506128036849404 1:0.39944727 2:-5.0774375 
-0.01 1:0.27383008 2:-5.41075 
-0.01 1:0.23408203 2:-4.2324375 
-0.01 1:0.22638281 2:-3.972 
-0.01 1:0.24883203 2:-4.1166875 
-0.01 1:0.11286719 2:-2.107375 
-0.01 1:0.2544375 2:-4.094875 
-0.01 1:0.12463281 2:-2.6011875 
-0.01 1:0.13299805 2:-2.9773125 
-0.01 1:0.14148828 2:-3.1513125 
-0.01 1:0.17964063 2:-3.5225 
-0.01 1:0.16257031 2:-3.3836875 
-0.01 1:0.26100781 2:-4.4465625 
-0.01 1:0.22468359 2:-4.2766875 
-0.01 1:0.29255078 2:-4.3645 
-0.01 1:0.22213477 2:-4.2635625 
-0.01 1:0.31027734 2:-5.6106875 
-0.01 1:0.23668945 2:-3.4695625 
-0.01 1:0.25172266 2:-5.077125 
-0.01 1:0.18492578 2:-3.3076875 
-0.01 1:0.24388867 2:-4.0931875 
-0.01 1:0.23607227 2:-3.9830625 
-0.01 1:0.35218555 2:-4.829875 
-0.01 1:0.25711914 2:-4.0904375 
-0.01 1:0.26133203 2:-4.7173125 
-0.01 1:0.18411523 2:-3.1863125 
-0.01 1:0.1854707 2:-3.49675 
-0.01 1:0.28783594 2:-4.0601875 
-0.01 1:0.15643164 2:-2.609 
-0.01 1:0.2129668 2:-4.0715 
-0.01 1:0.35895312 2:-5.38 
-0.007699642696114211 1:0.30421484 2:-4.210125 
-0.01 1:0.37807812 2:-5.0475 
-0.01 1:0.29329687 2:-4.0680625 
-0.01 1:0.34525391 2:-5.8870625 
-0.01 1:0.21836328 2:-3.3104375 
-0.01 1:0.183125 2:-3.060875 
-0.01 1:0.31505469 2:-4.7126875 
-0.01 1:0.18858008 2:-3.26925 
-0.01 1:0.24400781 2:-3.856625 
-0.01 1:0.25590625 2:-4.9785625 
-0.002300357303885789 1:0.30995313 2:-4.216375 
-0.01 1:0.35965234 2:-4.6843125 
-0.01 1:0.24521484 2:-4.95975 
-0.01 1:0.22640625 2:-4.277375 
-0.01 1:0.21740625 2:-4.2459375 
-0.01 1:0.2397168 2:-3.8524375 
-0.01 1:0.20479687 2:-4.2284375 
-0.01 1:0.25033008 2:-4.57875 
-0.01 1:0.28091016 2:-5.2229375 
-0.01 1:0.24972461 2:-4.840625 
-0.01 1:0.3662168 2:-5.5426875 
-0.01 1:0.27031445 2:-4.449 
-0.01 1:0.24691016 2:-4.2561875 
-0.01 1:0.23267969 2:-4.1489375 
-0.01 1:0.28044922 2:-4.8344375 
-0.01 1:0.24623047 2:-4.563 
-0.01 1:0.24902539 2:-4.4651875 
-0.01 1:0.23028906 2:-4.82625 
-0.01 1:0.20635547 2:-3.31375 
-0.01 1:0.22541211 2:-5.2675 
-0.01 1:0.34674219 2:-6.1005625 
-0.01 1:0.26612695 2:-4.95275 
-0.01 1:0.31826172 2:-5.8076875 
-0.01 1:0.26391602 2:-4.205625 
-0.01 1:0.17340039 2:-2.8970625 
-0.01 1:0.22170898 2:-2.994125 
-0.01 1:0.30180469 2:-3.6710625 
-0.01 1:0.21189258 2:-4.8935 
-0.01 1:0.18333789 2:-2.972125 
-0.01 1:0.33506445 2:-4.2043125 
-0.01 1:0.30936133 2:-5.0581875 
-0.01 1:0.26474805 2:-5.0976875 
-0.01 1:0.30346094 2:-5.1415 
-0.01 1:0.36801953 2:-6.04 
-0.01 1:0.22574414 2:-3.9910625 
-0.01 1:0.27930469 2:-4.776375 
-0.01 1:0.24279883 2:-4.3206875 
-0.01 1:0.23031836 2:-4.3780625 
-0.01 1:0.28638672 2:-4.4854375 
-0.01 1:0.16273437 2:-3.362 
-0.01 1:0.20242773 2:-2.74125 
-0.01 1:0.26255859 2:-3.6566875 
-0.01 1:0.25118164 2:-5.15825 
-0.01 1:0.3152832 2:-4.88725 
-0.01 1:0.33769336 2:-4.9349375 
-0.01 1:0.17387305 2:-3.586375 
-0.01 1:0.23776758 2:-4.4204375 
-0.01 1:0.18412891 2:-3.661625 
-0.01 1:0.34759375 2:-5.3243125 
-0.01 1:0.21265039 2:-3.7266875 
-0.01 1:0.25937695 2:-3.4583125 
-0.01 1:0.23342188 2:-3.4863125 
-0.01 1:0.21227734 2:-3.9625 
-0.01 1:0.25419531 2:-4.5434375 
-0.01 1:0.2325 2:-3.7203125 
-0.01 1:0.20410352 2:-5.0283125 
-0.01 1:0.22142969 2:-3.6686875 
-0.01 1:0.39533594 2:-6.7176875 
-0.01 1:0.19753125 2:-3.98325 
-0.01 1:0.28383789 2:-4.0355 
-0.01 1:0.15353906 2:-3.362 
-0.01 1:0.19176953 2:-3.300375 
-0.01 1:0.22743945 2:-4.0495 
-0.01 1:0.085773437 2:-1.749625 
-0.01 1:0.15125977 2:-2.6233125 
-0.01 1:0.26363281 2:-4.3346875 
-0.01 1:0.26353125 2:-5.2593125 
-0.01 1:0.3019375 2:-5.195875 
-0.01 1:0.34606445 2:-6.244125 
-0.01 1:0.27218164 2:-4.5251875 
-0.01 1:0.1474375 2:-2.99075 
-0.009999999999999998 1:0.19266211 2:-3.5565625 
-0.0002978991697884605 1:0.2871582 2:-5.202125 
-0.01 1:0.21166602 2:-4.4863125 
-0.01 1:0.29333203 2:-5.2593125 
-0.01 1:0.31257617 2:-5.3324375 
-0.01 1:0.23787109 2:-4.0896875 
-0.01 1:0.26904297 2:-4.7441875 
-0.01 1:0.31229102 2:-6.0148125 
-0.01 1:0.44730469 2:-5.969375 
-0.01 1:0.16499609 2:-2.9005 
-0.01 1:0.41330273 2:-6.1581875 
-0.01 1:0.12766797 2:-2.7193125 
-0.01 1:0.29880859 2:-4.723125 
-0.01 1:0.16439453 2:-3.093875 
-0.01 1:0.23346289 2:-4.9045 
-0.01 1:0.29719141 2:-4.0711875 
-0.01 1:0.18298047 2:-3.544875 
-0.01 1:0.27125781 2:-5.2478125 
-0.01 1:0.15566992 2:-2.544 
-0.01 1:0.26753125 2:-5.033 
-0.01 1:0.26738867 2:-4.9895625 
-0.01 1:0.21193945 2:-3.8865 
-0.01 1:0.15734961 2:-3.1759375 
-0.01 1:0.27801367 2:-5.795875 
-0.01 1:0.21971289 2:-3.4724375 
-0.01 1:0.2629043 2:-3.59625 
-0.01 1:0.23008008 2:-3.0500625 
-0.003138890786381591 1:0.20969922 2:-4.5064375 
-0.01 1:0.26219922 2:-5.5840625 
-0.01 1:0.23560938 2:-4.2560625 
-0.01 1:0.25762891 2:-4.3735 
-0.01 1:0.15815039 2:-3.1249375 
-0.01 1:0.16629297 2:-3.0365625 
-0.01 1:0.27663672 2:-4.79175 
-0.01 1:0.16031445 2:-3.2430625 
-0.01 1:0.19292188 2:-4.2135 
-0.01 1:0.16492383 2:-2.9089375 
-0.01 1:0.28000586 2:-5.0475 
-0.01 1:0.20388867 2:-4.0078125 
-0.01 1:0.23042383 2:-4.1130625 
-0.01 1:0.19194727 2:-3.5285 
-0.01 1:0.19033594 2:-3.621 
-0.01 1:0.20601758 2:-4.127125 
-0.01 1:0.23006445 2:-4.1926875 
-0.01 1:0.21710742 2:-3.57425 
-0.01 1:0.16975977 2:-3.0816875 
-0.01 1:0.32649414 2:-4.8268125 
-0.01 1:0.37478125 2:-5.4715 
-0.01 1:0.23944336 2:-3.7123125 
-0.01 1:0.29471094 2:-3.955125 
-0.001015048754207115 1:0.43275195 2:-5.0771875 
-0.01 1:0.25908398 2:-4.4743125 
-0.01 1:0.23747656 2:-3.9735 
-0.01 1:0.39936523 2:-5.981625 
-0.01 1:0.20644336 2:-4.13675 
-0.01 1:0.24024219 2:-4.55325 
-0.01 1:0.32918945 2:-4.736375 
-0.01 1:0.17208594 2:-3.5984375 
-0.01 1:0.22114844 2:-3.5301875 
-0.01 1:0.30334375 2:-5.173875 
-0.01 1:0.27080273 2:-4.5884375 
-0.01 1:0.17577539 2:-3.6035625 
-0.01 1:0.22842773 2:-3.4714375 
-0.01 1:0.20650391 2:-3.9256875 
-0.006235223048125335 1:0.27044922 2:-2.3269375 
-0.01 1:0.19802344 2:-3.217 
-0.01 1:0.14847461 2:-2.8761875 
-0.01 1:0.18999219 2:-2.8030625 
-0.01 1:0.19323633 2:-3.479375 
-0.01 1:0.19595898 2:-3.7265625 
-0.01 1:0.23612891 2:-4.33225 
-0.01 1:0.30944727 2:-4.920875 
-2.182797521458899e-05 1:0.40119336 2:-7.3266875 
-0.0002046286094226218 1:0.20789063 2:-3.1371875 
-0.01 1:0.2140918 2:-4.74425 
-0.01 1:0.30253906 2:-5.967375 
-0.01 1:0.23178906 2:-3.548875 
-0.01 1:0.30795703 2:-6.1831875 
-0.01 1:0.27466602 2:-6.4654375 
-0.01 1:0.20672852 2:-4.349125 
-0.01 1:0.28149414 2:-4.88575 
-0.01 1:0.19666016 2:-2.7878125 
-9.670781014515209e-05 1:0.50546875 2:-2.978125 
-0.01 1:0.2403418 2:-4.1645625 
-0.01 1:0.26429297 2:-4.2974375 
-0.01 1:0.24718359 2:-3.56925 
-0.006861109213618409 1:0.2156543 2:-4.505875 
-0.01 1:0.2029707 2:-4.5528125 
-0.008622095671701946 1:0.26544531 2:-4.9369375 
-0.01 1:0.20196289 2:-3.2884375 
-0.01 1:0.18744141 2:-4.0124375 
-0.01 1:0.19902148 2:-3.129625 
-0.01 1:0.25959375 2:-4.4963125 
-0.01 1:0.29066602 2:-5.2228125 
-0.009795371390577378 1:0.21031641 2:-3.1408125 
-0.01 1:0.29921875 2:-5.0480625 
-0.01 1:0.15406055 2:-2.5658125 
-0.01 1:0.29808984 2:-4.7075625 
-0.01 1:0.2490625 2:-3.720875 
-0.01 1:0.29440625 2:-4.072 
-0.01 1:0.16990234 2:-3.0521875 
-0.01 1:0.22654297 2:-4.5641875 
-0.01 1:0.28054102 2:-4.74375 
-0.01 1:0.27980664 2:-4.7280625 
-0.01 1:0.3006875 2:-3.8331875 
-0.01 1:0.23220703 2:-3.9996875 
-0.01 1:0.21078516 2:-3.50975 
-0.01 1:0.26028125 2:-5.3745 
-0.01 1:0.29775781 2:-4.6875 
-0.01 1:0.36097461 2:-6.4238125 
-0.01 1:0.26287891 2:-5.386375 
-0.01 1:0.18129297 2:-3.3499375 
-0.01 1:0.17897461 2:-3.3109375 
-0.01 1:0.32176758 2:-4.7096875 
-1.734723475976807e-18 1:0.23586719 2:-4.0855 
-0.01 1:0.27562305 2:-3.7109375 
-0.01 1:0.21031055 2:-4.0326875 
-0.01 1:0.11748047 2:-2.1705 
-0.01 1:0.24755078 2:-4.476 
-0.01 1:0.2448418 2:-3.6040625 
-0.01 1:0.31710937 2:-4.3620625 
-0.01 1:0.30117773 2:-4.08525 
-0.01 1:0.22544141 2:-4.4345625 
-0.01 1:0.2194043 2:-3.8799375 
-0.008001618719406208 1:0.42561328 2:-5.0830625 
-0.01 1:0.25457422 2:-4.7360625 
-0.0009833325263866777 1:0.40423828 2:-5.0844375 
-0.01 1:0.23528906 2:-5.5748125 
-0.01 1:0.15348438 2:-2.6431875 
-0.01 1:0.22977344 2:-4.459 
-0.01 1:0.20333984 2:-3.7419375 
-0.01 1:0.25813086 2:-3.672125 
-0.01 1:0.19928711 2:-2.6759375 
-0.01 1:0.41570703 2:-5.70025 
-0.01 1:0.26888086 2:-3.809625 
-0.01 1:0.33202344 2:-4.4995625 
-0.01 1:0.33197852 2:-4.3599375 
-0.01 1:0.32796484 2:-5.77075 
-0.01 1:0.21462891 2:-4.4306875 
-0.01 1:0.29725 2:-3.954375 
-0.01 1:0.30228516 2:-4.418375 
-0.01 1:0.24388672 2:-4.416375 
-0.01 1:0.24075195 2:-4.7785625 
-0.008493871963150596 1:0.39397461 2:-5.0691875 
-0.01 1:0.20483008 2:-3.5805 
-0.01 1:0.27248438 2:-4.0574375 
-0.01 1:0.27817773 2:-5.013 
-0.01 1:0.21408984 2:-4.0924375 
-0.01 1:0.29885547 2:-5.465125 
-0.01 1:0.3429043 2:-4.523625 
-0.0002346299978372887 1:0.60116992 2:-1.4695625 
-0.0001319035193995919 1:0.54976758 2:-0.798875 
-0.01 1:0.20539453 2:-4.3329375 
-0.01 1:0.23125195 2:-4.1251875 
-0.01 1:0.14062305 2:-2.6523125 
-0.01 1:0.22920898 2:-4.2850625 
-0.01 1:0.20837891 2:-3.922875 
-0.01 1:0.22953125 2:-4.0635 
-0.01 1:0.31008008 2:-5.411625 
-0.01 1:0.16992578 2:-3.4936875 
-0.01 1:0.2670332 2:-4.2991875 
-0.009219980164810756 1:0.077703125 2:-1.7349375 
-0.01 1:0.2065918 2:-3.79375 
-0.01 1:0.18350391 2:-3.443625 
-1.360295639689073e-05 1:0.30435937 2:-6.94625 
-0.01 1:0.29102344 2:-4.49575 
-0.01 1:0.17662891 2:-4.19575 
-0.01 1:0.37275586 2:-7.081375 
-0.0002423075014859569 1:0.35354297 2:-7.0851875 
-0.01 1:0.30747852 2:-5.424875 
-0.01 1:0.3381582 2:-5.9806875 
-0.01 1:0.18887695 2:-3.8695 
-0.01 1:0.33826953 2:-5.990625 
-0.00998082542552505 1:0.24685352 2:-3.0428125 
-0.01 1:0.30987109 2:-4.26675 
-0.01 1:0.24000195 2:-3.0318125 
-0.01 1:0.29062891 2:-4.898125 
-0.01 1:0.30686914 2:-4.639625 
-0.009753890028952085 1:0.41708984 2:-7.1114375 
-0.01 1:0.19374805 2:-3.6446875 
-0.01 1:0.1618457 2:-3.0893125 
-0.01 1:0.21333594 2:-3.8818125 
-0.01 1:0.28948047 2:-5.2085 
-0.01 1:0.17953711 2:-3.50825 
-0.01 1:0.24111133 2:-4.3975625 
-0.01 1:0.19591602 2:-3.3183125 
-0.01 1:0.1367168 2:-2.7264375 
-0.01 1:0.25860352 2:-4.259625 
-0.01 1:0.20150977 2:-3.11175 
-0.01 1:0.29993359 2:-4.6115625 
-0.01 1:0.2085332 2:-3.418375 
-0.01 1:0.29158789 2:-5.2996875 
-0.01 1:0.40074023 2:-6.8451875 
-0.01 1:0.36516211 2:-4.9870625 
-0.01 1:0.12617969 2:-2.7285 
-0.01 1:0.41186133 2:-5.304625 
-0.01 1:0.24916992 2:-4.545 
-0.002828887179878506 1:0.21693359 2:-4.2391875 
-0.01 1:0.30825977 2:-4.8471875 
-0.01 1:0.19941016 2:-3.5315 
-0.01 1:0.39958398 2:-4.91325 
-0.01 1:0.33241016 2:-4.583 
-0.01 1:0.32321094 2:-4.373875 
-0.01 1:0.31683008 2:-4.07375 
-0.01 1:0.43819336 2:-6.483 
-0.01 1:0.25547266 2:-4.4555 
-0.01 1:0.24019922 2:-3.4763125 
-0.01 1:0.22665625 2:-3.7025625 
-0.01 1:0.21434766 2:-3.661375 
-0.01 1:0.27160938 2:-4.8741875 
-0.01 1:0.20933984 2:-4.3206875 
-0.007171112820121494 1:0.20572656 2:-4.2385 
-0.01 1:0.3889668 2:-4.9733125 
-0.01 1:0.23616016 2:-5.0321875 
-0.01 1:0.35661523 2:-5.604375 
-0.01 1:0.19087891 2:-2.5153125 
-0.01 1:0.23288086 2:-4.4238125 
