svm_type c_svc
kernel_type polynomial
degree 2
gamma 1
coef0 1
nr_class 2
total_sv 1781
rho -1.00198
label 1 0
nr_sv 1239 542
SV
0.003465507161956912 1:0.28954102 2:-4.644125 
0.0003200002966532318 1:0.32469141 2:-4.671125 
0.003242799988992553 1:0.24815234 2:-3.5175 
0.01 1:0.17676562 2:-2.18075 
0.01 1:0.29141602 2:-3.130625 
0.0002652218300854623 1:0.23461914 2:-3.3475 
4.677750167860221e-05 1:0.28325195 2:-4.861125 
1.454858278897455e-05 1:0.37638086 2:-6.194875 
0.0005303652519770859 1:0.30213477 2:-3.89275 
0.01 1:0.31656641 2:-2.7206875 
0.0009126190964827057 1:0.31361914 2:-3.78425 
0.0005681363307374492 1:0.30116602 2:-3.454875 
0.004127011897559607 1:0.29473242 2:-3.053 
0.009732682145840346 1:0.41161914 2:-3.4816875 
0.008561236870614683 1:0.47179688 2:-4.263875 
0.0002292562665911242 1:0.30964648 2:-4.949125 
0.0002277186984392281 1:0.29937891 2:-5.5686875 
0.0005815268480647375 1:0.304 2:-4.2009375 
3.755604807098342e-05 1:0.39301562 2:-4.5141875 
0.000306804073305138 1:0.29694531 2:-3.1875 
0.0002108381587751108 1:0.31182031 2:-5.115875 
1.007670807825322e-05 1:0.3470957 2:-5.96525 
0.01 1:0.18338477 2:-1.7868125 
0.003685587234695532 1:0.21601367 2:-2.9423125 
0.0003418126023565064 1:0.33870313 2:-4.6759375 
0.0002214725705809072 1:0.36472656 2:-5.27075 
0.002989730200438442 1:0.20225391 2:-2.3948125 
0.01 1:0.2812207 2:-4.057375 
0.0001370864190809851 1:0.25852344 2:-4.745875 
0.001251872465372787 1:0.28683789 2:-4.4883125 
0.001592680151080029 1:0.30006445 2:-4.989 
0.001990054997108419 1:0.24014258 2:-2.9931875 
0.0006925918390092948 1:0.30149805 2:-3.2504375 
0.001327088880180572 1:0.20792578 2:-2.2953125 
2.203885028880303e-05 1:0.34291211 2:-6.461375 
0.000604929929851402 1:0.31355664 2:-4.3781875 
0.01 1:0.28036523 2:-3.41475 
0.0002986174756606604 1:0.19739063 2:-3.8541875 
0.0008554465676718406 1:0.31999023 2:-3.4375 
0.01 1:0.31866406 2:-3.081875 
0.01 1:0.25545898 2:-3.367125 
0.003884972747653702 1:0.34135156 2:-3.9849375 
0.001635569834611409 1:0.28839453 2:-3.682625 
0.0007525245246959234 1:0.36500586 2:-4.0619375 
0.002825397851161785 1:0.27570508 2:-1.7501875 
0.007205027933746145 1:0.27545117 2:-3.180875 
0.007287540584322879 1:0.2234082 2:-2.465375 
0.01 1:0.28710156 2:-3.6726875 
0.00206104866806744 1:0.29000391 2:-4.12425 
0.0001196165771255552 1:0.31611523 2:-3.318625 
5.521735106540857e-05 1:0.34348047 2:-2.28275 
0.0004307989234284304 1:0.13867773 2:-2.1584375 
0.01 1:0.26838477 2:-3.1514375 
0.007173123381748237 1:0.26169922 2:-2.8788125 
0.01 1:0.33290039 2:-3.62125 
0.0008143653923668588 1:0.22383594 2:-2.1114375 
0.001116740237106805 1:0.32070508 2:-4.3083125 
2.412693846082512e-05 1:0.35275195 2:-5.096875 
0.0003333608633795225 1:0.46189453 2:-4.7460625 
0.001190904581366805 1:0.28038086 2:-4.51125 
0.01 1:0.4447832 2:-5.192375 
0.01 1:0.30793359 2:-6.8123125 
0.009840168000744276 1:0.28956836 2:-6.3693125 
0.007417375404052452 1:0.30739453 2:-6.3014375 
0.01 1:0.24242383 2:-3.8374375 
0.01 1:0.28737109 2:-4.235875 
0.0002234246544001388 1:0.33624805 2:-2.221875 
0.0002484794265859313 1:0.2875332 2:-5.1054375 
0.01 1:0.31138867 2:-2.953875 
0.009784466705787347 1:0.10011719 2:-1.7415625 
0.01 1:0.089693359 2:-1.929 
0.0007267099785329599 1:0.28545508 2:-4.1744375 
0.003117698506061442 1:0.19375391 2:-2.2433125 
0.001634878019804193 1:0.17836914 2:-2.2420625 
0.01 1:0.29399219 2:-2.9063125 
0.003327189173748988 1:0.34798633 2:-4.020125 
0.000736505248622968 1:0.29919727 2:-3.645375 
0.003128009682257162 1:0.24614648 2:-3.1475 
0.00176776368961106 1:0.19016016 2:-2.035125 
0.01 1:0.34317578 2:-3.28275 
0.005732577549556897 1:0.35558789 2:-3.6624375 
0.01 1:0.22948242 2:-2.170625 
0.01 1:0.21878516 2:-3.5774375 
0.001139001618966891 1:0.31200586 2:-4.8094375 
3.513649290070676e-05 1:0.19665234 2:-1.8435 
0.0004384600626999512 1:0.27144727 2:-4.3475 
0.005395005042006296 1:0.18727148 2:-2.3613125 
0.00969888943793475 1:0.21219141 2:-4.848875 
0.001649775588874934 1:0.29048438 2:-2.908625 
0.0008247198627404597 1:0.27994922 2:-4.938125 
0.0003124759270274042 1:0.25383398 2:-5.38075 
0.001275676998134337 1:0.26782617 2:-3.1501875 
0.004185517541893818 1:0.35231641 2:-2.5646875 
0.001020710271802288 1:0.15948437 2:-2.029 
0.01 1:0.36882227 2:-3.3408125 
0.01 1:0.26129492 2:-2.958625 
0.0003927736139809116 1:0.28758984 2:-5.0668125 
0.001210132662841061 1:0.18875977 2:-2.61775 
0.0004651871577678043 1:0.23842773 2:-4.6815 
0.005281464718277955 1:0.26806055 2:-2.1526875 
0.001862348990375877 1:0.27436719 2:-2.3890625 
0.0020827605934599 1:0.22574414 2:-2.3684375 
0.01 1:0.35638672 2:-4.4035 
0.01 1:0.23852734 2:-3.167 
0.0002216473405069148 1:0.26625781 2:-5.1054375 
0.0002324941680033542 1:0.34298242 2:-4.6171875 
0.004061641557159212 1:0.34233203 2:-3.7615 
0.002777037872524236 1:0.31919531 2:-2.3588125 
0.001818875597490857 1:0.28319336 2:-3.9333125 
0.005741017248514041 1:0.33800977 2:-5.073625 
0.0005052153630000292 1:0.20280859 2:-4.48875 
0.0005563939828691173 1:0.34061719 2:-4.7765625 
0.001948588028203295 1:0.32891211 2:-3.746125 
0.007578056552501341 1:0.2579707 2:-2.818 
0.007468312133125829 1:0.31813086 2:-3.305625 
0.01 1:0.37532617 2:-3.6785 
0.003315875659902862 1:0.21820898 2:-2.6646875 
0.01 1:0.28378711 2:-2.2425 
0.0005257986393532978 1:0.338125 2:-5.053 
0.01 1:0.35166406 2:-3.349 
0.003382716075297196 1:0.28976367 2:-2.34075 
2.042645898016025e-05 1:0.2684375 2:-2.4340625 
0.01 1:0.29695898 2:-1.7955625 
0.01 1:0.27430469 2:-2.704875 
0.01 1:0.2959082 2:-2.391625 
0.01 1:0.33640039 2:-2.6640625 
0.003025561363151404 1:0.21958984 2:-2.6198125 
0.0002434908454554009 1:0.34080859 2:-1.552 
0.0001618711406033409 1:0.30784375 2:-3.0463125 
0.01 1:0.38376562 2:-3.8575625 
0.001156794974409655 1:0.38344141 2:-3.6039375 
0.01 1:0.31676953 2:-2.14075 
0.002230348888034675 1:0.40021875 2:-3.975125 
0.001918488888748914 1:0.34657227 2:-2.2581875 
6.06975943253209e-05 1:0.33625781 2:-1.9894375 
0.01 1:0.3046875 2:-2.61025 
0.001138879886482834 1:0.3295625 2:-2.4216875 
0.01 1:0.21762695 2:-3.75125 
0.003380891937780294 1:0.30416992 2:-2.0409375 
0.01 1:0.33381445 2:-2.8750625 
0.01 1:0.39472266 2:-4.070375 
0.01 1:0.35253516 2:-3.5119375 
0.01 1:0.18969141 2:-2.3571875 
0.0005874803039065385 1:0.18283203 2:-1.520625 
5.241200240807723e-06 1:0.24919336 2:-1.8699375 
0.006165439498899339 1:0.3222207 2:-2.497375 
0.003922147811641659 1:0.27315234 2:-2.730375 
0.001127536796248552 1:0.17047266 2:-2.255125 
0.01 1:0.18683984 2:-4.0678125 
0.005713553423284292 1:0.31222266 2:-1.824 
2.328292875333757e-05 1:0.23729883 2:-1.4004375 
0.0008567967115694331 1:0.15191211 2:-2.062875 
0.0005753087813712492 1:0.33769336 2:-4.283375 
0.01 1:0.44503711 2:-3.56625 
0.01 1:0.25205078 2:-2.93175 
0.001335095067093842 1:0.25076563 2:-3.720375 
0.003179504436230225 1:0.32707617 2:-5.3795 
0.002556978719562997 1:0.26273438 2:-3.28225 
4.907717391918289e-06 1:0.37676367 2:-5.549 
0.001186340867363256 1:0.28365039 2:-2.8665 
0.001342616832658535 1:0.42345313 2:-3.9575 
0.001784528002324908 1:0.24237109 2:-4.1006875 
0.000205434211921933 1:0.30292383 2:-2.5051875 
0.002154608674879162 1:0.42413672 2:-4.6000625 
0.0006062364800241721 1:0.30417187 2:-4.292125 
0.01 1:0.36448047 2:-5.8969375 
0.0008666264071484438 1:0.39049805 2:-3.56675 
0.0006202937105315758 1:0.4319082 2:-4.9931875 
0.0009563847465154226 1:0.26139648 2:-3.9065 
0.0005714813164426117 1:0.29560352 2:-3.0410625 
0.01 1:0.27342773 2:-2.5523125 
0.01 1:0.33716992 2:-1.6179375 
0.00210750069049008 1:0.32062109 2:-1.7270625 
0.0008837585697381994 1:0.25826562 2:-1.6623125 
3.51951742343203e-05 1:0.21630273 2:-1.4938125 
0.007805393199121513 1:0.18425391 2:-2.939625 
0.01 1:0.25568945 2:-2.894875 
0.0002165979153817876 1:0.46158789 2:-6.3245 
0.00175414926993714 1:0.21938672 2:-3.08825 
0.005344642280003459 1:0.33024219 2:-3.121625 
7.767952699153271e-05 1:0.34599805 2:-2.140125 
0.0005820438775049566 1:0.24593945 2:-2.1311875 
0.0006690404841744084 1:0.24601367 2:-2.191 
0.0002709306566991358 1:0.24747852 2:-2.792 
0.005972234991008965 1:0.38256445 2:-3.61 
0.0004945552093672483 1:0.35455664 2:-3.95475 
0.0006946715240660846 1:0.28221484 2:-5.066125 
0.0002881847052788971 1:0.29109961 2:-4.8304375 
0.01 1:0.33359375 2:-4.6084375 
0.0008610420882363831 1:0.33074023 2:-4.362625 
0.002427774299414175 1:0.3622207 2:-4.4836875 
3.967878653684081e-05 1:0.23009766 2:-1.691 
0.001565000383934139 1:0.21495703 2:-1.86225 
4.306420058984297e-05 1:0.22565039 2:-2.6808125 
0.007337925478763955 1:0.27693164 2:-3.3294375 
0.001497214421209198 1:0.35406641 2:-3.704375 
0.008630575258102464 1:0.26488281 2:-3.2199375 
0.002987996269314308 1:0.093355469 2:-1.65375 
0.002250367374212746 1:0.22852344 2:-2.6631875 
0.004407783776624191 1:0.30962891 2:-2.9985 
0.0008839238866051559 1:0.36295508 2:-4.2379375 
0.001478598831236251 1:0.20729687 2:-2.8753125 
0.01 1:0.28090234 2:-3.5523125 
0.0009588750097480085 1:0.3136582 2:-3.195375 
5.431569180115177e-05 1:0.35425195 2:-5.4400625 
0.00209072548312085 1:0.41484961 2:-3.875875 
0.01 1:0.25118164 2:-1.898125 
0.001446238386316448 1:0.21472266 2:-3.5068125 
0.01 1:0.20530664 2:-2.8386875 
0.00632376148273637 1:0.52801953 2:-5.481 
0.002537361258493571 1:0.24236328 2:-2.9716875 
3.262996244017156e-06 1:0.13006055 2:-2.3679375 
2.964552902935115e-05 1:0.34674805 2:-4.9859375 
0.001340397240419544 1:0.45111328 2:-4.638 
0.001699471944866979 1:0.21329102 2:-1.593375 
0.005238627996355963 1:0.4534043 2:-3.5765625 
0.003785817162355462 1:0.21511719 2:-2.72775 
7.988115095655385e-05 1:0.3485918 2:-4.0465625 
0.0005396579310933923 1:0.31817187 2:-5.0755625 
0.01 1:0.44136914 2:-5.2418125 
8.726060626331445e-05 1:0.35276562 2:-4.7933125 
0.00364161584552016 1:0.20575391 2:-4.6519375 
0.007959731183563896 1:0.25099805 2:-3.2134375 
0.01 1:0.23243945 2:-3.1105625 
0.001581904838710155 1:0.30496484 2:-3.691125 
0.0004637498592484947 1:0.41318555 2:-4.2830625 
0.008199087850515497 1:0.33859375 2:-2.1930625 
0.001675350568806105 1:0.21748633 2:-2.4785 
0.008549934406756466 1:0.459 2:-5.2013125 
0.006750574140448129 1:0.35734766 2:-2.7428125 
0.004716084165991512 1:0.33469531 2:-2.93075 
0.001242726376189274 1:0.2256875 2:-3.2185625 
0.002050794968144909 1:0.26811719 2:-3.05975 
1.368579171322374e-05 1:0.3195957 2:-4.8738125 
0.01 1:0.1929082 2:-3.553125 
0.001917769631297758 1:0.29859766 2:-3.285875 
0.004960371416753608 1:0.2555332 2:-4.80425 
0.002953081348104734 1:0.39208203 2:-3.828125 
0.0008748093576853998 1:0.32270898 2:-4.6103125 
0.01 1:0.17062695 2:-1.560375 
0.001074844122956887 1:0.40318555 2:-5.302875 
0.01 1:0.36505078 2:-3.2536875 
0.0004141339352898405 1:0.18949023 2:-2.7203125 
0.003908093190278351 1:0.21916016 2:-2.79625 
0.0001501074865014096 1:0.33836133 2:-3.841 
8.371795725491785e-05 1:0.24605078 2:-3.83775 
0.0006101604795055681 1:0.36882813 2:-4.353 
0.002581049953636441 1:0.30545898 2:-3.800375 
0.0009638811232497986 1:0.33924023 2:-3.7311875 
0.002121967553833775 1:0.22049219 2:-2.84775 
0.004138302834159608 1:0.19327734 2:-3.2901875 
0.001653769323363434 1:0.21365234 2:-3.4150625 
2.124640479877357e-05 1:0.40899219 2:-5.5123125 
0.002263073159273145 1:0.3327168 2:-4.190125 
0.0008315247830358067 1:0.40966797 2:-3.993875 
1.221548242635839e-05 1:0.35889258 2:-6.5419375 
0.0008754385682102837 1:0.28426953 2:-2.9063125 
0.01 1:0.35253906 2:-2.61525 
0.0002529801413218871 1:0.26469922 2:-4.9360625 
0.01 1:0.30438672 2:-2.5859375 
0.005982962588749274 1:0.32357812 2:-3.277 
0.009599056205790383 1:0.1842832 2:-2.837 
0.004301955843514536 1:0.30735547 2:-1.987125 
0.01 1:0.22452344 2:-3.2474375 
0.01 1:0.43250195 2:-4.395375 
0.01 1:0.27411523 2:-3.071875 
0.003060301790968764 1:0.29741211 2:-2.8059375 
0.01 1:0.28708789 2:-2.5873125 
0.01 1:0.22808398 2:-3.1641875 
0.0007523383058530785 1:0.27220703 2:-1.8994375 
0.002354221658008075 1:0.20847656 2:-4.722875 
0.0007108384058167462 1:0.36937305 2:-4.2505625 
0.002255276942222097 1:0.22775977 2:-4.160375 
0.01 1:0.10040234 2:-2.00375 
0.01 1:0.31275195 2:-2.2413125 
0.000341477367882418 1:0.30566992 2:-4.4906875 
0.0004971050224198395 1:0.25545703 2:-2.2199375 
0.01 1:0.29102539 2:-2.3373125 
0.0002879484081926304 1:0.2169375 2:-3.0226875 
0.00176372761953266 1:0.37527344 2:-4.52 
0.002036779779534867 1:0.23883203 2:-4.6520625 
0.01 1:0.20520508 2:-3.3331875 
0.004516862720995844 1:0.22850586 2:-1.869875 
0.001501766959720461 1:0.28496484 2:-2.3533125 
0.01 1:0.32863477 2:-3.693375 
0.01 1:0.28685352 2:-2.059875 
0.0004329840466506756 1:0.23692383 2:-5.2616875 
0.006918635636816974 1:0.25668555 2:-4.356 
0.01 1:0.2698418 2:-2.0849375 
0.0001653783154196727 1:0.37899609 2:-5.7434375 
0.00167824607039564 1:0.41662305 2:-5.1686875 
0.0006249428386130137 1:0.25036328 2:-3.019875 
2.624766443723779e-06 1:0.26952148 2:-1.5008125 
0.001793750469390275 1:0.4081543 2:-3.5719375 
0.01 1:0.2040625 2:-3.052875 
0.008546058966320366 1:0.21526367 2:-4.8820625 
0.01 1:0.33484766 2:-6.761375 
0.01 1:0.24758789 2:-4.41875 
0.01 1:0.30611523 2:-2.9101875 
0.01 1:0.27792773 2:-1.9775625 
6.344109455630319e-05 1:0.27930078 2:-5.494625 
0.009472505324103341 1:0.18490625 2:-4.305 
0.01 1:0.30395312 2:-2.4815625 
0.01 1:0.26745508 2:-3.3273125 
0.009841455405368406 1:0.22879688 2:-3.8315 
0.006221023261330879 1:0.371 2:-3.200125 
2.999993866090339e-05 1:0.25449219 2:-2.45125 
0.007041078267701617 1:0.32063867 2:-2.9024375 
0.007904984656687404 1:0.25153906 2:-3.174125 
0.004399798870291662 1:0.28398047 2:-4.0013125 
0.001533130354448349 1:0.25672656 2:-1.856 
0.01 1:0.32571484 2:-2.687 
0.002420583425078647 1:0.27933008 2:-2.861125 
0.01 1:0.25565625 2:-1.4544375 
0.003806151405811704 1:0.39804688 2:-4.837375 
0.01 1:0.28095313 2:-3.7199375 
0.01 1:0.22255859 2:-2.02525 
0.01 1:0.16217188 2:-2.327625 
0.01 1:0.32749023 2:-1.7175 
0.003039476144262313 1:0.14883398 2:-2.7278125 
0.01 1:0.30467383 2:-2.7651875 
0.01 1:0.1969668 2:-4.3445625 
0.00792317863960228 1:0.35457227 2:-3.133 
0.004225447917044093 1:0.35455273 2:-2.265 
0.001765357936537922 1:0.29856836 2:-1.3805625 
5.264305095247963e-05 1:0.28219141 2:-5.6 
0.00820636640220708 1:0.35795508 2:-2.40525 
0.01 1:0.30921484 2:-2.1234375 
0.004003795238633659 1:0.30118164 2:-2.975875 
0.009081499691498691 1:0.11959766 2:-2.1474375 
9.663750626372268e-05 1:0.25274414 2:-1.9728125 
0.007540652519206041 1:0.2563418 2:-2.9838125 
0.00248727460695256 1:0.25343945 2:-3.0164375 
0.001901271175632398 1:0.27779687 2:-2.887375 
0.0024766220052287 1:0.29208203 2:-3.0359375 
0.01 1:0.19023633 2:-2.2865 
0.002204947593723153 1:0.27866992 2:-3.1021875 
5.280075667237822e-05 1:0.23283398 2:-2.39575 
0.01 1:0.2208125 2:-2.5071875 
0.001180696485291864 1:0.27175977 2:-2.2280625 
9.776612994810639e-06 1:0.34725 2:-6.13525 
0.009886802337919791 1:0.46201172 2:-5.260375 
0.003144272370594233 1:0.34951953 2:-2.8583125 
0.0006955137346850681 1:0.31622266 2:-2.7886875 
0.001707585996420228 1:0.34758984 2:-4.6420625 
0.001143177995301692 1:0.24689063 2:-3.7405625 
5.121464981328653e-05 1:0.32481836 2:-6.3535 
0.001662474657593547 1:0.31051172 2:-4.055625 
1.621734830250333e-05 1:0.41588477 2:-5.7424375 
0.000382403645125216 1:0.19142383 2:-2.952 
0.000814644623047625 1:0.41204297 2:-4.5963125 
0.00395819568645414 1:0.40140625 2:-4.0538125 
0.0006626407757807619 1:0.4467832 2:-4.06625 
0.01 1:0.22727734 2:-3.095375 
0.01 1:0.19614844 2:-2.9331875 
3.260290395234234e-05 1:0.20256055 2:-1.8050625 
0.003338072844355764 1:0.23301758 2:-2.77575 
0.0004266138020001593 1:0.20287305 2:-3.1580625 
0.0006104144462528275 1:0.17018359 2:-2.38025 
0.001677341006932728 1:0.20826953 2:-2.767125 
0.004110987127628459 1:0.22986133 2:-2.7025625 
0.01 1:0.37021289 2:-3.356375 
0.008428428142480437 1:0.24349805 2:-2.2509375 
0.0005157484263558325 1:0.2369043 2:-4.1780625 
0.0009265135271019764 1:0.18532422 2:-1.690875 
0.0003510742023859492 1:0.33543164 2:-4.2331875 
0.002548161074113498 1:0.19689648 2:-1.5423125 
7.131199339077803e-05 1:0.28279492 2:-1.9401875 
0.01 1:0.45636133 2:-5.3300625 
0.003001430585201176 1:0.48122461 2:-4.6288125 
0.004588417794992582 1:0.36764844 2:-3.4171875 
1.553491625504402e-05 1:0.19261133 2:-1.907375 
0.003124668659558903 1:0.1989707 2:-1.7538125 
0.001284226934532998 1:0.32289844 2:-3.9433125 
0.004241878866145139 1:0.25078516 2:-2.29325 
0.01 1:0.26678906 2:-3.29475 
0.01 1:0.28736133 2:-3.1313125 
0.003313376213925755 1:0.27678516 2:-4.6961875 
0.001213094740501956 1:0.19270117 2:-2.1895 
0.00180639365350953 1:0.16695508 2:-1.788625 
0.01 1:0.21667773 2:-5.065875 
0.01 1:0.29369727 2:-5.4644375 
0.0004714705178662139 1:0.20362305 2:-3.25075 
0.0006453409199047231 1:0.30563672 2:-5.15925 
0.001619368899953851 1:0.22498242 2:-4.971 
0.01 1:0.36126172 2:-3.423875 
0.0004462058511702825 1:0.27660547 2:-3.0056875 
3.924759066262601e-05 1:0.36684766 2:-5.885625 
0.00191218741294404 1:0.21582617 2:-4.73525 
0.01 1:0.29455273 2:-1.8113125 
0.01 1:0.17714062 2:-2.3680625 
0.002734031920170277 1:0.20250391 2:-3.0280625 
0.0009763351956222084 1:0.1800625 2:-2.518875 
0.0001767416315229552 1:0.38022852 2:-5.2323125 
0.01 1:0.31988281 2:-3.0180625 
0.01 1:0.2646582 2:-3.4330625 
0.0001442285827410028 1:0.39014258 2:-6.121875 
0.001205912834380079 1:0.33136133 2:-4.273 
0.0002044759934043694 1:0.38319141 2:-5.44775 
1.954554363628145e-05 1:0.21296484 2:-1.6684375 
6.131681871224082e-06 1:0.23607031 2:-2.3098125 
0.01 1:0.46525391 2:-4.268125 
0.01 1:0.41381055 2:-3.4913125 
0.001685588627170012 1:0.28633789 2:-3.591 
0.007599452780198 1:0.36124023 2:-3.3540625 
0.001602212645417744 1:0.3807207 2:-4.4460625 
0.01 1:0.36006641 2:-3.2760625 
0.0003699377716042181 1:0.19554297 2:-3.01125 
0.005161006512541057 1:0.19486914 2:-3.263375 
0.0010091158645733 1:0.32372266 2:-4.3731875 
0.002370545683233123 1:0.33942383 2:-2.816875 
2.839623362205152e-05 1:0.36457422 2:-5.483875 
0.01 1:0.45269336 2:-4.4751875 
0.01 1:0.26485742 2:-2.1836875 
0.002428460486205965 1:0.30535547 2:-3.164875 
0.001090807666905153 1:0.38073633 2:-3.9090625 
0.0009147381015931364 1:0.28158398 2:-3.5241875 
0.004043323235954281 1:0.28401758 2:-3.2515625 
0.0007700308448544723 1:0.16944336 2:-2.302875 
0.01 1:0.18241406 2:-1.7259375 
0.001086221095944011 1:0.39567969 2:-3.775375 
0.001029659184510188 1:0.13062305 2:-1.9200625 
0.01 1:0.42445703 2:-4.7930625 
0.01 1:0.44405469 2:-4.3299375 
0.002497048215325557 1:0.32275195 2:-4.5200625 
0.01 1:0.22709961 2:-3.6794375 
0.0006682418998570645 1:0.37061719 2:-3.7656875 
0.0001008247586302352 1:0.35265234 2:-4.1054375 
0.0004434194493699405 1:0.44163867 2:-4.752125 
0.002233881592145361 1:0.34638672 2:-3.5878125 
0.002073132430229474 1:0.37478516 2:-3.9449375 
0.001253118762146054 1:0.37522461 2:-4.0751875 
0.003731365096432118 1:0.33538672 2:-3.9215625 
0.002010926055516975 1:0.17835937 2:-2.29925 
0.01 1:0.098121094 2:-1.977625 
0.01 1:0.30768945 2:-2.5954375 
0.004712769439094673 1:0.33163281 2:-3.3355 
1.425049477384374e-06 1:0.30098828 2:-6.4419375 
0.01 1:0.21419336 2:-1.8233125 
0.01 1:0.22320313 2:-2.806375 
0.001272458934204328 1:0.37298047 2:-3.0148125 
0.01 1:0.18991211 2:-4.3025 
6.735330346934201e-06 1:0.40891211 2:-5.9803125 
0.002106437608700734 1:0.31990625 2:-4.2178125 
0.00684705540239574 1:0.13342969 2:-2.5986875 
0.01 1:0.24451562 2:-2.5500625 
0.006385352332583808 1:0.19193359 2:-1.929375 
0.005767786198825201 1:0.30986328 2:-2.678625 
0.01 1:0.17454883 2:-3.9793125 
0.002189127608500032 1:0.22663281 2:-4.6451875 
0.01 1:0.29772266 2:-2.9845 
1.246373397977054e-05 1:0.34370508 2:-6.6133125 
0.01 1:0.13053516 2:-1.8559375 
0.01 1:0.20576172 2:-3.9106875 
0.01 1:0.28352734 2:-3.212875 
0.001777158284268187 1:0.30418555 2:-2.98925 
0.01 1:0.27653711 2:-3.3175625 
0.003140539326535594 1:0.23229883 2:-2.5465625 
0.0001038163855547484 1:0.31289453 2:-4.549 
0.002460173501274504 1:0.26034961 2:-2.928375 
0.00728919236934296 1:0.2566875 2:-3.594875 
6.435616957183142e-05 1:0.24595313 2:-5.170875 
0.0009984303355923541 1:0.26783984 2:-4.52525 
7.869086196574756e-05 1:0.20148437 2:-3.4808125 
0.01 1:0.23379883 2:-4.032375 
0.0007658456108124946 1:0.2465293 2:-4.695875 
0.0006717751228937718 1:0.33468945 2:-3.2365 
0.002272555269467086 1:0.41519336 2:-4.189625 
0.0004914637840514272 1:0.32014844 2:-4.688375 
0.0002425543423967059 1:0.34103711 2:-3.227875 
0.004938436239544223 1:0.22388477 2:-2.2773125 
0.01 1:0.34167578 2:-2.6451875 
0.005204096366144934 1:0.19761133 2:-2.0180625 
0.001212835418236554 1:0.40013867 2:-4.9890625 
0.01 1:0.23153711 2:-4.829875 
0.003547873346332866 1:0.21471094 2:-3.5236875 
0.0002434433896425212 1:0.30620117 2:-4.9893125 
0.01 1:0.30330469 2:-2.7196875 
0.004055985561844437 1:0.38060742 2:-4.1420625 
0.0004962789733347175 1:0.22475195 2:-4.8864375 
0.006042522966523147 1:0.31829297 2:-3.0553125 
0.01 1:0.30875 2:-3.484375 
0.002608440202940554 1:0.35816797 2:-1.8958125 
0.01 1:0.20795508 2:-4.25675 
0.0001187767347712714 1:0.38089258 2:-4.9790625 
0.000836427227024051 1:0.33027148 2:-4.956875 
0.0001490727602034969 1:0.33810352 2:-4.35 
0.01 1:0.23154102 2:-3.049125 
0.01 1:0.30803125 2:-3.0019375 
1.8321263577938e-05 1:0.34219727 2:-5.2260625 
0.00544158632581458 1:0.18048437 2:-4.2701875 
0.0002875330493127131 1:0.41067188 2:-4.9038125 
0.002375246308179068 1:0.26073828 2:-4.4661875 
0.01 1:0.16242188 2:-3.9239375 
0.01 1:0.21780273 2:-2.6044375 
3.033174558173918e-05 1:0.26800977 2:-2.4195 
0.002364833704801374 1:0.38122656 2:-3.5826875 
0.01 1:0.22225 2:-4.2025 
0.01 1:0.34141797 2:-2.0791875 
0.004499809920731695 1:0.25274414 2:-3.2659375 
0.001370299556010927 1:0.3000918 2:-3.7284375 
6.935916388740182e-06 1:0.30478516 2:-5.997625 
0.008658218418137888 1:0.13337695 2:-2.63725 
0.0002675447507049914 1:0.28873242 2:-4.8899375 
0.003891773262276142 1:0.29078711 2:-2.114 
0.0001444568163572289 1:0.27028711 2:-2.9045 
0.003188196086960271 1:0.27479297 2:-3.251625 
0.01 1:0.33624023 2:-6.860125 
0.0001419818044553776 1:0.32768164 2:-3.8809375 
0.0009031373101806993 1:0.29695703 2:-4.6118125 
0.01 1:0.35126758 2:-4.4229375 
0.0008982770064625649 1:0.23304492 2:-3.69675 
0.001041645789251533 1:0.2751875 2:-4.6055625 
0.0003183319947518148 1:0.27487305 2:-4.0334375 
0.002192094829053453 1:0.23367578 2:-2.1321875 
0.0002616399815623232 1:0.36968945 2:-4.4983125 
0.0008736536416632656 1:0.31408984 2:-5.2239375 
0.004226498202418058 1:0.20919336 2:-4.7135625 
0.0002372366258386192 1:0.24269336 2:-4.49325 
0.002972435734209554 1:0.33718359 2:-3.04075 
0.01 1:0.18350195 2:-2.1923125 
0.01 1:0.20184766 2:-3.3630625 
0.0001121141233228981 1:0.34706836 2:-4.571625 
0.01 1:0.20761914 2:-1.4529375 
0.001372073883768491 1:0.33739062 2:-3.35425 
0.002188242943750837 1:0.32619922 2:-5.0000625 
2.099458509727884e-05 1:0.26228125 2:-1.668 
0.006402333279845076 1:0.20789648 2:-4.8635625 
0.008703895680228608 1:0.3324668 2:-3.562 
0.004009991948506902 1:0.26744336 2:-2.9053125 
0.00221703361242437 1:0.35174023 2:-4.682875 
0.01 1:0.19701367 2:-2.13925 
0.003986225097707707 1:0.082253906 2:-1.711875 
0.01 1:0.33487109 2:-3.044875 
0.01 1:0.35609766 2:-2.9411875 
0.01 1:0.21081055 2:-3.7844375 
0.001883398489123273 1:0.31833008 2:-2.2700625 
0.01 1:0.32547656 2:-3.5169375 
0.009700973747127674 1:0.15878516 2:-3.40725 
0.002080416745624143 1:0.19512891 2:-2.7455625 
0.004302575375879316 1:0.37638477 2:-4.545875 
0.001888322665725186 1:0.23039844 2:-3.1139375 
0.001748899510665775 1:0.33317188 2:-4.68725 
0.01 1:0.24535742 2:-3.0871875 
0.008684676454109351 1:0.25456445 2:-3.6688125 
0.004661834776728174 1:0.49461523 2:-4.0245625 
0.0002556292538173886 1:0.20848437 2:-3.6273125 
0.01 1:0.3394668 2:-2.1010625 
0.01 1:0.25320117 2:-3.239875 
0.003509532376109325 1:0.41301172 2:-4.127 
0.001245719369881736 1:0.35320508 2:-2.8369375 
0.0003741621585878478 1:0.29525 2:-4.57775 
0.003856237477451279 1:0.17638281 2:-2.750875 
9.167141146843515e-05 1:0.18617969 2:-3.2291875 
8.901530613542215e-05 1:0.30161523 2:-4.6424375 
0.0005335734347292188 1:0.42745117 2:-4.3916875 
0.001230513349418524 1:0.22221094 2:-3.5665625 
0.01 1:0.25628516 2:-2.2579375 
0.004152125754267358 1:0.19073438 2:-4.4073125 
0.01 1:0.31485156 2:-4.1795 
6.704810802091343e-05 1:0.34438281 2:-4.893 
0.002331724694703812 1:0.41641016 2:-4.679 
0.007785832616270197 1:0.15628906 2:-3.502625 
0.001881510076372303 1:0.3705957 2:-2.8569375 
0.002359330185479261 1:0.30743164 2:-2.150375 
0.002109163469338071 1:0.20323047 2:-3.2955625 
0.003287315755625623 1:0.22074805 2:-3.112 
0.003178735077466707 1:0.27363867 2:-2.9935 
0.001724674370147623 1:0.3485625 2:-1.658125 
1.468140535913402e-05 1:0.28655664 2:-3.3416875 
0.01 1:0.22749609 2:-2.9654375 
2.067202839117221e-05 1:0.30637695 2:-5.419 
6.003364944940367e-05 1:0.33039063 2:-4.84375 
0.0003412782554123633 1:0.2568418 2:-4.657 
0.003397085479026568 1:0.38054102 2:-4.196375 
0.0009965190736916738 1:0.29000781 2:-4.585125 
0.01 1:0.41155273 2:-6.8126875 
0.0004873071111492293 1:0.22231836 2:-4.296375 
0.0008464774435769826 1:0.50018164 2:-4.394625 
0.001585372766329754 1:0.30931641 2:-2.750125 
0.009359936394921687 1:0.37639453 2:-2.792375 
0.001969640342779954 1:0.3757207 2:-4.5140625 
0.0008194785754550423 1:0.30483594 2:-5.0721875 
0.01 1:0.29496094 2:-4.4983125 
1.212287104593369e-05 1:0.25284766 2:-1.5586875 
0.01 1:0.29061914 2:-4.0594375 
0.0001056510842536502 1:0.30651367 2:-4.6270625 
0.01 1:0.2388457 2:-2.1976875 
0.01 1:0.22610547 2:-2.844625 
0.0003061433537496169 1:0.19926562 2:-3.3844375 
0.0002680953232442076 1:0.42748242 2:-5.4629375 
0.0008949630381174002 1:0.20885547 2:-2.3333125 
0.01 1:0.32141992 2:-2.232125 
0.00311773309410977 1:0.24414648 2:-2.412875 
0.005649692074328929 1:0.34912305 2:-3.1158125 
0.0004733342199354026 1:0.20068945 2:-2.8734375 
0.004054378343071154 1:0.32032812 2:-4.418125 
0.01 1:0.21630078 2:-3.68425 
5.55057897749301e-05 1:0.32371875 2:-4.4525 
9.728812210400767e-06 1:0.33609766 2:-5.6264375 
0.01 1:0.30874805 2:-3.3035 
0.0008127112483476999 1:0.30172266 2:-3.0673125 
0.009611915413126594 1:0.29395313 2:-2.5784375 
0.0003378247724215209 1:0.21717383 2:-4.7938125 
0.00165274251337066 1:0.083269531 2:-1.9089375 
0.00010693956540223 1:0.21282422 2:-4.698 
0.0007083315217319446 1:0.30839453 2:-3.525375 
0.01 1:0.20934766 2:-2.263375 
0.009069650343569937 1:0.18941211 2:-4.615375 
0.000101275947469027 1:0.20646875 2:-2.1166875 
0.01 1:0.19935352 2:-3.559875 
0.0003796976960474881 1:0.3237793 2:-4.92775 
0.01 1:0.23383398 2:-2.8864375 
0.01 1:0.27203125 2:-4.3726875 
0.01 1:0.14578711 2:-2.0193125 
0.01 1:0.13674414 2:-2.6331875 
0.008301202579629194 1:0.23544531 2:-5.3535 
0.0001873587316595637 1:0.25669336 2:-4.6960625 
0.0008283427592234742 1:0.28030664 2:-4.3249375 
0.004125599724669419 1:0.21239258 2:-2.7041875 
0.01 1:0.13873633 2:-2.1679375 
0.0001791679601226105 1:0.32137891 2:-4.984375 
2.944896094782055e-05 1:0.40830859 2:-5.9036875 
0.00206352127778408 1:0.29039062 2:-4.55775 
0.01 1:0.21741797 2:-3.3318125 
0.006651022811420761 1:0.44185156 2:-3.6235 
0.008774912138705498 1:0.24426367 2:-5.466 
0.0007275100908366043 1:0.099441406 2:-2.0795 
0.009801949093889425 1:0.27683008 2:-2.153625 
0.004029655277136985 1:0.18109961 2:-2.77675 
3.357696991913399e-05 1:0.21823438 2:-2.610625 
0.006649336593789415 1:0.38197852 2:-3.4344375 
0.01 1:0.32691016 2:-2.5905 
0.003191394639568353 1:0.35174805 2:-4.259375 
0.001607600927335063 1:0.20154688 2:-2.2619375 
0.01 1:0.35916211 2:-3.00925 
0.0003582332026390878 1:0.29289258 2:-3.71 
0.007482365912200251 1:0.22721484 2:-3.4686875 
0.004847663096562371 1:0.25084766 2:-3.399625 
4.334162558565387e-05 1:0.43591602 2:-5.860375 
0.0003160373912787774 1:0.30384375 2:-4.66825 
0.004818922494440847 1:0.19995117 2:-4.736 
0.004586279857322992 1:0.24508984 2:-1.8170625 
0.005344877726499385 1:0.15744727 2:-3.6728125 
0.001600791224682413 1:0.18891602 2:-2.479875 
0.01 1:0.24032227 2:-2.5743125 
0.001447264674561082 1:0.22809766 2:-2.4148125 
0.00133351179997848 1:0.27979883 2:-1.9578125 
0.004034765089681632 1:0.40568359 2:-4.743125 
0.006403387780959605 1:0.33852344 2:-3.2181875 
0.002295209082950167 1:0.24619141 2:-4.186875 
0.01 1:0.39061133 2:-3.7198125 
0.01 1:0.16532031 2:-2.6339375 
0.01 1:0.20005273 2:-3.7125625 
0.0003260983775392664 1:0.31517969 2:-4.672375 
0.002135532524434087 1:0.37463477 2:-3.621625 
0.0002354490835723528 1:0.1944375 2:-2.5219375 
0.0005810928626833172 1:0.35210742 2:-4.3413125 
0.0004788168247673996 1:0.33615625 2:-4.82075 
3.701181128566616e-05 1:0.37671289 2:-4.9030625 
0.01 1:0.27839453 2:-2.256625 
0.00984935080874836 1:0.48227734 2:-4.33475 
0.00718450021612317 1:0.16266602 2:-3.922375 
0.01 1:0.48474609 2:-6.674125 
0.0006992054910873197 1:0.29611914 2:-4.7405 
0.01 1:0.33169922 2:-2.062625 
0.01 1:0.31082422 2:-3.0363125 
0.01 1:0.27832031 2:-3.4939375 
0.0006296899051098647 1:0.23323438 2:-4.785 
0.009041124990251991 1:0.21206641 2:-3.21275 
8.865134339260199e-05 1:0.22549609 2:-5.097125 
0.01 1:0.20948242 2:-3.10625 
0.0006666054752482159 1:0.18408398 2:-1.84125 
0.009008705431057668 1:0.26292969 2:-2.64375 
0.002940485252055226 1:0.27375977 2:-5.0396875 
0.01 1:0.31895703 2:-3.3794375 
0.0008063342411621133 1:0.30638672 2:-3.60425 
0.003815292102671705 1:0.161875 2:-1.8429375 
2.581738031137507e-05 1:0.25616016 2:-2.35625 
0.01 1:0.2285625 2:-4.742625 
0.01 1:0.27074414 2:-3.84525 
0.004741384073467238 1:0.37949805 2:-2.4606875 
0.003999465835788503 1:0.40238867 2:-4.4288125 
0.009414028750427569 1:0.47945508 2:-4.4569375 
0.0005444341250097692 1:0.39370703 2:-3.9125 
0.01 1:0.22376562 2:-3.1526875 
0.01 1:0.1947832 2:-3.4055625 
0.0009431506778627719 1:0.21372266 2:-3.2156875 
0.002344972804643537 1:0.21819531 2:-2.891375 
0.002049044886207881 1:0.27311133 2:-4.796125 
0.0002155332942126529 1:0.10699219 2:-1.968375 
0.01 1:0.25391016 2:-3.94825 
0.0001926977607292951 1:0.26205273 2:-4.2426875 
0.002172896208885289 1:0.29571094 2:-2.205125 
0.0009609693610492371 1:0.23691406 2:-3.568375 
0.002270527807713717 1:0.33814844 2:-3.5335 
0.01 1:0.17310937 2:-2.4065 
0.01 1:0.18216992 2:-2.539625 
0.01 1:0.28618945 2:-3.7015625 
0.0001474613893832327 1:0.268375 2:-5.1638125 
0.00435870904002367 1:0.35527734 2:-2.8031875 
0.008728631097133314 1:0.25088867 2:-3.4085 
0.003267133791113181 1:0.30707031 2:-1.776375 
0.009677662755945445 1:0.51403125 2:-6.2425 
0.01 1:0.27617578 2:-2.6374375 
0.001488748644740333 1:0.18489648 2:-2.2105625 
0.0001814349144514738 1:0.12463281 2:-2.6011875 
0.0006104608931048397 1:0.26166016 2:-2.042 
0.01 1:0.27364648 2:-2.1978125 
0.009587005968790243 1:0.2761543 2:-4.952875 
0.004021663424633257 1:0.33367383 2:-2.739 
3.590457738001958e-05 1:0.38236328 2:-5.1270625 
0.003444187433948907 1:0.36563477 2:-3.1015 
0.00117834847198923 1:0.26501562 2:-3.754625 
4.857849295469757e-05 1:0.36413867 2:-6.3994375 
0.001906104261692389 1:0.24892187 2:-2.3585625 
0.000928222723203675 1:0.34345898 2:-3.634875 
0.01 1:0.15487695 2:-2.084875 
0.001793855623565683 1:0.37326563 2:-4.7308125 
0.01 1:0.31025977 2:-2.604625 
0.0003711745266513263 1:0.4079668 2:-3.6353125 
0.0004602540461916131 1:0.31027734 2:-5.6106875 
0.001912813962140701 1:0.23668945 2:-3.4695625 
0.002671556686562084 1:0.25172266 2:-5.077125 
0.01 1:0.28167578 2:-3.8419375 
9.813563907520929e-05 1:0.38253711 2:-4.640375 
0.01 1:0.22389453 2:-3.9030625 
0.003091597661592018 1:0.18165039 2:-2.6295 
0.004212911545029262 1:0.27155469 2:-3.040875 
0.0009974572711034966 1:0.19107617 2:-2.8655625 
0.01 1:0.23113867 2:-2.8440625 
0.01 1:0.089160156 2:-1.664875 
0.0004164701992106045 1:0.32567383 2:-4.7173125 
0.0004160306080804051 1:0.37807812 2:-5.0475 
0.001354182482906275 1:0.32640039 2:-3.9146875 
0.002409255743822269 1:0.31301172 2:-2.7151875 
5.182167884413976e-05 1:0.31932422 2:-5.7755 
0.01 1:0.35810352 2:-5.0428125 
0.01 1:0.41433789 2:-4.3966875 
0.0005077237643156039 1:0.25422266 2:-2.438875 
0.0006764370301778979 1:0.22655664 2:-4.522125 
0.00653421965724066 1:0.081677734 2:-1.615 
0.0006838692933864319 1:0.20908984 2:-3.960375 
0.0002981177201083618 1:0.31505469 2:-4.7126875 
0.001325572071948983 1:0.34614648 2:-2.4749375 
0.000532891478132048 1:0.29062305 2:-5.0640625 
0.006656418458343062 1:0.24639453 2:-3.246 
0.0004161397713796583 1:0.3282168 2:-6.19075 
0.01 1:0.37616406 2:-3.7056875 
0.0006001570440704319 1:0.25590625 2:-4.9785625 
0.001585060788148989 1:0.26879688 2:-3.7056875 
0.003008628097086059 1:0.21326367 2:-4.75775 
8.805041917212358e-05 1:0.38800586 2:-4.0814375 
0.0002401949594834427 1:0.32768555 2:-5.0791875 
0.01 1:0.22319727 2:-3.79 
0.0002161004326896196 1:0.32529102 2:-3.8465 
0.003254873706040794 1:0.2839375 2:-3.751 
0.00992981971529236 1:0.47286914 2:-4.1599375 
0.0009558649291797932 1:0.2439668 2:-3.3909375 
0.0007299518182933725 1:0.37833398 2:-4.7169375 
0.001187395108480066 1:0.25045312 2:-5.030375 
0.001136925245994124 1:0.35855859 2:-5.03625 
1.977330345315779e-05 1:0.38863281 2:-5.3104375 
0.01 1:0.24222656 2:-5.4225625 
0.01 1:0.21389453 2:-2.7635625 
0.01 1:0.21626758 2:-3.0046875 
0.001253448524879632 1:0.18033008 2:-2.7246875 
0.00245268259690109 1:0.27031445 2:-4.449 
0.007591733374325952 1:0.24638867 2:-2.7195625 
0.001642802352289407 1:0.21939258 2:-4.7096875 
0.002350512953979733 1:0.26486133 2:-3.8655625 
0.00119646116445679 1:0.23514258 2:-3.5215 
0.0002776866732062921 1:0.2814668 2:-3.89525 
0.004999189964790277 1:0.23749609 2:-3.3665625 
0.007480930829712884 1:0.32280273 2:-2.0461875 
0.000766957471935757 1:0.32643555 2:-3.9843125 
0.007479396609290074 1:0.22599609 2:-5.2086875 
0.003000374757018416 1:0.19875 2:-2.709875 
0.01 1:0.34261133 2:-3.0275 
0.01 1:0.32289648 2:-3.127125 
0.0008928622150938821 1:0.25994336 2:-3.6735 
0.003827611998181408 1:0.2743457 2:-3.3559375 
0.009223012707793287 1:0.22541211 2:-5.2675 
0.01 1:0.22943555 2:-3.31275 
0.0002863594226912518 1:0.19564844 2:-3.46 
0.000432986958913341 1:0.34041602 2:-3.856875 
0.009402900150462388 1:0.21189258 2:-4.8935 
0.01 1:0.32941602 2:-2.3140625 
0.001477319584893162 1:0.22355273 2:-2.8776875 
0.01 1:0.36907031 2:-3.72325 
0.004733184960336497 1:0.28764844 2:-2.8450625 
0.005411890379709298 1:0.35964258 2:-2.9628125 
0.006181002820609612 1:0.19799414 2:-3.060125 
0.01 1:0.2531543 2:-3.0548125 
0.0006199517492439695 1:0.33467969 2:-3.48525 
0.01 1:0.25717773 2:-2.1083125 
0.0004890675726541364 1:0.19644141 2:-2.87675 
0.01 1:0.30219531 2:-2.524375 
0.00030633727296876 1:0.23957617 2:-2.785375 
0.0057656527457702 1:0.21975195 2:-2.9699375 
0.001907835392100218 1:0.23221289 2:-4.4115625 
0.01 1:0.28085547 2:-3.77075 
0.01 1:0.22267578 2:-4.330875 
0.01 1:0.20242773 2:-2.74125 
2.281052702908057e-05 1:0.26014062 2:-5.9321875 
0.0003382256419127501 1:0.18501172 2:-2.7576875 
0.007082605112276868 1:0.34413281 2:-2.960375 
0.005334694459889601 1:0.31198242 2:-2.8375 
0.01 1:0.43593359 2:-4.35875 
0.0006184233421213377 1:0.19669336 2:-2.1111875 
0.003976536800091246 1:0.24583008 2:-2.7515625 
0.002064281312583974 1:0.31608789 2:-2.0230625 
0.001318446744776524 1:0.2614707 2:-3.76825 
0.01 1:0.2154375 2:-2.541125 
0.01 1:0.42876367 2:-5.30325 
0.01 1:0.21253711 2:-1.875875 
0.009498879470618836 1:0.10350391 2:-2.0674375 
0.001076462979036597 1:0.20956836 2:-2.620875 
0.005565056322480265 1:0.21986328 2:-4.9395 
0.001469612046067217 1:0.30563867 2:-1.884125 
0.0006058170518522471 1:0.29588281 2:-5.0153125 
0.01 1:0.1716875 2:-2.1968125 
3.685612230383203e-05 1:0.21206055 2:-1.68725 
0.01 1:0.18112891 2:-2.400875 
0.0004976168624107306 1:0.19974219 2:-2.46175 
0.005453602282648891 1:0.20821484 2:-2.039 
0.006757658849525349 1:0.15211719 2:-3.4205 
0.01 1:0.24451758 2:-2.7610625 
0.004122540394773948 1:0.35262109 2:-3.0621875 
0.01 1:0.39553906 2:-4.077875 
0.01 1:0.32638281 2:-2.101875 
0.0009048058006263265 1:0.32921094 2:-5.0735625 
0.01 1:0.22866016 2:-3.083125 
0.01 1:0.34324414 2:-3.4438125 
0.004639697906835932 1:0.33908984 2:-2.6120625 
0.0006755640212541939 1:0.4515 2:-5.3444375 
0.00118624279796069 1:0.34985352 2:-2.4348125 
0.002920900997681098 1:0.25937695 2:-3.4583125 
0.0015520999829483 1:0.27545312 2:-2.4158125 
0.005422923308228505 1:0.26649414 2:-2.323875 
0.008860158780281811 1:0.369375 2:-4.5480625 
0.0008409942438599747 1:0.3555332 2:-3.0255 
0.002829125292015945 1:0.29012891 2:-2.4004375 
0.0004848244821053203 1:0.23976953 2:-3.0374375 
0.002048636010407532 1:0.35733008 2:-2.4945 
0.01 1:0.25304492 2:-2.577 
0.01 1:0.34035352 2:-2.68275 
0.008531718839563678 1:0.20410352 2:-5.0283125 
0.01 1:0.35717578 2:-3.3101875 
0.01 1:0.23149414 2:-3.71125 
0.006006837082586868 1:0.17917773 2:-3.852375 
0.01 1:0.23966797 2:-3.09075 
0.003931811775125524 1:0.28383789 2:-4.0355 
0.003317751341029587 1:0.40748633 2:-4.45825 
0.005162629223350459 1:0.2967832 2:-3.249875 
0.0003894784406634527 1:0.21849805 2:-2.5488125 
0.001279191233543293 1:0.21723047 2:-2.405125 
0.0008726714790512274 1:0.35793945 2:-3.3578125 
0.01 1:0.15762891 2:-2.296 
0.0001288968059559592 1:0.47303906 2:-4.5331875 
0.0005375352454341606 1:0.3160957 2:-4.733375 
0.002511170775061047 1:0.19626367 2:-2.565125 
0.01 1:0.22366992 2:-1.713625 
0.0007725419265956157 1:0.33401758 2:-3.5395 
5.774825937063458e-05 1:0.3560332 2:-4.8226875 
0.01 1:0.22276758 2:-4.9826875 
0.01 1:0.3845 2:-6.7055 
0.001601068062395105 1:0.22350977 2:-3.162875 
0.003911530588786916 1:0.33051172 2:-3.44125 
0.001794517102183343 1:0.26119531 2:-2.6723125 
0.001000074647518874 1:0.22802539 2:-3.4985 
0.008150240226504082 1:0.29471289 2:-3.5785625 
0.0005959028618277575 1:0.45496094 2:-4.1976875 
4.244679976369438e-05 1:0.33593555 2:-1.454375 
0.004013777147963744 1:0.28694336 2:-2.7929375 
0.009684430529732103 1:0.2117168 2:-3.177625 
0.002623177456838976 1:0.37343359 2:-2.9120625 
0.01 1:0.26693555 2:-3.574375 
0.00303969259788094 1:0.36638086 2:-3.2388125 
0.01 1:0.23787109 2:-4.0896875 
0.00511996596396986 1:0.31888086 2:-3.5965625 
0.01 1:0.16740625 2:-2.5234375 
0.0006245069828849764 1:0.2569082 2:-4.61875 
0.01 1:0.20806445 2:-2.2381875 
0.001269713025120368 1:0.17932031 2:-2.390125 
0.00253025542638233 1:0.26847266 2:-2.5329375 
0.002052625406964048 1:0.31373047 2:-4.525875 
0.002987226682831233 1:0.31553516 2:-3.8324375 
0.01 1:0.23867578 2:-2.756 
0.001115611100508891 1:0.10522656 2:-1.86675 
0.000532503790940396 1:0.26769531 2:-4.6426875 
0.007095814476364406 1:0.25650781 2:-4.108625 
0.002238916832413518 1:0.24534766 2:-4.24725 
0.0006478644596365097 1:0.34639453 2:-3.306375 
0.009245604981884599 1:0.27480078 2:-3.3963125 
0.005652025857322384 1:0.2675293 2:-3.2640625 
0.003042624113076373 1:0.35866016 2:-3.0785 
0.001707339606083059 1:0.3109375 2:-4.4159375 
0.0002511419519705659 1:0.3175 2:-5.6600625 
0.003777987848625209 1:0.30215625 2:-3.0803125 
0.008490752585274514 1:0.087923828 2:-1.8408125 
0.01 1:0.17507617 2:-3.894 
0.003349196398271963 1:0.079349609 2:-1.6896875 
0.00789249930950992 1:0.076787109 2:-1.723625 
0.01 1:0.20489258 2:-4.5708125 
0.00155452461743323 1:0.37445117 2:-4.3005625 
0.0006662453624958581 1:0.20846289 2:-1.83875 
0.001371791292358268 1:0.28567383 2:-3.5205 
0.01 1:0.30577734 2:-2.7071875 
0.001198492548845976 1:0.434875 2:-4.560125 
0.001399026725930496 1:0.37324023 2:-3.38975 
0.001595785454590078 1:0.21767773 2:-3.0365625 
0.01 1:0.23008008 2:-3.0500625 
0.002553349525540759 1:0.40568945 2:-3.4481875 
0.0003201565908702218 1:0.3091875 2:-5.107 
0.0008469933029025714 1:0.23986133 2:-2.677 
0.0008484809001701084 1:0.1204707 2:-2.2618125 
0.01 1:0.29330469 2:-2.6145 
0.01 1:0.20203516 2:-1.9925 
0.002885395685761209 1:0.3132207 2:-2.439 
0.01 1:0.29613086 2:-3.8143125 
0.004321971577655063 1:0.29119141 2:-3.1743125 
0.01 1:0.32254492 2:-3.2290625 
0.003859088790732799 1:0.19939453 2:-4.548 
2.11771558453781e-05 1:0.29499023 2:-2.921 
0.01 1:0.24187695 2:-2.55675 
0.01 1:0.25369141 2:-3.0723125 
0.01 1:0.21278125 2:-4.3166875 
0.01 1:0.33874023 2:-3.620125 
0.005378508818901762 1:0.21969531 2:-5.0075 
0.0004172869657195289 1:0.29319922 2:-4.9666875 
0.006989422217955349 1:0.28290039 2:-3.3270625 
0.001189546061952452 1:0.23804687 2:-3.332625 
0.0004092179276259601 1:0.33344922 2:-4.6826875 
0.0007479265985312082 1:0.24602148 2:-5.08975 
0.006045187918164273 1:0.11855664 2:-2.1941875 
0.01 1:0.1992207 2:-4.415625 
0.01 1:0.21876367 2:-3.14925 
0.0001048186428333515 1:0.36907422 2:-4.377875 
0.0006803415563257803 1:0.21741602 2:-3.2058125 
0.0005817007482684414 1:0.3034707 2:-4.362875 
8.249913672590233e-05 1:0.34039258 2:-4.108125 
0.002804416875302706 1:0.081591797 2:-1.7980625 
0.002114806978210816 1:0.36108594 2:-3.895375 
0.0009744620035120771 1:0.30251172 2:-3.3386875 
0.01 1:0.36310352 2:-2.8215625 
0.007988726145516179 1:0.27748437 2:-4.232625 
0.002254548833800529 1:0.25571094 2:-4.712625 
0.004806103517661925 1:0.093445313 2:-1.990875 
0.0022450148863542 1:0.31943359 2:-2.8864375 
0.0009470665692196699 1:0.38675977 2:-4.5975 
0.001167040778826455 1:0.34047852 2:-4.48025 
0.0005058796896012238 1:0.32814648 2:-4.10025 
0.00256326320400844 1:0.39655859 2:-4.51775 
0.01 1:0.46754492 2:-5.648125 
1.614823610587958e-05 1:0.39775781 2:-5.4693125 
0.0009567049373273175 1:0.36598633 2:-2.9008125 
0.000224866292243766 1:0.43192969 2:-5.2444375 
1.201933914478294e-05 1:0.40342578 2:-6.348125 
0.0008255396827479312 1:0.11514062 2:-2.079875 
0.01 1:0.20897656 2:-5.02475 
0.0002554469140214357 1:0.28536914 2:-4.698875 
0.002030140401884353 1:0.22978125 2:-3.6273125 
0.01 1:0.24066016 2:-2.2091875 
0.0009603795079627575 1:0.25153516 2:-2.034125 
0.0007451010629786189 1:0.24247852 2:-2.04975 
0.0008514575915328296 1:0.22514648 2:-3.759375 
2.998847473078397e-05 1:0.23672852 2:-2.6773125 
6.047979737014101e-06 1:0.28387695 2:-3.0823125 
0.0001571614713753879 1:0.29637891 2:-4.25375 
0.0007358308262790355 1:0.35592578 2:-5.0685625 
0.0003147605168729746 1:0.30482617 2:-3.0379375 
0.001436633202207328 1:0.35208398 2:-2.5773125 
0.001153655180860593 1:0.47109961 2:-4.566125 
4.587021224024238e-05 1:0.32918945 2:-4.736375 
0.001753589837407259 1:0.23752344 2:-3.9145 
0.01 1:0.34269922 2:-4.25825 
0.0001917244359393715 1:0.28152734 2:-5.4225 
0.001067623040399937 1:0.34355469 2:-3.5971875 
0.0007773861407915426 1:0.31554102 2:-1.5011875 
0.009007578244129653 1:0.47638086 2:-5.2835625 
0.0003176719503185255 1:0.38608594 2:-4.26 
0.001437568189303438 1:0.30484766 2:-2.807 
0.007404396362823808 1:0.1945957 2:-4.7073125 
0.01 1:0.23308594 2:-1.8355 
0.005773298580292279 1:0.2265332 2:-1.9818125 
0.01 1:0.28305273 2:-2.2699375 
0.01 1:0.34263672 2:-3.112 
0.01 1:0.27044922 2:-2.3269375 
0.01 1:0.20635352 2:-3.929625 
4.585074098420002e-06 1:0.28905078 2:-3.00425 
0.01 1:0.16215625 2:-3.688625 
0.01 1:0.39028711 2:-4.6720625 
0.002586054163173135 1:0.34419531 2:-1.66775 
0.001171219441716667 1:0.20059961 2:-2.8238125 
0.00338661451138102 1:0.29331641 2:-4.4920625 
0.0003011105620652511 1:0.38183594 2:-4.813125 
0.01 1:0.32331641 2:-2.8158125 
0.003608283192325857 1:0.2550293 2:-2.693875 
0.0009864685944923123 1:0.38578516 2:-5.4433125 
0.004266719767485163 1:0.34558203 2:-3.37725 
0.002929497577903737 1:0.32716602 2:-2.767 
0.001160361547378316 1:0.21905469 2:-3.8708125 
0.008978531640602663 1:0.1775332 2:-4.1705625 
0.001350861682106487 1:0.21150586 2:-3.543 
0.000420495941323145 1:0.20570898 2:-3.3461875 
0.002088019194738732 1:0.34435742 2:-4.3355625 
0.01 1:0.27466602 2:-6.4654375 
0.001276749848143271 1:0.23525781 2:-3.2718125 
5.839766556605058e-05 1:0.28123828 2:-2.438375 
0.001505495391309179 1:0.22897461 2:-3.203625 
0.01 1:0.22480859 2:-2.255625 
0.0005897125880999293 1:0.28149414 2:-4.88575 
0.0001555312407698358 1:0.3448418 2:-4.1620625 
0.004972667286064218 1:0.19666016 2:-2.7878125 
0.007801165471823005 1:0.273625 2:-3.2185 
0.001128202729614077 1:0.24718359 2:-3.56925 
6.279576474928283e-05 1:0.34817773 2:-5.007625 
0.0006347059738620337 1:0.2156543 2:-4.505875 
0.00534122394177911 1:0.16737891 2:-4.012875 
0.01 1:0.4003418 2:-4.8186875 
0.0007695643717503907 1:0.29912695 2:-3.834875 
0.01 1:0.27323828 2:-3.409 
0.01 1:0.25547266 2:-3.1161875 
0.0004115117156865263 1:0.2628418 2:-2.9529375 
0.008830420987304317 1:0.38274609 2:-3.323375 
0.001160816217593741 1:0.3116875 2:-3.424125 
0.005745526115380781 1:0.19902148 2:-3.129625 
0.002418773851193733 1:0.3290957 2:-2.6263125 
0.002646724312731262 1:0.35423242 2:-3.837 
0.01 1:0.25319922 2:-3.517625 
0.003010714499476096 1:0.32971875 2:-3.6864375 
0.003008210344388986 1:0.2912832 2:-3.3300625 
0.0009539699439694008 1:0.40289063 2:-5.0608125 
0.0001036511510317049 1:0.39505078 2:-4.75675 
0.002641702733710748 1:0.43663086 2:-4.5245 
0.003103585695787782 1:0.28565039 2:-3.8091875 
0.01 1:0.37595117 2:-6.845625 
0.006231124745560824 1:0.30180859 2:-2.16275 
0.0008473916219291135 1:0.21675781 2:-2.693 
0.001032574253370946 1:0.23851953 2:-4.312625 
0.01 1:0.29956055 2:-4.238375 
0.01 1:0.27574414 2:-3.3558125 
0.008461673465852618 1:0.3421875 2:-3.4231875 
0.01 1:0.21192773 2:-2.841125 
0.01 1:0.27267773 2:-3.639 
0.0002933072523493527 1:0.29921875 2:-5.0480625 
0.0002638086563695984 1:0.29808984 2:-4.7075625 
0.007746603917563071 1:0.28082617 2:-2.2118125 
0.01 1:0.24998242 2:-3.8195625 
0.001181510141012713 1:0.27910352 2:-3.861875 
0.000484859461995072 1:0.29399805 2:-3.1081875 
0.001246493848171872 1:0.25707813 2:-3.7184375 
0.000302300777829441 1:0.28336523 2:-4.2206875 
0.004818218044940384 1:0.21367187 2:-5.067625 
0.01 1:0.3006875 2:-3.8331875 
0.0007017648375086932 1:0.31645703 2:-4.6393125 
0.0005046020154464201 1:0.29775781 2:-4.6875 
0.006908183961297666 1:0.3050957 2:-3.9534375 
0.0003395661090541952 1:0.25980859 2:-2.995 
0.002020223337236587 1:0.25639453 2:-2.3706875 
0.01 1:0.20561914 2:-2.3905625 
0.004832223889186955 1:0.38394531 2:-3.999875 
0.001532441080609323 1:0.14083398 2:-2.108625 
0.0001465957371418409 1:0.2517832 2:-5.5881875 
0.01 1:0.24474805 2:-3.388625 
0.0007269584519063744 1:0.22137305 2:-4.4660625 
0.001616059612467664 1:0.20381836 2:-2.5619375 
0.0005777695516005725 1:0.19230078 2:-1.6540625 
0.01 1:0.31710937 2:-4.3620625 
0.001500723645387449 1:0.3464043 2:-3.0483125 
0.003084583489643281 1:0.36771484 2:-4.042875 
0.01 1:0.2820918 2:-3.37775 
0.003470695189107204 1:0.42561328 2:-5.0830625 
0.0001916433606793511 1:0.28018164 2:-5.1475625 
0.01 1:0.36618555 2:-6.76 
0.009501990532321836 1:0.23528906 2:-5.5748125 
0.0006336145358050638 1:0.33263867 2:-3.347125 
0.001086720059927029 1:0.23408984 2:-3.4955 
0.0002801318826574678 1:0.30674414 2:-2.46875 
0.01 1:0.24811523 2:-4.385125 
0.004873007169753245 1:0.37239258 2:-3.290125 
0.01 1:0.22447461 2:-3.3846875 
0.01 1:0.29727539 2:-3.397 
0.007046375042668253 1:0.30881445 2:-2.2698125 
0.0008250904112788017 1:0.29321875 2:-3.302 
0.01 1:0.26445117 2:-6.1681875 
0.002344599848758612 1:0.39125781 2:-2.5903125 
0.006228236056778838 1:0.38560742 2:-3.2704375 
0.002776920965984324 1:0.30654297 2:-2.1839375 
0.01 1:0.43722656 2:-4.279375 
0.000119276762927991 1:0.3137832 2:-4.3058125 
0.01 1:0.24329687 2:-3.3068125 
0.0008272664145001499 1:0.2700332 2:-3.06725 
0.0007494101517557368 1:0.10416406 2:-1.4846875 
0.0008108528775318337 1:0.24795898 2:-3.6968125 
3.449073526950229e-06 1:0.41069727 2:-6.33175 
0.01 1:0.30597656 2:-4.17525 
1.425678374221175e-05 1:0.32796484 2:-5.77075 
0.0004272906513193804 1:0.32152344 2:-4.0238125 
0.002395982687345039 1:0.22643555 2:-2.9925625 
0.0004159636477520524 1:0.45166016 2:-4.38775 
0.007182180702166749 1:0.23964258 2:-3.02975 
0.009326849583767905 1:0.5255957 2:-5.70775 
0.01 1:0.29725 2:-3.954375 
0.001110048889906507 1:0.30228516 2:-4.418375 
0.01 1:0.25701367 2:-2.2314375 
0.0003002365430729084 1:0.3350332 2:-4.747125 
0.003534697579349905 1:0.23498242 2:-3.247 
0.002755434799727759 1:0.25719141 2:-3.743625 
0.001641590076918422 1:0.35893164 2:-4.5775 
0.0001563664372601656 1:0.39397461 2:-5.0691875 
0.0007069385096147447 1:0.26843555 2:-3.3073125 
0.0008358304975044422 1:0.3027832 2:-1.9758125 
0.000225354987427441 1:0.28805859 2:-4.6735 
0.0006194524561143655 1:0.2612793 2:-4.6709375 
0.0001068406056919001 1:0.3429043 2:-4.523625 
0.001325570807938962 1:0.29808984 2:-4.03125 
0.002847561214429712 1:0.24193164 2:-3.122625 
0.004625212438329356 1:0.20847656 2:-2.4965625 
0.002037993660262255 1:0.26674219 2:-3.784625 
0.01 1:0.24304883 2:-3.1459375 
0.01 1:0.26878906 2:-2.6270625 
0.005321185746689871 1:0.26645117 2:-3.9381875 
0.01 1:0.28439453 2:-2.960375 
0.01 1:0.27570117 2:-2.78825 
0.0008835291117195263 1:0.41218555 2:-5.1688125 
6.087309135227798e-06 1:0.20134375 2:-1.7034375 
0.003550166384436051 1:0.27764062 2:-4.09275 
0.001209188736649095 1:0.23668555 2:-3.42625 
6.911363574467067e-06 1:0.36270117 2:-5.643375 
0.00151365102837758 1:0.38399023 2:-4.735 
0.002653842941547394 1:0.25162305 2:-3.468375 
0.01 1:0.29110156 2:-2.9788125 
0.005854759323727923 1:0.2089707 2:-2.9054375 
0.001229124146585846 1:0.22067578 2:-3.08325 
0.007296441047779194 1:0.077703125 2:-1.7349375 
0.003058861587662494 1:0.091894531 2:-1.8661875 
0.004579710549444329 1:0.24606641 2:-4.011125 
0.01 1:0.28016797 2:-2.0644375 
0.01 1:0.26932422 2:-1.75025 
0.0009194935493496304 1:0.21431445 2:-3.4475625 
0.01 1:0.30435937 2:-6.94625 
1.434965528634645e-05 1:0.31682227 2:-3.2665 
0.001148794066492186 1:0.2345 2:-5.0680625 
0.002473815527232703 1:0.35354297 2:-7.0851875 
0.01 1:0.27303906 2:-3.137875 
4.529381036429202e-05 1:0.3381582 2:-5.9806875 
0.001105614622090292 1:0.28870508 2:-4.330625 
0.01 1:0.36936914 2:-3.5874375 
0.009564115577623144 1:0.23399219 2:-2.62225 
0.002048204398946008 1:0.31573633 2:-3.224125 
0.01 1:0.29299805 2:-3.0075 
0.001165859774837784 1:0.17296875 2:-1.639 
0.002051961584325658 1:0.34441992 2:-2.5821875 
0.006040465995882238 1:0.38938672 2:-1.4563125 
0.001352748190605275 1:0.26213867 2:-2.9094375 
0.002626585019089132 1:0.2595918 2:-3.181375 
0.003633116624467318 1:0.35310156 2:-2.948625 
0.0009801118048403878 1:0.41676953 2:-3.57375 
0.005456758766974419 1:0.32204492 2:-2.8611875 
0.001964857038415457 1:0.38089844 2:-3.7419375 
1.190207271601439e-05 1:0.36837695 2:-6.2575 
0.00875645314836059 1:0.51585742 2:-6.6545 
0.001902204044438784 1:0.38552344 2:-4.6464375 
0.001304197045905475 1:0.33559961 2:-4.079875 
0.005707074926921032 1:0.27632617 2:-1.724 
0.000906241687698896 1:0.2102168 2:-2.0330625 
0.002348474738182966 1:0.32889453 2:-3.90775 
0.0008633872653634231 1:0.37932617 2:-3.9695 
0.0004498943482056175 1:0.36358984 2:-4.906375 
0.005121176835674636 1:0.35732227 2:-6.6468125 
4.621168612264032e-05 1:0.35055469 2:-5.5453125 
4.330181595191211e-05 1:0.3703457 2:-6.1079375 
0.01 1:0.20150977 2:-3.11175 
0.001084923293392377 1:0.26721875 2:-3.688 
0.01 1:0.29561328 2:-3.4695625 
0.01 1:0.18862109 2:-3.5570625 
0.01 1:0.2521875 2:-3.2321875 
2.05425655504616e-05 1:0.17054102 2:-1.676875 
0.01 1:0.23354297 2:-3.1538125 
0.007763353132732135 1:0.24242187 2:-2.8604375 
0.01 1:0.15863672 2:-3.6760625 
0.008815097150478792 1:0.26810547 2:-6.101125 
0.001461020444115013 1:0.36582813 2:-4.68175 
0.01 1:0.21464844 2:-5.0144375 
0.001126050961975743 1:0.24916992 2:-4.545 
0.002185110119464176 1:0.34483398 2:-3.801125 
0.01 1:0.32977539 2:-2.2985625 
0.01 1:0.31369727 2:-2.0728125 
0.004557117224618573 1:0.34693359 2:-2.9148125 
0.001603979109653789 1:0.32591797 2:-3.0913125 
0.003053051775996503 1:0.2566543 2:-2.5156875 
0.01 1:0.28278906 2:-2.4069375 
0.0002060871726429777 1:0.27977539 2:-2.3631875 
0.007643986652452341 1:0.26591016 2:-3.618625 
0.01 1:0.34071484 2:-2.841 
1.001127689777885e-05 1:0.34628711 2:-5.7885625 
0.00346578034275934 1:0.33852734 2:-1.579375 
0.0003995134060504756 1:0.39264844 2:-5.5818125 
0.001435720628478156 1:0.26417188 2:-4.3373125 
0.0008523926548827133 1:0.43186914 2:-3.553875 
5.475659959342231e-05 1:0.39750586 2:-5.7055625 
8.182612474389607e-05 1:0.34235156 2:-2.1496875 
0.00444336581862702 1:0.36439648 2:-3.8094375 
0.002696005663972768 1:0.22665625 2:-3.7025625 
0.004723830577122919 1:0.35101172 2:-3.5235 
0.01 1:0.37252148 2:-3.554625 
0.0004451803975273043 1:0.18317383 2:-2.6414375 
0.01 1:0.27653906 2:-1.923375 
8.554461352436822e-05 1:0.31548633 2:-4.1495 
0.01 1:0.21700781 2:-2.3581875 
0.003441829649577848 1:0.22942383 2:-3.4251875 
0.004287098127669709 1:0.34277734 2:-2.4906875 
0.002503384137847128 1:0.24443555 2:-3.5398125 
0.0005813626375644641 1:0.30773633 2:-3.180875 
4.546666421257984e-05 1:0.23616016 2:-5.0321875 
1.816524915561843e-05 1:0.37833008 2:-5.1865 
0.007008134394006485 1:0.27089063 2:-2.5478125 
0.003070425031015043 1:0.35908984 2:-2.934875 
0.002712868088705482 1:0.36656836 2:-4.133375 
0.002379483826145683 1:0.18711914 2:-2.3135 
0.01 1:0.32316602 2:-2.5864375 
0.0009379908520027502 1:0.27296094 2:-5.079125 
0.01 1:0.15616992 2:-2.4105 
0.01 1:0.2394668 2:-3.7249375 
0.01 1:0.24126758 2:-2.4735 
0.001681439906376192 1:0.35942578 2:-2.83575 
0.01 1:0.30999805 2:-3.1918125 
0.006380389540334007 1:0.23984961 2:-2.801125 
0.004905740007106553 1:0.27514453 2:-3.4434375 
0.0002144544993740162 1:0.30804102 2:-2.93125 
0.003929910895857102 1:0.33832227 2:-4.7073125 
0.0001344764799921009 1:0.4300293 2:-5.5360625 
0.003860278743701334 1:0.31038086 2:-3.6683125 
4.514170123526887e-05 1:0.40919141 2:-6.5406875 
0.001009072886069744 1:0.44399023 2:-4.749625 
0.00752054709427333 1:0.29617773 2:-2.55825 
0.01 1:0.25279492 2:-3.1105 
-0.01 1:0.44066992 2:-4.3504375 
-0.01 1:0.27822461 2:-4.0888125 
-0.01 1:0.28741406 2:-4.3654375 
-0.01 1:0.18921094 2:-3.328375 
-0.01 1:0.34156641 2:-4.8388125 
-0.01 1:0.28816211 2:-3.75325 
-0.01 1:0.42295508 2:-4.58325 
-0.01 1:0.35011133 2:-4.5961875 
-0.01 1:0.30645703 2:-2.082 
-0.01 1:0.33792773 2:-3.1846875 
-0.01 1:0.41233789 2:-5.5705 
-0.01 1:0.35138672 2:-4.4420625 
-0.01 1:0.24904883 2:-4.0290625 
-0.01 1:0.26214258 2:-4.100125 
-0.01 1:0.27826172 2:-4.4676875 
-0.01 1:0.33248828 2:-2.502 
-0.01 1:0.36280664 2:-5.8456875 
-0.01 1:0.35701172 2:-4.0114375 
-0.01 1:0.33430859 2:-3.2810625 
-0.01 1:0.29611523 2:-5.2068125 
-0.01 1:0.32277539 2:-3.7033125 
-0.01 1:0.33418555 2:-2.956375 
-0.01 1:0.16690234 2:-2.8409375 
-0.01 1:0.33725781 2:-3.869 
-0.01 1:0.25451758 2:-1.7416875 
-0.01 1:0.30048633 2:-3.50575 
-0.01 1:0.24953906 2:-2.5758125 
-0.01 1:0.2707207 2:-4.2679375 
-0.01 1:0.37868359 2:-4.4215 
-0.01 1:0.22776367 2:-2.785125 
-0.01 1:0.33098047 2:-2.8483125 
-0.01 1:0.39789844 2:-2.9333125 
-0.01 1:0.31657031 2:-3.592375 
-0.01 1:0.21885156 2:-1.7906875 
-0.01 1:0.31800195 2:-2.7066875 
-0.01 1:0.19188281 2:-2.0279375 
-0.01 1:0.17126758 2:-2.6516875 
-0.01 1:0.29497461 2:-2.2556875 
-0.01 1:0.28387305 2:-3.2044375 
-0.01 1:0.40943945 2:-2.8265625 
-0.01 1:0.20573242 2:-2.702 
-0.01 1:0.34373047 2:-3.911375 
-0.01 1:0.24505859 2:-3.2475 
-0.01 1:0.26678516 2:-2.513375 
-0.01 1:0.25408203 2:-4.2065 
-0.01 1:0.3456543 2:-3.2239375 
-0.01 1:0.24648828 2:-3.09025 
-0.01 1:0.19146289 2:-3.1794375 
-0.01 1:0.32058789 2:-2.162375 
-0.01 1:0.343625 2:-3.1510625 
-0.01 1:0.30064063 2:-4.62675 
-0.01 1:0.25929492 2:-3.3233125 
-0.01 1:0.23530273 2:-1.1014375 
-0.01 1:0.28984375 2:-4.7261875 
-0.01 1:0.25291602 2:-4.2434375 
-0.01 1:0.20922266 2:-2.4875625 
-0.01 1:0.18249414 2:-3.0206875 
-0.01 1:0.2452207 2:-4.069625 
-0.01 1:0.47007031 2:-3.4156875 
-0.01 1:0.25875391 2:-3.735125 
-0.01 1:0.25331055 2:-5.259125 
-0.01 1:0.33484375 2:-4.3180625 
-0.01 1:0.19809375 2:-3.069 
-0.01 1:0.23054297 2:-3.08525 
-0.01 1:0.22968555 2:-4.1193125 
-0.01 1:0.39870508 2:-6.2614375 
-0.01 1:0.33263477 2:-5.3505 
-0.01 1:0.25126563 2:-2.5884375 
-0.01 1:0.28254102 2:-2.7315 
-0.01 1:0.24461719 2:-3.759875 
-0.01 1:0.30981836 2:-2.747 
-0.01 1:0.25489844 2:-3.386625 
-0.01 1:0.28346094 2:-1.1570625 
-0.01 1:0.26345898 2:-4.1485 
-0.01 1:0.28462109 2:-2.889125 
-0.01 1:0.1962832 2:-2.790375 
-0.01 1:0.16263086 2:-2.6108125 
-0.01 1:0.17793555 2:-1.9318125 
-0.01 1:0.28441602 2:-4.591875 
-0.01 1:0.29831641 2:-1.8839375 
-0.01 1:0.32322461 2:-4.9383125 
-0.01 1:0.22491602 2:-2.3835 
-0.01 1:0.29147852 2:-2.597125 
-0.01 1:0.19753516 2:-3.424375 
-0.01 1:0.27897461 2:-2.5580625 
-0.01 1:0.43238867 2:-2.8535625 
-0.01 1:0.32033984 2:-3.4545625 
-0.01 1:0.27245117 2:-3.922625 
-0.01 1:0.12591406 2:-1.9669375 
-0.01 1:0.23814258 2:-3.4095 
-0.01 1:0.3985957 2:-4.82175 
-0.01 1:0.24329297 2:-3.091 
-0.01 1:0.25313672 2:-2.7315 
-0.01 1:0.27132227 2:-3.500875 
-0.01 1:0.35445117 2:-2.0418125 
-0.01 1:0.31777148 2:-5.3259375 
-0.01 1:0.41664844 2:-5.8334375 
-0.01 1:0.37456445 2:-3.8265 
-0.01 1:0.29933008 2:-3.1620625 
-0.01 1:0.17382031 2:-1.9191875 
-0.01 1:0.16448242 2:-2.1161875 
-0.01 1:0.37798242 2:-5.36075 
-0.01 1:0.35523242 2:-5.1198125 
-0.01 1:0.2519707 2:-2.6255625 
-0.01 1:0.30011328 2:-3.26075 
-0.01 1:0.2056543 2:-2.8788125 
-0.01 1:0.2994707 2:-3.6604375 
-0.01 1:0.28832227 2:-3.2866875 
-0.01 1:0.12416602 2:-2.0903125 
-0.01 1:0.11805469 2:-2.27 
-0.01 1:0.17107227 2:-1.879375 
-0.01 1:0.26833398 2:-4.8129375 
-0.01 1:0.17469141 2:-2.1999375 
-0.01 1:0.18063281 2:-1.7966875 
-0.01 1:0.15491016 2:-3.04925 
-0.01 1:0.23418945 2:-3.1060625 
-0.01 1:0.34679102 2:-4.3859375 
-0.01 1:0.18732031 2:-3.1871875 
-0.01 1:0.24810742 2:-2.2230625 
-0.01 1:0.20545117 2:-3.250625 
-0.01 1:0.20155859 2:-2.3331875 
-0.01 1:0.34156445 2:-3.5378125 
-0.01 1:0.37650977 2:-3.31375 
-0.01 1:0.35983789 2:-4.137 
-0.01 1:0.18253516 2:-3.388375 
-0.01 1:0.31178516 2:-2.6841875 
-0.01 1:0.28626953 2:-2.63325 
-0.01 1:0.3564082 2:-4.6351875 
-0.01 1:0.29650781 2:-3.8868125 
-0.01 1:0.31982812 2:-5.0585 
-0.01 1:0.30227734 2:-2.2331875 
-0.01 1:0.28037109 2:-1.59875 
-0.01 1:0.21647656 2:-1.9361875 
-0.01 1:0.24942188 2:-1.6803125 
-0.01 1:0.25853125 2:-4.44175 
-0.01 1:0.21929688 2:-1.9210625 
-0.01 1:0.3401875 2:-1.4686875 
-0.01 1:0.32116602 2:-1.6766875 
-0.01 1:0.23394336 2:-2.904 
-0.01 1:0.2692793 2:-4.3863125 
-0.01 1:0.28656836 2:-5.2745 
-0.01 1:0.34270508 2:-2.6396875 
-0.01 1:0.22915234 2:-1.374375 
-0.01 1:0.33480664 2:-2.5214375 
-0.01 1:0.27562891 2:-3.6761875 
-0.01 1:0.28976953 2:-3.163375 
-0.01 1:0.34318555 2:-4.044125 
-0.01 1:0.26531055 2:-4.804 
-0.01 1:0.26812109 2:-3.9265625 
-0.01 1:0.241125 2:-3.359 
-0.01 1:0.35424609 2:-4.1588125 
-0.01 1:0.1582793 2:-2.42875 
-0.01 1:0.2905 2:-5.1194375 
-0.01 1:0.20248633 2:-1.470125 
-0.01 1:0.21135742 2:-2.489 
-0.01 1:0.31603125 2:-3.776875 
-0.01 1:0.23958398 2:-2.7159375 
-0.01 1:0.34157617 2:-4.2260625 
-0.01 1:0.36369141 2:-2.1930625 
-0.01 1:0.32398242 2:-3.5039375 
-0.01 1:0.20150586 2:-2.223875 
-0.01 1:0.21023242 2:-3.081125 
-0.01 1:0.38706445 2:-4.7500625 
-0.01 1:0.25750977 2:-2.2086875 
-0.01 1:0.3180957 2:-4.3368125 
-0.01 1:0.31791016 2:-3.7708125 
-0.01 1:0.48707422 2:-3.45225 
-0.01 1:0.3085 2:-4.161875 
-0.01 1:0.26771875 2:-2.972875 
-0.01 1:0.22813086 2:-2.677875 
-0.01 1:0.40599219 2:-2.685625 
-0.01 1:0.27122852 2:-3.7273125 
-0.01 1:0.20182617 2:-3.198125 
-0.01 1:0.24357227 2:-2.9170625 
-0.01 1:0.42968359 2:-4.415625 
-0.01 1:0.27746094 2:-4.6858125 
-0.01 1:0.16998047 2:-2.7985625 
-0.01 1:0.11469336 2:-1.1860625 
-0.01 1:0.34663867 2:-2.43325 
-0.01 1:0.30842383 2:-5.3401875 
-0.01 1:0.30995703 2:-2.99925 
-0.01 1:0.36791797 2:-1.7798125 
-0.01 1:0.38985742 2:-2.2789375 
-0.01 1:0.32626953 2:-3.5511875 
-0.01 1:0.2986543 2:-4.975125 
-0.01 1:0.1933457 2:-2.478125 
-0.01 1:0.19559961 2:-2.8805625 
-0.01 1:0.22288086 2:-0.879125 
-0.01 1:0.22076758 2:-3.50925 
-0.01 1:0.44749609 2:-3.6575625 
-0.01 1:0.18795117 2:-2.6435 
-0.01 1:0.21619336 2:-3.8670625 
-0.01 1:0.16503906 2:-2.1281875 
-0.01 1:0.27644531 2:-2.738125 
-0.01 1:0.21367188 2:-3.5629375 
-0.01 1:0.22887305 2:-3.4574375 
-0.01 1:0.23996094 2:-4.4979375 
-0.01 1:0.34984961 2:-4.391 
-0.01 1:0.29217773 2:-3.0855625 
-0.01 1:0.45689844 2:-4.434625 
-0.01 1:0.43435742 2:-3.4658125 
-0.01 1:0.18168164 2:-1.866875 
-0.01 1:0.1979668 2:-3.116375 
-0.01 1:0.20913672 2:-3.9043125 
-0.01 1:0.20894531 2:-4.481875 
-0.01 1:0.22959961 2:-2.5274375 
-0.01 1:0.24679883 2:-3.1264375 
-0.01 1:0.27471484 2:-2.5206875 
-0.01 1:0.32786133 2:-4.434 
-0.01 1:0.30963086 2:-2.8083125 
-0.01 1:0.38985547 2:-3.799625 
-0.01 1:0.21798437 2:-2.28275 
-0.01 1:0.26881055 2:-3.0364375 
-0.01 1:0.20781641 2:-1.73425 
-0.01 1:0.32364258 2:-0.9266875 
-0.01 1:0.18230469 2:-3.516875 
-0.01 1:0.20025195 2:-2.91475 
-0.01 1:0.19434375 2:-2.10675 
-0.01 1:0.17934961 2:-4.0168125 
-0.01 1:0.23202734 2:-1.8263125 
-0.01 1:0.29225195 2:-2.52325 
-0.01 1:0.19449023 2:-2.5605 
-0.01 1:0.22368359 2:-2.012125 
-0.01 1:0.20332227 2:-4.2685625 
-0.01 1:0.22722266 2:-2.2946875 
-0.01 1:0.26252344 2:-3.743625 
-0.01 1:0.17598047 2:-3.4860625 
-0.01 1:0.29560156 2:-2.88125 
-0.01 1:0.33454297 2:-4.7880625 
-0.01 1:0.33392969 2:-4.0231875 
-0.01 1:0.30508789 2:-5.8201875 
-0.01 1:0.26403125 2:-4.804125 
-0.01 1:0.19893359 2:-3.0593125 
-0.01 1:0.25470508 2:-0.922875 
-0.01 1:0.42402148 2:-4.7025625 
-0.01 1:0.38944922 2:-2.8925625 
-0.01 1:0.26929297 2:-2.8614375 
-0.01 1:0.27592773 2:-3.5386875 
-0.01 1:0.26537109 2:-3.0890625 
-0.01 1:0.38280273 2:-4.365125 
-0.01 1:0.23808984 2:-4.31375 
-0.01 1:0.22843164 2:-2.9856875 
-0.01 1:0.33358984 2:-2.0735 
-0.01 1:0.47258203 2:-5.1478125 
-0.01 1:0.27886328 2:-2.8150625 
-0.01 1:0.33678711 2:-3.9640625 
-0.01 1:0.24440234 2:-2.9349375 
-0.01 1:0.29697656 2:-3.7760625 
-0.01 1:0.25325586 2:-2.34125 
-0.01 1:0.23811523 2:-3.25 
-0.01 1:0.25968164 2:-4.701 
-0.01 1:0.25855664 2:-4.6235625 
-0.01 1:0.19732812 2:-3.4299375 
-0.01 1:0.39165625 2:-3.201875 
-0.01 1:0.23148828 2:-3.603875 
-0.01 1:0.38961328 2:-2.5674375 
-0.01 1:0.53747656 2:-5.9125 
-0.01 1:0.49851172 2:-4.012375 
-0.01 1:0.34680664 2:-2.6586875 
-0.01 1:0.32651172 2:-2.089 
-0.01 1:0.23910742 2:-3.884375 
-0.01 1:0.22402539 2:-2.560375 
-0.01 1:0.19187109 2:-2.8835625 
-0.01 1:0.25475977 2:-3.0795 
-0.01 1:0.34861719 2:-3.627625 
-0.01 1:0.26051563 2:-3.0916875 
-0.01 1:0.26091406 2:-2.994125 
-0.01 1:0.18579297 2:-1.535625 
-0.01 1:0.27365625 2:-5.3413125 
-0.01 1:0.4163418 2:-3.113875 
-0.01 1:0.25458203 2:-3.885375 
-0.01 1:0.17887109 2:-3.1995625 
-0.01 1:0.16845703 2:-3.3035 
-0.01 1:0.1959375 2:-2.11625 
-0.01 1:0.23158594 2:-3.2494375 
-0.01 1:0.11993555 2:-1.763125 
-0.01 1:0.19563672 2:-3.308 
-0.01 1:0.34460352 2:-4.310625 
-0.01 1:0.27666992 2:-2.86875 
-0.01 1:0.18776562 2:-4.5545625 
-0.01 1:0.22798828 2:-2.3349375 
-0.01 1:0.22554688 2:-3.4891875 
-0.01 1:0.20121484 2:-2.59925 
-0.01 1:0.20608203 2:-3.458125 
-0.01 1:0.20105078 2:-2.6285625 
-0.01 1:0.30475 2:-3.782375 
-0.01 1:0.30993359 2:-4.1353125 
-0.01 1:0.26016406 2:-4.3838125 
-0.01 1:0.2137168 2:-3.3163125 
-0.01 1:0.4074082 2:-3.9875 
-0.01 1:0.25452539 2:-1.412375 
-0.01 1:0.27808203 2:-3.8909375 
-0.01 1:0.24561719 2:-2.2079375 
-0.01 1:0.28167578 2:-4.304125 
-0.01 1:0.27562695 2:-4.340375 
-0.01 1:0.24125 2:-3.3565 
-0.01 1:0.23192383 2:-3.22575 
-0.01 1:0.28276953 2:-4.7361875 
-0.01 1:0.34100781 2:-3.5708125 
-0.01 1:0.23352539 2:-3.975125 
-0.01 1:0.34244141 2:-3.0976875 
-0.01 1:0.13290039 2:-2.3090625 
-0.01 1:0.36560547 2:-4.0115625 
-0.01 1:0.25330078 2:-2.620125 
-0.01 1:0.21359375 2:-2.771125 
-0.01 1:0.32594336 2:-3.5015 
-0.01 1:0.33538281 2:-3.271875 
-0.01 1:0.27471094 2:-5.619875 
-0.01 1:0.24695898 2:-2.8726875 
-0.01 1:0.25708008 2:-4.588 
-0.01 1:0.17051563 2:-3.0683125 
-0.01 1:0.19397852 2:-3.848375 
-0.01 1:0.19169922 2:-3.3955 
-0.01 1:0.27269141 2:-2.4061875 
-0.01 1:0.24682813 2:-3.020875 
-0.01 1:0.21110352 2:-3.1179375 
-0.01 1:0.31226367 2:-3.6335625 
-0.01 1:0.3218125 2:-4.0596875 
-0.01 1:0.34258594 2:-4.0031875 
-0.01 1:0.3360625 2:-5.0768125 
-0.01 1:0.18131836 2:-2.6103125 
-0.01 1:0.16165234 2:-2.727625 
-0.01 1:0.2047832 2:-4.6410625 
-0.01 1:0.20130273 2:-2.4938125 
-0.01 1:0.252875 2:-4.820875 
-0.01 1:0.28405273 2:-2.7609375 
-0.01 1:0.20524805 2:-3.2940625 
-0.01 1:0.23007227 2:-3.1764375 
-0.01 1:0.22306445 2:-2.1304375 
-0.01 1:0.26711914 2:-3.2993125 
-0.01 1:0.24388867 2:-4.0931875 
-0.01 1:0.28783594 2:-4.0601875 
-0.01 1:0.15414062 2:-2.2021875 
-0.01 1:0.22633984 2:-2.71225 
-0.01 1:0.24400781 2:-3.856625 
-0.01 1:0.23644727 2:-3.2451875 
-0.01 1:0.29218359 2:-3.6641875 
-0.01 1:0.28443359 2:-2.0958125 
-0.01 1:0.23073047 2:-1.6185625 
-0.01 1:0.36822461 2:-3.207625 
-0.01 1:0.2292832 2:-3.793375 
-0.01 1:0.23611133 2:-4.131375 
-0.01 1:0.43701758 2:-4.488375 
-0.01 1:0.38616211 2:-3.214625 
-0.01 1:0.31565234 2:-4.6780625 
-0.01 1:0.19752148 2:-2.3913125 
-0.01 1:0.22680664 2:-3.8293125 
-0.01 1:0.17201758 2:-2.700875 
-0.01 1:0.30742383 2:-3.268875 
-0.01 1:0.27598047 2:-3.708 
-0.01 1:0.29252734 2:-2.577 
-0.01 1:0.27103711 2:-3.3648125 
-0.01 1:0.32322656 2:-3.5009375 
-0.01 1:0.22158984 2:-3.21225 
-0.01 1:0.23028906 2:-4.82625 
-0.01 1:0.17536328 2:-3.52325 
-0.01 1:0.24296484 2:-4.9265625 
-0.01 1:0.20635547 2:-3.31375 
-0.01 1:0.20316992 2:-3.5863125 
-0.01 1:0.34807617 2:-3.3745 
-0.01 1:0.23117383 2:-1.6263125 
-0.01 1:0.17340039 2:-2.8970625 
-0.01 1:0.1824375 2:-2.253375 
-0.01 1:0.22170898 2:-2.994125 
-0.01 1:0.2059375 2:-3.43675 
-0.01 1:0.18333789 2:-2.972125 
-0.01 1:0.32995703 2:-5.0885625 
-0.01 1:0.34518164 2:-3.089625 
-0.01 1:0.21728125 2:-3.6040625 
-0.01 1:0.24790234 2:-2.0054375 
-0.01 1:0.24279883 2:-4.3206875 
-0.01 1:0.16273437 2:-3.362 
-0.01 1:0.14829883 2:-3.12725 
-0.01 1:0.28289062 2:-4.6854375 
-0.01 1:0.29769922 2:-3.3219375 
-0.01 1:0.26974414 2:-2.4686875 
-0.01 1:0.41063281 2:-3.0335 
-0.01 1:0.27291406 2:-4.54875 
-0.01 1:0.33769336 2:-4.9349375 
-0.01 1:0.37672852 2:-2.83925 
-0.01 1:0.27688086 2:-3.00525 
-0.01 1:0.34779297 2:-3.0171875 
-0.01 1:0.23342188 2:-3.4863125 
-0.01 1:0.28263867 2:-4.5860625 
-0.01 1:0.3217832 2:-2.419625 
-0.01 1:0.39533594 2:-6.7176875 
-0.01 1:0.28213672 2:-5.9331875 
-0.01 1:0.32939453 2:-4.4934375 
-0.01 1:0.32936133 2:-2.6848125 
-0.01 1:0.32199414 2:-3.3899375 
-0.01 1:0.21166602 2:-4.4863125 
-0.01 1:0.28295508 2:-0.9159375 
-0.01 1:0.28249219 2:-5.382 
-0.01 1:0.37358398 2:-1.4289375 
-0.01 1:0.45644531 2:-5.909 
-0.01 1:0.28070703 2:-3.386625 
-0.01 1:0.40866992 2:-6.1975625 
-0.01 1:0.25119922 2:-4.5901875 
-0.01 1:0.35639844 2:-5.66275 
-0.01 1:0.29777344 2:-3.685375 
-0.01 1:0.21851953 2:-2.33275 
-0.01 1:0.32717578 2:-3.737625 
-0.01 1:0.28992578 2:-2.24675 
-0.01 1:0.35313672 2:-3.7525625 
-0.01 1:0.24664258 2:-2.0425625 
-0.01 1:0.38183594 2:-2.5176875 
-0.01 1:0.36061719 2:-4.7583125 
-0.01 1:0.24798438 2:-1.645375 
-0.01 1:0.26118359 2:-3.87125 
-0.01 1:0.16975977 2:-3.0816875 
-0.01 1:0.33693945 2:-3.259875 
-0.01 1:0.25019141 2:-3.5898125 
-0.01 1:0.29958203 2:-3.055375 
-0.01 1:0.23005273 2:-3.1355625 
-0.01 1:0.26474414 2:-4.135375 
-0.01 1:0.39456641 2:-5.40375 
-0.01 1:0.33640234 2:-3.262875 
-0.01 1:0.31878516 2:-2.9740625 
-0.01 1:0.19802344 2:-3.217 
-0.01 1:0.18999219 2:-2.8030625 
-0.01 1:0.48124219 2:-4.2619375 
-0.01 1:0.39850391 2:-5.1421875 
-0.01 1:0.29498828 2:-3.6255 
-0.01 1:0.22382227 2:-3.1024375 
-0.01 1:0.63630273 2:-3.811125 
-0.01 1:0.39998242 2:-5.83025 
-0.01 1:0.30944727 2:-4.920875 
-0.01 1:0.38100195 2:-4.0913125 
-0.01 1:0.19657227 2:-2.5599375 
-0.01 1:0.28523633 2:-5.0523125 
-0.01 1:0.30372656 2:-3.7325 
-0.01 1:0.34957617 2:-4.8681875 
-0.01 1:0.22933008 2:-1.4585 
-0.01 1:0.20953125 2:-2.31975 
-0.01 1:0.33252148 2:-2.671125 
-0.01 1:0.33732617 2:-2.0031875 
-0.01 1:0.24621484 2:-2.1268125 
-0.01 1:0.26848047 2:-2.389375 
-0.01 1:0.20867188 2:-2.972625 
-0.01 1:0.26129297 2:-3.4439375 
-0.01 1:0.36631055 2:-4.4484375 
-0.01 1:0.21107031 2:-2.5110625 
-0.01 1:0.24078906 2:-3.714875 
-0.01 1:0.36097656 2:-4.47375 
-0.01 1:0.22273828 2:-3.67025 
-0.01 1:0.21485938 2:-2.81125 
-0.01 1:0.15041211 2:-2.840125 
-0.01 1:0.26586328 2:-1.8378125 
-0.01 1:0.16663672 2:-0.9226875 
-0.01 1:0.33104102 2:-2.396 
-0.01 1:0.24013281 2:-3.9851875 
-0.01 1:0.29282812 2:-3.0000625 
-0.01 1:0.21201367 2:-2.6100625 
-0.01 1:0.25363281 2:-2.1921875 
-0.01 1:0.31439063 2:-1.372 
-0.01 1:0.32114258 2:-3.879125 
-0.01 1:0.34213672 2:-2.21525 
-0.01 1:0.31833984 2:-3.9101875 
-0.01 1:0.18915625 2:-2.730375 
-0.01 1:0.2424082 2:-4.52975 
-0.01 1:0.12989258 2:-2.002875 
-0.01 1:0.16420898 2:-2.2751875 
-0.01 1:0.35279102 2:-1.1444375 
-0.01 1:0.37254492 2:-3.54475 
-0.01 1:0.32970117 2:-4.3779375 
-0.01 1:0.32062891 2:-3.608625 
-0.01 1:0.23587695 2:-3.104625 
-0.01 1:0.20524414 2:-2.742625 
-0.01 1:0.34828516 2:-4.4009375 
-0.01 1:0.4075293 2:-3.602375 
-0.01 1:0.27020117 2:-4.633875 
-0.01 1:0.34442578 2:-4.14075 
-0.01 1:0.28167188 2:-1.3150625 
-0.01 1:0.33244727 2:-5.4505 
-0.01 1:0.25854297 2:-1.9469375 
-0.01 1:0.28335937 2:-5.64725 
-0.01 1:0.21907617 2:-2.309 
-0.01 1:0.20453516 2:-2.7575 
-0.01 1:0.24589844 2:-2.381375 
-0.01 1:0.38547461 2:-3.8594375 
-0.01 1:0.18537305 2:-2.150125 
-0.01 1:0.2485918 2:-3.072625 
-0.01 1:0.2670332 2:-4.2991875 
-0.01 1:0.32821484 2:-3.377375 
-0.01 1:0.27573242 2:-2.024875 
-0.01 1:0.27304883 2:-2.7235625 
-0.01 1:0.35416211 2:-5.13225 
-0.01 1:0.2853125 2:-2.308875 
-0.01 1:0.35437891 2:-3.67175 
-0.01 1:0.48145117 2:-3.388 
-0.01 1:0.27879883 2:-4.7460625 
-0.01 1:0.19296289 2:-2.1853125 
-0.01 1:0.27455664 2:-1.5620625 
-0.01 1:0.24530078 2:-2.4893125 
-0.01 1:0.31470898 2:-5.022375 
-0.01 1:0.37425977 2:-6.9378125 
-0.01 1:0.18386523 2:-2.3635 
-0.01 1:0.22955859 2:-3.2878125 
-0.01 1:0.20196094 2:-2.5460625 
-0.01 1:0.19316602 2:-1.945125 
-0.01 1:0.24685352 2:-3.0428125 
-0.01 1:0.24696484 2:-2.446625 
-0.01 1:0.26777344 2:-3.47225 
-0.01 1:0.25980469 2:-4.1055 
-0.01 1:0.17983789 2:-2.21075 
-0.01 1:0.44936328 2:-4.8013125 
-0.01 1:0.41378516 2:-2.7640625 
-0.01 1:0.3052793 2:-3.3136875 
-0.01 1:0.20828906 2:-3.446375 
-0.01 1:0.16669336 2:-3.11175 
-0.01 1:0.24243945 2:-2.4279375 
-0.01 1:0.55966797 2:-2.449125 
-0.01 1:0.27969727 2:-5.0708125 
-0.01 1:0.34248828 2:-3.007375 
-0.01 1:0.26470703 2:-3.743375 
-0.01 1:0.2560957 2:-3.5296875 
-0.01 1:0.21010352 2:-2.54275 
-0.01 1:0.33385547 2:-3.1575 
-0.01 1:0.22311914 2:-3.4271875 
-0.01 1:0.40074023 2:-6.8451875 
-0.01 1:0.16269141 2:-2.1070625 
-0.01 1:0.33954297 2:-2.632375 
-0.01 1:0.25723242 2:-3.903625 
-0.01 1:0.41551562 2:-4.2259375 
-0.01 1:0.2454043 2:-2.608125 
-0.01 1:0.16996094 2:-2.7726875 
-0.01 1:0.27501172 2:-4.4645625 
-0.01 1:0.33283984 2:-3.3153125 
-0.01 1:0.30686133 2:-6.5006875 
-0.01 1:0.26757422 2:-3.5734375 
-0.01 1:0.27630664 2:-2.03475 
-0.01 1:0.30235937 2:-5.8390625 
-0.01 1:0.24019922 2:-3.4763125 
-0.01 1:0.4194082 2:-4.9998125 
-0.01 1:0.28808594 2:-2.365375 
-0.01 1:0.3371582 2:-3.8149375 
-0.01 1:0.29001562 2:-3.314 
-0.01 1:0.29567383 2:-3.2821875 
-0.01 1:0.2689082 2:-3.412375 
-0.01 1:0.24613477 2:-3.1555 
-0.01 1:0.14553125 2:-1.92825 
-0.01 1:0.25189063 2:-3.2545 
