svm_type c_svc
kernel_type polynomial
degree 2
gamma 1
coef0 1
nr_class 2
total_sv 1875
rho -1.00265
label 1 0
nr_sv 1223 652
SV
0.006573935443266358 1:0.29193555 2:-4.3520625 
0.001685788848178 1:0.20930078 2:-3.767125 
0.01 1:0.14435352 2:-2.1880625 
0.001179047410096394 1:0.16850195 2:-3.7725625 
0.01 1:0.24815234 2:-3.5175 
0.0044838230895593 1:0.25998047 2:-4.9770625 
0.009725077253212623 1:0.27998633 2:-3.1631875 
0.002109970958877894 1:0.25181055 2:-3.654375 
0.0009970051101169199 1:0.14176563 2:-2.326 
0.0009802509308349994 1:0.16395313 2:-2.691875 
0.001326639588907365 1:0.17676562 2:-2.18075 
0.005685938838873498 1:0.23461914 2:-3.3475 
0.01 1:0.35011133 2:-4.5961875 
0.01 1:0.26988281 2:-3.781125 
0.01 1:0.11708789 2:-2.7410625 
0.004293310922058404 1:0.30213477 2:-3.89275 
0.001193895382801051 1:0.30116602 2:-3.454875 
0.0003730098824468734 1:0.29937891 2:-5.5686875 
0.002895814479829058 1:0.25022266 2:-4.73425 
0.0003541630717506651 1:0.40496289 2:-6.0150625 
0.004961988130535643 1:0.3134707 2:-3.9344375 
0.01 1:0.18037891 2:-3.96825 
0.0007108239305815841 1:0.15353516 2:-2.9208125 
0.0009454819922847215 1:0.27851172 2:-5.1588125 
0.0002605673643573764 1:0.25207813 2:-5.338125 
0.003846266159263434 1:0.30149805 2:-3.2504375 
0.01 1:0.2195957 2:-4.1358125 
0.01 1:0.28036523 2:-3.41475 
0.0048712961490404 1:0.19998828 2:-4.3165625 
0.0004994626589777647 1:0.19980273 2:-2.6626875 
0.01 1:0.2707207 2:-4.2679375 
0.01 1:0.12535156 2:-2.5491875 
0.01 1:0.17541602 2:-3.6166875 
0.004520612039552643 1:0.21387305 2:-4.0073125 
0.00971051074944577 1:0.17422656 2:-3.5231875 
0.01 1:0.21604492 2:-4.5743125 
0.0004331315204305888 1:0.17282227 2:-3.03875 
0.001699148716515016 1:0.2234082 2:-2.465375 
0.0003928305188570952 1:0.18447266 2:-3.474625 
0.01 1:0.18142773 2:-3.918625 
0.01 1:0.2980332 2:-4.735125 
0.01 1:0.22577344 2:-4.980125 
0.007038330125059716 1:0.1932832 2:-2.9311875 
0.001931472034932218 1:0.26169922 2:-2.8788125 
0.004076605568910428 1:0.17110742 2:-3.0755625 
0.002505912220131849 1:0.22383594 2:-2.1114375 
0.002152584477499116 1:0.20573242 2:-2.702 
0.009463252381800418 1:0.24226758 2:-5.4451875 
0.0004229729213818396 1:0.34991016 2:-4.7875 
0.006517993237320382 1:0.28956836 2:-6.3693125 
0.01 1:0.24242383 2:-3.8374375 
0.01 1:0.1034375 2:-2.272875 
0.01 1:0.10009375 2:-2.2575 
0.009074215846086241 1:0.089693359 2:-1.929 
0.01 1:0.24306445 2:-4.2538125 
0.0002567748548050617 1:0.25408203 2:-4.2065 
0.002727154394916399 1:0.19375391 2:-2.2433125 
0.01 1:0.24010547 2:-3.806125 
0.0008696943165347751 1:0.17836914 2:-2.2420625 
1.456550913494208e-05 1:0.3866875 2:-5.8071875 
0.007278558635619195 1:0.18260156 2:-3.7633125 
0.001138093288998988 1:0.24741992 2:-3.6719375 
0.008141798413429229 1:0.21047461 2:-3.4828125 
0.002134299798665194 1:0.27054883 2:-3.8561875 
0.0007289122904274161 1:0.22860547 2:-3.5635625 
0.003376729785136229 1:0.16456055 2:-2.7685625 
0.001806961918050937 1:0.19022461 2:-2.65175 
0.01 1:0.17742578 2:-3.540875 
0.003749851836684891 1:0.25773828 2:-3.7175625 
6.812568201409619e-05 1:0.40533789 2:-6.4565 
0.008946676597151414 1:0.13626172 2:-2.8964375 
3.739101863547707e-05 1:0.35347656 2:-4.989375 
7.405847029062567e-06 1:0.19665234 2:-1.8435 
0.004769325824624236 1:0.27144727 2:-4.3475 
0.002031929256303782 1:0.18727148 2:-2.3613125 
0.001901832601752396 1:0.25310938 2:-3.3103125 
0.01 1:0.11208398 2:-2.1299375 
0.005127380064457327 1:0.21219141 2:-4.848875 
0.004099239039161886 1:0.20078516 2:-3.2855 
0.01 1:0.13382422 2:-2.432 
0.0004276008387883298 1:0.27994922 2:-4.938125 
0.01 1:0.16731445 2:-3.6010625 
0.002947110074316478 1:0.26782617 2:-3.1501875 
0.01 1:0.20133789 2:-4.279625 
0.01 1:0.26242773 2:-3.55675 
0.0009475373010879497 1:0.18875977 2:-2.61775 
0.01 1:0.19955273 2:-3.771 
0.01 1:0.22943359 2:-3.84 
0.009839024314268439 1:0.29429687 2:-3.6584375 
0.007719558803750714 1:0.27325391 2:-4.1274375 
0.01 1:0.25929492 2:-3.3233125 
0.0007858248526416438 1:0.27436719 2:-2.3890625 
0.009615015092083344 1:0.20499219 2:-4.49775 
0.01 1:0.23277148 2:-3.7389375 
0.007284206443873857 1:0.29704883 2:-3.9256875 
0.0008653944891177825 1:0.20922266 2:-2.4875625 
0.01 1:0.22247266 2:-3.88825 
0.001770752180269339 1:0.18249414 2:-3.0206875 
0.0008399910238376773 1:0.23852734 2:-3.167 
0.001035037363355348 1:0.2452207 2:-4.069625 
0.01 1:0.25207227 2:-3.5475625 
0.001016069386041556 1:0.42903711 2:-5.4879375 
0.000673936121516696 1:0.26625781 2:-5.1054375 
1.501309104824866e-05 1:0.32301953 2:-5.892625 
0.003961993079601275 1:0.19809375 2:-3.069 
0.0009083914889021099 1:0.26541797 2:-2.87675 
0.01 1:0.29525195 2:-4.3768125 
0.007902780930925432 1:0.17242188 2:-3.959375 
0.01 1:0.20280859 2:-4.48875 
0.0002617458829307929 1:0.34061719 2:-4.7765625 
0.0001594665573457525 1:0.2579707 2:-2.818 
0.0008683014614904349 1:0.29736914 2:-3.4948125 
0.01 1:0.25074023 2:-3.61675 
0.0003896663182568906 1:0.28872656 2:-4.489375 
0.0003467361238330827 1:0.32238477 2:-4.7973125 
0.01 1:0.25489844 2:-3.386625 
0.002914007320711831 1:0.21958984 2:-2.6198125 
0.005511883502963907 1:0.21100977 2:-3.42 
0.01 1:0.17297461 2:-3.49175 
0.001755172379611163 1:0.27598633 2:-4.2910625 
0.01 1:0.11845703 2:-2.042875 
0.001088248961612459 1:0.26604102 2:-4.314875 
0.0008472708446339523 1:0.25223437 2:-3.971 
0.01 1:0.14020508 2:-2.8765 
0.01 1:0.13629297 2:-3.055125 
0.01 1:0.13289453 2:-2.4026875 
1.919977243285402e-05 1:0.30709375 2:-4.985375 
0.005128341329677425 1:0.33277148 2:-4.6433125 
0.01 1:0.21788672 2:-4.6306875 
0.0007043202196640164 1:0.26931836 2:-4.2143125 
0.01 1:0.12933398 2:-2.5115 
0.01 1:0.26691406 2:-3.8111875 
0.01 1:0.25833789 2:-4.347125 
0.01 1:0.16129102 2:-2.2840625 
0.005492051376821169 1:0.1618418 2:-2.8759375 
0.01 1:0.18683984 2:-4.0678125 
0.009129876548566177 1:0.20678516 2:-3.22225 
0.0007673971252716144 1:0.21120898 2:-3.8875625 
0.00959595204768798 1:0.33769336 2:-4.283375 
0.0008121543887681606 1:0.28313086 2:-3.6645625 
0.006323839106768035 1:0.22491602 2:-2.3835 
0.0008840194151333605 1:0.25076563 2:-3.720375 
0.001459196375159094 1:0.40452344 2:-5.27575 
0.01 1:0.26273438 2:-3.28225 
0.001352829739816465 1:0.30485937 2:-4.899375 
0.01 1:0.16167383 2:-3.40125 
0.006275716290231748 1:0.33414648 2:-4.8459375 
0.01 1:0.30417187 2:-4.292125 
5.138877895087144e-06 1:0.36448047 2:-5.8969375 
2.61593260195763e-05 1:0.40051758 2:-6.0948125 
0.0001291879151122265 1:0.27342773 2:-2.5523125 
0.003883410047880386 1:0.21938672 2:-3.08825 
0.0007939782710508959 1:0.24593945 2:-2.1311875 
0.00973700147693728 1:0.18111133 2:-3.8718125 
0.01 1:0.10470117 2:-2.0403125 
0.003173910553794804 1:0.24747852 2:-2.792 
0.0004897275339426504 1:0.23814258 2:-3.4095 
0.0003130893103702587 1:0.29109961 2:-4.8304375 
0.0001124584156171659 1:0.25313672 2:-2.7315 
0.001014359000960663 1:0.24210937 2:-3.6994375 
0.000473634812523976 1:0.27132227 2:-3.500875 
0.000683081520654209 1:0.16550391 2:-3.13475 
0.0005108520241919363 1:0.41664844 2:-5.8334375 
0.01 1:0.45618164 2:-6.5829375 
0.01 1:0.18363672 2:-3.9099375 
1.49729005205283e-05 1:0.21495703 2:-1.86225 
0.01 1:0.21339063 2:-4.5384375 
0.008774265527860137 1:0.18858594 2:-4.2381875 
0.00295320175656719 1:0.27693164 2:-3.3294375 
0.009450790206836073 1:0.16525 2:-3.4219375 
0.01 1:0.17890234 2:-3.84675 
0.007262302814609781 1:0.26488281 2:-3.2199375 
0.01 1:0.19592383 2:-3.6909375 
0.01 1:0.34278125 2:-6.560875 
0.01 1:0.18889648 2:-4.22575 
0.006285714190848563 1:0.26565625 2:-4.6618125 
0.001167884651511423 1:0.12190039 2:-2.296 
0.002650651319475896 1:0.20530664 2:-2.8386875 
0.01 1:0.3164668 2:-4.8870625 
0.0025711313007472 1:0.16313281 2:-2.268625 
0.01 1:0.12416602 2:-2.0903125 
0.01 1:0.11805469 2:-2.27 
0.0009468856142339952 1:0.13006055 2:-2.3679375 
0.001072128510866244 1:0.25723828 2:-4.764 
0.002095496835390505 1:0.2734082 2:-5.0863125 
0.004739446660332569 1:0.23810742 2:-3.604625 
0.01 1:0.31507617 2:-5.15525 
7.337980224283765e-05 1:0.29622656 2:-4.78775 
0.01 1:0.15530469 2:-3.2506875 
0.01 1:0.21511719 2:-2.72775 
0.01 1:0.35138672 2:-6.545875 
2.906037771641443e-05 1:0.41430469 2:-6.158625 
0.01 1:0.16781836 2:-3.0938125 
2.656138298043922e-05 1:0.34374023 2:-5.2498125 
0.0003272722732109639 1:0.37499023 2:-5.383375 
0.0004057553947871265 1:0.23649805 2:-4.5658125 
0.005665766242876794 1:0.18566992 2:-3.2955625 
0.01 1:0.23031055 2:-5.0878125 
0.01 1:0.17549609 2:-3.947 
0.0004366591084690512 1:0.2256875 2:-3.2185625 
0.0007906242703683555 1:0.18064844 2:-2.9850625 
0.002160228492031724 1:0.2555332 2:-4.80425 
0.0005823401765784342 1:0.21854297 2:-4.6409375 
0.000860010290187775 1:0.32747266 2:-4.7500625 
0.007592060633780629 1:0.21226953 2:-3.20225 
0.01 1:0.27674609 2:-4.354375 
0.0001971206055025188 1:0.18949023 2:-2.7203125 
0.01 1:0.21350781 2:-4.545 
0.001176400836140417 1:0.24733789 2:-3.4609375 
0.01 1:0.18807031 2:-4.1786875 
0.001385361102582438 1:0.23505273 2:-4.928375 
0.004410933004126983 1:0.28495703 2:-4.809125 
0.01 1:0.18422461 2:-4.210375 
0.001760805290725489 1:0.3482832 2:-5.8353125 
0.0008122769333449621 1:0.37054687 2:-5.4014375 
0.0008310503556088311 1:0.20545117 2:-3.250625 
0.01 1:0.35889258 2:-6.5419375 
0.008081607895101473 1:0.19202344 2:-4.285125 
0.002090056871155446 1:0.15200391 2:-2.9595625 
0.01 1:0.43245703 2:-6.32425 
0.0003642804279177434 1:0.21465625 2:-3.1859375 
0.003729273354590439 1:0.1174043 2:-2.6358125 
0.01 1:0.17041797 2:-3.62 
0.002542861115471149 1:0.27411523 2:-3.071875 
0.01 1:0.32654492 2:-4.898875 
0.00012447053997435 1:0.28708789 2:-2.5873125 
0.01 1:0.19671484 2:-3.3389375 
0.01 1:0.14727148 2:-2.874875 
0.01 1:0.17517187 2:-3.7431875 
0.01 1:0.22221484 2:-4.77875 
0.0006252385739520549 1:0.26959375 2:-4.9015 
0.01 1:0.20270508 2:-4.2705625 
0.002633925410073503 1:0.25876172 2:-4.130375 
0.001195157768184119 1:0.27905078 2:-4.1588125 
0.01 1:0.10730469 2:-2.29425 
0.01 1:0.18250586 2:-3.7494375 
0.003331143494112568 1:0.1780957 2:-3.2313125 
0.0003237626340165449 1:0.30566992 2:-4.4906875 
0.0004860515457379713 1:0.23108984 2:-4.202 
0.00059725377344801 1:0.15566016 2:-2.349875 
0.000231591731397158 1:0.17360938 2:-3.395625 
0.01 1:0.19992188 2:-2.851375 
0.007919056979321725 1:0.24641211 2:-4.2855 
0.0009345253819406764 1:0.21647656 2:-1.9361875 
2.294574027200004e-05 1:0.22850586 2:-1.869875 
0.01 1:0.17077148 2:-3.607875 
5.862539084418913e-05 1:0.27972656 2:-5.766375 
0.01 1:0.25544727 2:-3.8409375 
0.01 1:0.23692383 2:-5.2616875 
0.000388153676446929 1:0.14639062 2:-1.8294375 
0.007813799620074943 1:0.20992187 2:-4.632125 
0.01 1:0.25853125 2:-4.44175 
0.0003805621996755807 1:0.1523418 2:-3.6244375 
0.01 1:0.18902344 2:-4.05675 
0.01 1:0.24308984 2:-3.6590625 
0.01 1:0.35747656 2:-4.5548125 
0.000804686968686207 1:0.23011133 2:-4.3325 
0.001348180391153706 1:0.2909043 2:-5.123375 
0.01 1:0.12414258 2:-2.3363125 
0.0003921179203948858 1:0.25061328 2:-4.3894375 
0.002066052828489436 1:0.22754492 2:-2.5660625 
0.01 1:0.21526367 2:-4.8820625 
0.009618340747795466 1:0.33484766 2:-6.761375 
0.006318960753699141 1:0.23505469 2:-3.79325 
4.889382947715209e-05 1:0.21929688 2:-1.9210625 
0.005482751734205603 1:0.39625195 2:-5.7065625 
0.01 1:0.26745508 2:-3.3273125 
0.009134605510882217 1:0.11567383 2:-2.49925 
0.002488095484871715 1:0.29476172 2:-4.2281875 
0.01 1:0.15603125 2:-3.233625 
0.01 1:0.1967793 2:-4.2446875 
0.009246267966679721 1:0.1776582 2:-3.817625 
0.0007018975725422074 1:0.25449219 2:-2.45125 
0.002011151670491555 1:0.23394336 2:-2.904 
0.001998176095566653 1:0.25153906 2:-3.174125 
0.003246230934749576 1:0.27834961 2:-3.9286875 
0.007252902041373257 1:0.15460156 2:-3.2545625 
0.0004335218840826181 1:0.22081836 2:-3.715625 
0.01 1:0.23815625 2:-3.5234375 
0.002983166780204343 1:0.28095313 2:-3.7199375 
0.008332292759392375 1:0.32786328 2:-5.173 
0.007440379457495731 1:0.26879883 2:-3.4326875 
0.01 1:0.16033594 2:-3.4038125 
0.01 1:0.11959766 2:-2.1474375 
0.01 1:0.2563418 2:-2.9838125 
1.417222828516434e-05 1:0.25343945 2:-3.0164375 
0.007102108757913022 1:0.25238086 2:-5.8245 
0.01 1:0.27555469 2:-3.6163125 
0.01 1:0.241125 2:-3.359 
0.003158780935340865 1:0.23483594 2:-5.0375 
0.005319821551613313 1:0.20562109 2:-4.42025 
3.758142262822705e-05 1:0.19023633 2:-2.2865 
0.01 1:0.29261328 2:-3.979625 
0.01 1:0.17326563 2:-3.60525 
0.001125960796607602 1:0.1582793 2:-2.42875 
0.01 1:0.11307227 2:-2.4548125 
0.01 1:0.2107832 2:-4.512875 
0.0005248940553886507 1:0.19886328 2:-2.5488125 
0.01 1:0.18976758 2:-4.0565625 
0.01 1:0.17447852 2:-3.6551875 
0.01 1:0.28972266 2:-3.752625 
0.01 1:0.21825586 2:-3.408625 
0.01 1:0.264375 2:-3.62875 
0.01 1:0.17563477 2:-3.6879375 
0.01 1:0.1608125 2:-3.3086875 
0.00258514128337494 1:0.23301758 2:-2.77575 
0.01 1:0.20826953 2:-2.767125 
0.006414168708385592 1:0.17116602 2:-2.7844375 
0.008661650508135119 1:0.30327539 2:-3.748 
0.0003395244085882537 1:0.22896484 2:-3.422125 
0.000256488462233714 1:0.25041016 2:-4.2638125 
0.01 1:0.1815332 2:-3.7371875 
2.00770542179766e-05 1:0.40841602 2:-5.890375 
0.007079989014254288 1:0.17506445 2:-2.9646875 
0.001463017362563432 1:0.27999414 2:-2.9005 
0.01 1:0.12290039 2:-2.5601875 
8.264956648084858e-06 1:0.19261133 2:-1.907375 
8.081529176369107e-05 1:0.25078516 2:-2.29325 
0.01 1:0.27367383 2:-2.1773125 
0.0003920215804054163 1:0.26678906 2:-3.29475 
0.006006890635701844 1:0.27255078 2:-4.94375 
0.01 1:0.13147852 2:-2.66425 
0.01 1:0.15868945 2:-3.581875 
0.009388158231431364 1:0.21667773 2:-5.065875 
0.003639347402002276 1:0.14821484 2:-2.779125 
0.002115880232910339 1:0.20150586 2:-2.223875 
0.01 1:0.11673633 2:-2.6884375 
0.0001522489923397295 1:0.20639648 2:-4.3219375 
0.01 1:0.21583203 2:-3.4614375 
0.001387568900955018 1:0.25072656 2:-4.601875 
0.002045836234357141 1:0.23946289 2:-4.7473125 
0.006976922519198671 1:0.22498242 2:-4.971 
0.01 1:0.22991602 2:-5.1326875 
0.001145912403129168 1:0.16495703 2:-2.8470625 
0.01 1:0.17627734 2:-3.7154375 
0.01 1:0.20374805 2:-4.2816875 
0.00580106629999652 1:0.29110156 2:-4.4441875 
0.0001917471754593946 1:0.2184043 2:-3.258125 
0.01 1:0.21582617 2:-4.73525 
0.0008979068473225008 1:0.29443555 2:-4.777625 
0.001741822904454579 1:0.1800625 2:-2.518875 
0.01 1:0.12288477 2:-2.757375 
0.004796112442507123 1:0.33136133 2:-4.273 
0.001698080820922046 1:0.21893164 2:-4.2990625 
0.0005895417503178283 1:0.25761328 2:-2.3586875 
0.0008714526698948228 1:0.13710156 2:-2.3773125 
0.001221327786039751 1:0.2285293 2:-4.7909375 
0.0002066806157688696 1:0.25946094 2:-4.9086875 
0.01 1:0.19052344 2:-3.313 
0.002611062558558461 1:0.25864844 2:-4.2033125 
0.01 1:0.28158398 2:-3.5241875 
0.004378065979462199 1:0.32183594 2:-4.6823125 
0.001313968269972911 1:0.28401758 2:-3.2515625 
0.0004073054032189126 1:0.20395117 2:-3.1853125 
0.001263660162654034 1:0.18180469 2:-3.0364375 
0.01 1:0.14010547 2:-2.987875 
0.0004388129081693892 1:0.1735957 2:-2.556375 
0.01 1:0.20330078 2:-3.322625 
0.006981696069004877 1:0.21626563 2:-3.61525 
0.0075468736202392 1:0.3085 2:-4.161875 
0.004674882815595828 1:0.26771875 2:-2.972875 
0.005878632158614274 1:0.22813086 2:-2.677875 
0.01 1:0.12164258 2:-2.7250625 
1.734723475976807e-18 1:0.19192969 2:-3.6740625 
0.01 1:0.20182617 2:-3.198125 
0.01 1:0.24077344 2:-3.4290625 
0.01 1:0.19612891 2:-4.27875 
0.006153277866794751 1:0.1738125 2:-3.8840625 
0.01 1:0.098121094 2:-1.977625 
0.001231233613119834 1:0.22241992 2:-4.2011875 
0.002367124157265528 1:0.18081641 2:-3.34325 
3.799837688414442e-05 1:0.35743555 2:-5.2845 
0.01 1:0.17773633 2:-3.628625 
0.001149082732329959 1:0.22320313 2:-2.806375 
0.001128027365278124 1:0.36860742 2:-5.2060625 
0.0002391613672053338 1:0.26663086 2:-3.441375 
0.01 1:0.16984375 2:-3.620125 
0.0005592535919644295 1:0.32235156 2:-4.26875 
0.01 1:0.15983203 2:-3.2945625 
0.009934946887522313 1:0.25924609 2:-4.822625 
0.0002608977511159645 1:0.2986543 2:-4.975125 
0.0005975699730328588 1:0.23536914 2:-4.077375 
0.01 1:0.19237891 2:-4.173875 
0.007324510441683357 1:0.28410352 2:-5.23025 
0.0004372891912905613 1:0.24451562 2:-2.5500625 
0.002118461308222541 1:0.32134961 2:-4.70525 
0.00312901313860194 1:0.1796543 2:-4.172875 
0.01 1:0.2641543 2:-3.894125 
0.008754843867793309 1:0.22712305 2:-3.956625 
0.0005547766218716357 1:0.20827734 2:-3.6744375 
0.01 1:0.17454883 2:-3.9793125 
0.01 1:0.34370508 2:-6.6133125 
0.001064037678927117 1:0.18212695 2:-3.0996875 
0.000664783592063288 1:0.25119336 2:-5.2188125 
0.002847300856778612 1:0.17179883 2:-4.12625 
0.002678131483543927 1:0.16503906 2:-2.1281875 
0.009206512392260516 1:0.21367188 2:-3.5629375 
0.002627773863958379 1:0.22887305 2:-3.4574375 
0.01 1:0.23996094 2:-4.4979375 
0.003886390681279902 1:0.23177344 2:-4.517375 
0.01 1:0.18101367 2:-3.8128125 
0.01 1:0.25779102 2:-4.3279375 
0.01 1:0.20894531 2:-4.481875 
0.01 1:0.26034961 2:-2.928375 
0.0005670534480573037 1:0.22074023 2:-4.273625 
0.003805076734057723 1:0.24595313 2:-5.170875 
0.0008995531222571955 1:0.20331055 2:-3.11325 
0.004229400272837826 1:0.12046484 2:-2.772625 
0.006489437425687897 1:0.11232422 2:-2.5880625 
0.0002685916386106721 1:0.29976758 2:-5.8829375 
0.0006680623111178558 1:0.2493457 2:-4.6851875 
0.001523519538598355 1:0.27169336 2:-5.148125 
4.753359928397913e-05 1:0.22959961 2:-2.5274375 
0.01 1:0.24679883 2:-3.1264375 
0.01 1:0.25238281 2:-3.4760625 
0.01 1:0.24211719 2:-3.517375 
0.0006235174729310681 1:0.21798437 2:-2.28275 
0.01 1:0.17258789 2:-3.5675 
0.0004182002479952523 1:0.18764453 2:-3.5874375 
0.01 1:0.16270117 2:-3.36225 
0.009848119006084117 1:0.16446875 2:-3.5409375 
3.518337962474323e-05 1:0.20025195 2:-2.91475 
0.002416144802995137 1:0.19434375 2:-2.10675 
0.006883254917512197 1:0.19823438 2:-3.312625 
0.0007122098102831499 1:0.14209961 2:-2.4654375 
0.01 1:0.17934961 2:-4.0168125 
3.0100463449906e-05 1:0.22722266 2:-2.2946875 
0.0004689575196090411 1:0.30072461 2:-5.2973125 
0.0009647030659341256 1:0.24146484 2:-4.1600625 
0.003915603815539393 1:0.26252344 2:-3.743625 
0.001009067994765104 1:0.29729883 2:-3.9883125 
0.01 1:0.20479297 2:-4.5269375 
0.01 1:0.24281641 2:-5.575625 
0.01 1:0.32060352 2:-4.442625 
0.01 1:0.22475195 2:-4.8864375 
0.001506261710449989 1:0.30875 2:-3.484375 
0.005071483914965899 1:0.15913672 2:-2.57275 
0.000368643347236063 1:0.38089258 2:-4.9790625 
0.003576402250027945 1:0.28198828 2:-4.9028125 
0.003857646558225265 1:0.19649805 2:-4.149 
0.002550467895548623 1:0.33810352 2:-4.35 
0.01 1:0.23154102 2:-3.049125 
0.01 1:0.21028906 2:-4.5154375 
0.0008048213564196428 1:0.24957031 2:-3.7960625 
0.01 1:0.22146875 2:-4.413 
0.001712369573295993 1:0.26403125 2:-4.804125 
4.779888754709088e-05 1:0.18467578 2:-2.040125 
0.01 1:0.20022656 2:-3.5161875 
0.01 1:0.19893359 2:-3.0593125 
5.067722457877221e-05 1:0.26800977 2:-2.4195 
0.01 1:0.39191602 2:-5.2935 
0.0004004921386302883 1:0.3770293 2:-6.11475 
0.002069753264004421 1:0.20643164 2:-3.2873125 
0.01 1:0.25274414 2:-3.2659375 
0.0003188300016608741 1:0.19711133 2:-3.1739375 
0.009561203793231785 1:0.1425293 2:-2.8435 
0.01 1:0.1806875 2:-3.8233125 
0.01 1:0.14452539 2:-2.9380625 
0.0006700880357237117 1:0.15659961 2:-3.070875 
0.01 1:0.13434375 2:-2.3210625 
0.0003816322392286801 1:0.30873047 2:-4.7131875 
0.01 1:0.18933789 2:-4.245625 
0.008865066116652725 1:0.20493945 2:-4.4815625 
0.01 1:0.14253711 2:-2.94925 
0.01 1:0.20520117 2:-4.3355625 
0.01 1:0.2082207 2:-4.359125 
0.01 1:0.32064062 2:-4.5230625 
2.750766323908146e-06 1:0.33624023 2:-6.860125 
0.01 1:0.096986328 2:-2.1764375 
0.002590250894960307 1:0.20746289 2:-3.017875 
0.01 1:0.27487305 2:-4.0334375 
0.01 1:0.16025195 2:-3.435125 
0.01 1:0.18136328 2:-3.9119375 
0.01 1:0.20227539 2:-2.6524375 
0.005292027699454643 1:0.20919336 2:-4.7135625 
0.001535415100005179 1:0.13055664 2:-2.9695625 
0.01 1:0.29422656 2:-4.070625 
0.0005411838827834562 1:0.23266016 2:-4.689 
0.001248380252691331 1:0.18350195 2:-2.1923125 
0.01 1:0.25 2:-4.624625 
0.0001625530024381923 1:0.32946484 2:-5.1068125 
0.01 1:0.27592773 2:-3.5386875 
0.001373986841121752 1:0.26537109 2:-3.0890625 
0.00207280403093174 1:0.17914844 2:-3.2561875 
0.01 1:0.33154688 2:-4.8363125 
0.002647956595166431 1:0.35174023 2:-4.682875 
0.001454380757749615 1:0.19701367 2:-2.13925 
0.01 1:0.30915625 2:-4.5255 
0.001333996614908201 1:0.31535937 2:-4.855125 
0.0006055263223823556 1:0.21081055 2:-3.7844375 
0.005544763095202884 1:0.30266992 2:-4.88725 
0.01 1:0.15663281 2:-3.2999375 
6.242621411121949e-05 1:0.23971289 2:-2.3139375 
0.01 1:0.15878516 2:-3.40725 
0.01 1:0.22069727 2:-2.997375 
0.001080692218074553 1:0.19512891 2:-2.7455625 
0.01 1:0.2179043 2:-4.7313125 
0.01 1:0.15919531 2:-3.2850625 
0.003045997953233213 1:0.23039844 2:-3.1139375 
0.01 1:0.19526562 2:-3.679375 
0.01 1:0.25605469 2:-4.37625 
0.000427002167010312 1:0.46247266 2:-6.5006875 
0.002039433974436215 1:0.19136719 2:-3.8434375 
0.00853268876347435 1:0.23125586 2:-3.3141875 
0.00108788726344737 1:0.28662109 2:-4.48925 
0.01 1:0.20293359 2:-3.7611875 
0.01 1:0.25320117 2:-3.239875 
0.01 1:0.14449023 2:-3.170375 
0.001143897523188205 1:0.16792383 2:-3.11075 
0.01 1:0.14899805 2:-3.17775 
2.734733090225191e-05 1:0.37266602 2:-5.2381875 
3.09088224792774e-05 1:0.29427539 2:-5.2129375 
0.01 1:0.18521094 2:-4.1219375 
0.009910903980494504 1:0.30161523 2:-4.6424375 
0.007815227117676266 1:0.31580664 2:-4.41175 
2.983121855533489e-05 1:0.25628516 2:-2.2579375 
0.0008722147079415881 1:0.15946289 2:-2.677 
0.000205865261254804 1:0.17070703 2:-2.7125625 
0.003559942538506348 1:0.24440234 2:-2.9349375 
0.0005260079976567861 1:0.21255078 2:-3.1623125 
0.0006471499814683714 1:0.17439063 2:-3.1875 
8.155592713279778e-05 1:0.19073438 2:-4.4073125 
0.001536435337279182 1:0.34438281 2:-4.893 
0.009864452252675319 1:0.4188418 2:-5.466875 
0.0006058287719330264 1:0.15628906 2:-3.502625 
0.0004973846081962752 1:0.29786133 2:-5.276125 
0.001835683956442242 1:0.21832617 2:-3.3679375 
0.002190265128571285 1:0.30743164 2:-2.150375 
0.003894876128706272 1:0.23811523 2:-3.25 
0.01 1:0.14837109 2:-2.9440625 
0.01 1:0.28655664 2:-3.3416875 
0.007749513742317784 1:0.22749609 2:-2.9654375 
0.01 1:0.4509043 2:-6.5925625 
0.004796121308828779 1:0.28838281 2:-3.5944375 
0.0005397013663820667 1:0.33589062 2:-4.5236875 
0.01 1:0.12201367 2:-2.4213125 
0.001522839141639613 1:0.19732812 2:-3.4299375 
0.01 1:0.12792188 2:-2.72125 
0.001582179451029051 1:0.41155273 2:-6.8126875 
3.296457801933444e-05 1:0.31161719 2:-4.9703125 
0.01 1:0.14011523 2:-2.8700625 
0.007884178533112704 1:0.23286914 2:-5.2669375 
0.0005715044368394921 1:0.19351172 2:-3.924625 
0.003417739221982949 1:0.24901172 2:-4.034375 
0.001127769259251096 1:0.31873438 2:-5.045375 
0.002316299766919782 1:0.2388457 2:-2.1976875 
0.01 1:0.22402539 2:-2.560375 
0.006179177033505798 1:0.19187109 2:-2.8835625 
0.001599618416285183 1:0.12996289 2:-2.3450625 
0.005549739277409021 1:0.22610547 2:-2.844625 
0.009126692398628232 1:0.25475977 2:-3.0795 
0.0009440411307850424 1:0.19926562 2:-3.3844375 
0.000592794507082966 1:0.20885547 2:-2.3333125 
0.01 1:0.23656641 2:-5.13225 
0.0002522760078369493 1:0.26533594 2:-4.871 
0.01 1:0.12365625 2:-2.7953125 
0.009722588814182417 1:0.32032812 2:-4.418125 
0.01 1:0.27323437 2:-4.4154375 
0.0001207278407334943 1:0.33609766 2:-5.6264375 
0.001406354417328663 1:0.24564648 2:-3.865375 
0.008502429305796573 1:0.21717383 2:-4.7938125 
0.01 1:0.083269531 2:-1.9089375 
0.01 1:0.10405664 2:-2.366625 
6.543099340829503e-05 1:0.13879883 2:-1.968 
0.002213983337612984 1:0.17083203 2:-4.0699375 
0.01 1:0.14595117 2:-3.081875 
0.004895356981052732 1:0.18546289 2:-3.118 
0.0004683724512746031 1:0.16924805 2:-2.906375 
0.009690136674110643 1:0.21282422 2:-4.698 
0.0001091663387312541 1:0.29868555 2:-5.44775 
6.276775360821314e-05 1:0.20357617 2:-2.9443125 
0.000704939249449827 1:0.2801543 2:-4.520375 
0.01 1:0.17507617 2:-3.6906875 
0.01 1:0.13369531 2:-2.6811875 
0.01 1:0.1082207 2:-2.2316875 
0.008966527926840563 1:0.2639082 2:-5.1389375 
0.006849076346557258 1:0.21848242 2:-4.455375 
0.0003198562962034752 1:0.18030859 2:-2.8774375 
0.0003024264170403625 1:0.14578711 2:-2.0193125 
0.0005992882701206067 1:0.17117969 2:-2.7189375 
0.003235618512892099 1:0.16926953 2:-3.60625 
0.01 1:0.13558008 2:-2.7353125 
0.0007604097966041539 1:0.17422852 2:-3.18075 
0.01 1:0.15378711 2:-2.6814375 
0.009928636067398395 1:0.23544531 2:-5.3535 
0.01 1:0.17545312 2:-3.936625 
0.01 1:0.23659766 2:-4.324125 
0.002646027667636096 1:0.17674609 2:-2.923375 
0.01 1:0.18235938 2:-3.0129375 
0.005832639139493925 1:0.36110156 2:-4.7130625 
0.01 1:0.14083398 2:-3.0911875 
0.003353637791191132 1:0.12099414 2:-1.974625 
0.005620913871327762 1:0.23461328 2:-5.1766875 
0.01 1:0.13873633 2:-2.1679375 
0.01 1:0.16704688 2:-3.42775 
0.0004375882760656576 1:0.29039062 2:-4.55775 
0.003285822264410081 1:0.16408984 2:-3.7249375 
0.01 1:0.13165039 2:-2.7039375 
0.001051357030766267 1:0.26307031 2:-5.029625 
0.01 1:0.099441406 2:-2.0795 
0.001440864906978657 1:0.1417793 2:-3.0480625 
0.0008759377341289989 1:0.23675195 2:-3.4498125 
0.007681758267410642 1:0.241125 2:-4.6085 
0.002591000788659275 1:0.18944727 2:-4.271 
0.01 1:0.24904492 2:-3.73525 
0.01 1:0.20151562 2:-4.401 
0.005033991355844377 1:0.29635937 2:-5.16975 
0.001004080378914371 1:0.20105078 2:-2.6285625 
0.006460224539567248 1:0.20501758 2:-3.4073125 
0.004131444692078457 1:0.39990039 2:-5.5281875 
0.01 1:0.27606055 2:-4.38525 
0.008258159789346055 1:0.23767383 2:-4.242625 
0.01 1:0.21464258 2:-4.6244375 
0.003280924037432929 1:0.2464082 2:-3.9310625 
0.0001925938673498169 1:0.43591602 2:-5.860375 
0.01 1:0.23021875 2:-4.95975 
0.001304612458213005 1:0.18046875 2:-2.948375 
0.009648155829556667 1:0.23888281 2:-5.203 
0.0002401816606058387 1:0.24032227 2:-2.5743125 
0.01 1:0.11834375 2:-2.6625 
0.0001613272940830563 1:0.45997461 2:-6.2921875 
0.01 1:0.129375 2:-2.6505625 
0.0003647145058416588 1:0.23192383 2:-3.22575 
0.01 1:0.26120508 2:-4.383875 
0.002653647718863328 1:0.097283203 2:-2.3428125 
0.008786461804271234 1:0.11894727 2:-2.755 
0.01 1:0.11671875 2:-2.3286875 
0.01 1:0.11764648 2:-2.7798125 
0.005470481495424803 1:0.088455078 2:-2.1455 
0.0009042781922792602 1:0.24999023 2:-4.23425 
0.0005229483967237219 1:0.1944375 2:-2.5219375 
0.002175971633169147 1:0.15662109 2:-3.363625 
0.01 1:0.17751758 2:-3.8049375 
0.002400741532796315 1:0.13290039 2:-2.3090625 
0.002552177167789832 1:0.18749609 2:-3.3806875 
0.003612562905047851 1:0.29725586 2:-4.34775 
0.01 1:0.48474609 2:-6.674125 
0.0002134860918213461 1:0.42489258 2:-5.367 
0.01 1:0.28961328 2:-5.0679375 
0.01 1:0.19264258 2:-2.876 
4.381025336853551e-05 1:0.25330078 2:-2.620125 
0.000604739408222124 1:0.18132617 2:-3.2220625 
0.0007006606345735007 1:0.27832031 2:-3.4939375 
0.0005493592329872968 1:0.23411719 2:-4.732375 
0.002108702375580844 1:0.28777148 2:-3.8546875 
0.01 1:0.15335352 2:-3.1814375 
0.01 1:0.22549609 2:-5.097125 
0.00291426102849656 1:0.20948242 2:-3.10625 
0.00336735256746877 1:0.33393945 2:-5.0185 
0.01 1:0.10449414 2:-2.4495 
2.74814504748869e-05 1:0.26292969 2:-2.64375 
0.0006485629778089846 1:0.27375977 2:-5.0396875 
0.01 1:0.24403516 2:-3.33375 
0.0004777154243021968 1:0.18870117 2:-3.0108125 
0.01 1:0.24695898 2:-2.8726875 
0.01 1:0.19036914 2:-4.209875 
0.005492765824045574 1:0.19155273 2:-3.0366875 
0.01 1:0.11491797 2:-2.302125 
0.0008764770179702295 1:0.30049023 2:-4.7780625 
0.0008831191150357387 1:0.27081641 2:-5.5245 
0.0001506005124800179 1:0.27074414 2:-3.84525 
0.0006269113345318887 1:0.2462207 2:-5.1228125 
0.0002756182998074396 1:0.24758789 2:-4.2194375 
0.001698274674933364 1:0.24129883 2:-2.6834375 
0.003989788531852427 1:0.21372266 2:-3.2156875 
0.003913320861279814 1:0.21819531 2:-2.891375 
0.01 1:0.17548047 2:-3.567 
0.002250259498836361 1:0.2073418 2:-3.732875 
0.01 1:0.15958984 2:-2.8121875 
0.01 1:0.17538867 2:-4.007875 
0.001020278880174389 1:0.16750391 2:-2.8849375 
0.0006641366269310842 1:0.23110156 2:-3.36125 
0.0003593233739461585 1:0.23009766 2:-4.3459375 
0.0006304480736976069 1:0.20968945 2:-4.0735625 
0.01 1:0.13674023 2:-2.810375 
0.0001993057309272479 1:0.15605664 2:-3.3848125 
0.001706705116621883 1:0.17310937 2:-2.4065 
0.01 1:0.17215039 2:-3.63775 
0.01 1:0.17035938 2:-3.4815 
0.0006271886066628138 1:0.18216992 2:-2.539625 
0.003688248735208781 1:0.25425781 2:-3.375125 
0.00742159957914826 1:0.3360625 2:-5.0768125 
0.01 1:0.22061328 2:-3.57275 
0.009495002982978852 1:0.51403125 2:-6.2425 
0.01 1:0.24883203 2:-4.1166875 
0.01 1:0.12463281 2:-2.6011875 
0.009535464170556585 1:0.2189375 2:-4.7980625 
0.009278889919657491 1:0.17154883 2:-3.5608125 
0.00677596129784303 1:0.13299805 2:-2.9773125 
0.002002414510640271 1:0.14148828 2:-3.1513125 
0.01 1:0.19398438 2:-4.392625 
0.01 1:0.181125 2:-3.933125 
0.008585784316344941 1:0.1769707 2:-3.981125 
0.01 1:0.22323828 2:-4.847625 
0.01 1:0.15141602 2:-3.1495 
0.01 1:0.21411133 2:-4.511625 
0.01 1:0.17485547 2:-4.1879375 
1.417617248845983e-05 1:0.36413867 2:-6.3994375 
0.0003924261972545256 1:0.35045508 2:-5.5129375 
0.001841170565885662 1:0.17110742 2:-3.1444375 
0.001187808799811985 1:0.24892187 2:-2.3585625 
0.008586101522866627 1:0.093474609 2:-2.29 
0.01 1:0.10407031 2:-2.424125 
0.007177220740353795 1:0.089224609 2:-2.2149375 
0.0006387462707816993 1:0.22306445 2:-2.1304375 
0.0007314331257578859 1:0.25172266 2:-5.077125 
0.004356778098545388 1:0.15973242 2:-3.5840625 
0.000579020686040325 1:0.1943125 2:-3.39925 
0.001368756565070073 1:0.22961328 2:-4.3941875 
0.01 1:0.27303906 2:-3.471875 
0.002267522608972076 1:0.25813672 2:-5.1858125 
0.001573922418635528 1:0.19107617 2:-2.8655625 
0.0002425277492446195 1:0.28783594 2:-4.0601875 
0.0009908242454590563 1:0.15643164 2:-2.609 
0.01 1:0.1672168 2:-3.3611875 
0.007296168238129144 1:0.35895312 2:-5.38 
0.00138011574382279 1:0.1601543 2:-3.1286875 
0.007776347981370427 1:0.24961133 2:-3.538375 
0.001057325000749526 1:0.37807812 2:-5.0475 
0.005650194121805157 1:0.22812891 2:-3.6428125 
7.614124688324742e-05 1:0.31932422 2:-5.7755 
0.001689295750692306 1:0.25422266 2:-2.438875 
0.01 1:0.15425 2:-3.3069375 
0.004161842375052451 1:0.20908984 2:-3.960375 
0.01 1:0.18426758 2:-3.6134375 
0.0002641893256883825 1:0.43064648 2:-5.9849375 
0.0005884538350049738 1:0.15414062 2:-2.2021875 
0.001746297579199593 1:0.30909961 2:-4.58375 
0.01 1:0.21588086 2:-4.6470625 
0.008986810346511548 1:0.22633984 2:-2.71225 
0.01 1:0.24400781 2:-3.856625 
0.008840689874270422 1:0.21326367 2:-4.75775 
0.009829458293826138 1:0.23321484 2:-5.1535625 
0.004870659068564236 1:0.19770117 2:-3.8305625 
0.0004770466472327153 1:0.21123633 2:-4.2875 
0.0003894009822107066 1:0.23611133 2:-4.131375 
0.0001255487816857198 1:0.35400195 2:-5.0933125 
0.000518083073460544 1:0.22464063 2:-4.6425 
0.0009036114441996686 1:0.24245508 2:-4.3968125 
0.008775745669588305 1:0.23755859 2:-3.473125 
0.0002662974323641651 1:0.34943555 2:-4.5045 
0.0009489437226377583 1:0.24220117 2:-5.2620625 
0.0003679659033247039 1:0.24301953 2:-5.067625 
0.01 1:0.25045312 2:-5.030375 
4.026182681734464e-05 1:0.35855859 2:-5.03625 
0.004116353752300311 1:0.24222656 2:-5.4225625 
0.01 1:0.19108789 2:-4.133375 
0.004214550346074092 1:0.25584961 2:-3.3073125 
0.001334780478697018 1:0.24638867 2:-2.7195625 
0.00189228008109949 1:0.22680664 2:-3.8293125 
0.008974786476251334 1:0.2814668 2:-3.89525 
0.004617301232271395 1:0.29252734 2:-2.577 
1.439397077183201e-05 1:0.25026758 2:-2.719625 
0.00115124705492733 1:0.15488867 2:-2.5001875 
0.01 1:0.27103711 2:-3.3648125 
8.932645768441933e-05 1:0.19875 2:-2.709875 
0.0003505040107385004 1:0.18537695 2:-3.6905 
0.00206333614293329 1:0.22158984 2:-3.21225 
8.82069321962506e-05 1:0.23028906 2:-4.82625 
0.01 1:0.17536328 2:-3.52325 
0.01 1:0.20635547 2:-3.31375 
0.0003661740543555511 1:0.25994336 2:-3.6735 
0.001085510128845747 1:0.2743457 2:-3.3559375 
0.01 1:0.17209766 2:-3.677625 
0.0005881834912035292 1:0.096158203 2:-2.4403125 
0.009817345030344163 1:0.19224414 2:-3.40725 
0.002165357562987982 1:0.28220898 2:-5.411 
0.0005917297180444247 1:0.26612695 2:-4.95275 
0.001030469822342677 1:0.28731836 2:-4.74125 
0.002379314245503587 1:0.21661914 2:-2.7246875 
0.0009431829212689048 1:0.1824375 2:-2.253375 
0.006233547028895834 1:0.22701367 2:-3.6714375 
0.0003456700327620545 1:0.2453125 2:-4.7945625 
0.004935184575335372 1:0.2059375 2:-3.43675 
0.01 1:0.17422266 2:-3.7083125 
0.001254440469381268 1:0.19022852 2:-3.45175 
0.004262495680960141 1:0.21189258 2:-4.8935 
0.01 1:0.13015625 2:-2.3803125 
0.01 1:0.20775781 2:-3.3715 
0.001708903394966236 1:0.33506445 2:-4.2043125 
0.01 1:0.22355273 2:-2.8776875 
0.002424428232553553 1:0.37594727 2:-4.9313125 
0.01 1:0.18769531 2:-4.1099375 
0.0007474050518061481 1:0.19799414 2:-3.060125 
0.01 1:0.18183594 2:-4.09675 
0.0005348714827069053 1:0.30327344 2:-3.6006875 
0.002103960670469828 1:0.3072793 2:-4.848875 
0.01 1:0.21948047 2:-3.96125 
0.0008209506678195718 1:0.24790234 2:-2.0054375 
0.0006966723986985597 1:0.16426172 2:-3.277875 
0.01 1:0.27590625 2:-3.695875 
2.258505627635303e-05 1:0.23557227 2:-1.9678125 
0.01 1:0.21380859 2:-4.451875 
0.01 1:0.19710742 2:-4.32825 
0.008534126121802084 1:0.090146484 2:-2.255375 
0.004665419620724525 1:0.11510742 2:-2.670625 
0.01 1:0.14829883 2:-3.12725 
0.0007814911609021819 1:0.19851367 2:-2.452625 
0.01 1:0.26014062 2:-5.9321875 
0.0002794144838388631 1:0.17368945 2:-2.735 
0.01 1:0.1784082 2:-4.033125 
0.01 1:0.156 2:-3.389625 
0.003878417728373303 1:0.26974414 2:-2.4686875 
0.001810805761573125 1:0.39941406 2:-5.231875 
0.0002418007046475324 1:0.39010742 2:-5.8763125 
0.001489026076509031 1:0.42876367 2:-5.30325 
0.01 1:0.1179043 2:-2.1775 
0.001791784170240521 1:0.21253711 2:-1.875875 
0.01 1:0.10350391 2:-2.0674375 
0.007353998705208471 1:0.21986328 2:-4.9395 
3.01562176945592e-05 1:0.26961328 2:-5.065375 
0.004823987884945105 1:0.30321094 2:-5.1368125 
0.007205802634069819 1:0.25118164 2:-5.15825 
8.733700563804212e-05 1:0.25626172 2:-5.3840625 
0.0004105024168149199 1:0.18736719 2:-2.937875 
0.0004631729733503418 1:0.21958594 2:-4.20025 
0.00143094668504923 1:0.1716875 2:-2.1968125 
0.000762711906786103 1:0.19974219 2:-2.46175 
0.01 1:0.25664063 2:-5.19725 
0.002349980432340462 1:0.14010547 2:-3.013375 
0.01 1:0.18689844 2:-4.18925 
0.0001563442731181257 1:0.18863477 2:-2.969625 
0.001877359175088685 1:0.27291406 2:-4.54875 
0.001208432635515399 1:0.2936582 2:-4.881 
0.01 1:0.17387305 2:-3.586375 
0.009323592860068347 1:0.1223125 2:-2.686875 
0.003323381551744701 1:0.24451758 2:-2.7610625 
0.01 1:0.21799805 2:-3.0160625 
0.01 1:0.20898242 2:-4.439375 
0.01 1:0.091326172 2:-2.0931875 
0.01 1:0.18161914 2:-3.980125 
0.01 1:0.26378125 2:-4.713375 
0.002535114770476513 1:0.28778516 2:-4.2623125 
0.005534047971536298 1:0.4515 2:-5.3444375 
0.001082802508294254 1:0.23567187 2:-4.2323125 
0.01 1:0.25937695 2:-3.4583125 
0.004175437302779054 1:0.21999219 2:-4.3706875 
0.0007606889070102169 1:0.34316211 2:-5.11375 
0.01 1:0.2731875 2:-5.0144375 
0.0001914103791833983 1:0.34183008 2:-6.1061875 
0.003706034650587431 1:0.20410352 2:-5.0283125 
0.01 1:0.39533594 2:-6.7176875 
0.006897342588870677 1:0.17917773 2:-3.852375 
0.01 1:0.19496289 2:-3.4786875 
0.006737382378782852 1:0.23966797 2:-3.09075 
0.001461132317094799 1:0.16310547 2:-2.4914375 
0.0005057037721829291 1:0.16489453 2:-3.8350625 
0.001912467007152439 1:0.27809375 2:-4.651125 
0.001511989668780317 1:0.29189063 2:-3.62475 
0.0004104741003382781 1:0.22320508 2:-4.4395625 
0.01 1:0.15937305 2:-3.3386875 
0.005107073714196423 1:0.087019531 2:-2.105 
0.01 1:0.12753711 2:-2.747625 
0.0001129468326442381 1:0.4128457 2:-5.946 
0.002293364269430694 1:0.3160957 2:-4.733375 
0.01 1:0.24029297 2:-3.9731875 
0.01 1:0.20199219 2:-4.3338125 
0.001108338370064675 1:0.3560332 2:-4.8226875 
0.01 1:0.3845 2:-6.7055 
0.009644746249007569 1:0.1862207 2:-1.8210625 
0.01 1:0.14464258 2:-3.03075 
0.01 1:0.16818945 2:-3.3835 
0.0005130889443920403 1:0.22350977 2:-3.162875 
2.261167816179127e-05 1:0.26119531 2:-2.6723125 
0.001190910806008777 1:0.22598828 2:-4.0158125 
0.006387912370753122 1:0.27218164 2:-4.5251875 
0.008639648411637658 1:0.22181641 2:-4.1625625 
0.009294409793628156 1:0.17656055 2:-4.049 
0.008265799421928786 1:0.14654883 2:-2.5340625 
0.005197890207667937 1:0.13772852 2:-3.0235 
0.01 1:0.17868555 2:-3.814125 
0.00744219503434171 1:0.10349609 2:-2.527125 
0.01 1:0.19900781 2:-2.9758125 
0.00111635269703504 1:0.2871582 2:-5.202125 
0.01 1:0.21166602 2:-4.4863125 
0.01 1:0.17897852 2:-3.954125 
0.0005035411227656797 1:0.29333203 2:-5.2593125 
0.01 1:0.19636914 2:-3.620125 
0.00103751749768665 1:0.35025195 2:-5.4346875 
0.005931795149232874 1:0.16782812 2:-3.937 
0.001843751729089601 1:0.31257617 2:-5.3324375 
0.00844938350536111 1:0.27701758 2:-4.0153125 
8.423259580659874e-05 1:0.28070703 2:-3.386625 
0.01 1:0.23787109 2:-4.0896875 
0.003533859165183281 1:0.31308203 2:-6.5335625 
0.0009561736824974048 1:0.26904297 2:-4.7441875 
0.01 1:0.24900586 2:-5.3428125 
0.01 1:0.21603711 2:-4.561 
0.00175294596857731 1:0.17932031 2:-2.390125 
0.01 1:0.23867578 2:-2.756 
0.01 1:0.22706055 2:-4.6515625 
0.001897995443726473 1:0.10522656 2:-1.86675 
0.002558510098326497 1:0.29341211 2:-5.0375625 
1.253878564625252e-05 1:0.35639844 2:-5.66275 
0.0002177341031950941 1:0.18277148 2:-3.3138125 
0.01 1:0.10792188 2:-2.571 
0.003846133954739423 1:0.22188477 2:-3.3343125 
0.01 1:0.27845508 2:-4.615 
0.01 1:0.22918164 2:-3.73375 
0.007066456624704363 1:0.18766016 2:-2.834875 
0.003134424132441939 1:0.18010938 2:-3.24625 
0.01 1:0.25561914 2:-3.6824375 
0.01 1:0.17507617 2:-3.894 
0.002700835277380236 1:0.28376367 2:-5.632375 
0.006552707185332498 1:0.10382617 2:-1.89325 
0.01 1:0.20489258 2:-4.5708125 
0.000562734570119896 1:0.27294336 2:-4.2574375 
0.002102983182451485 1:0.28219141 2:-4.966625 
0.001952553134876278 1:0.23520312 2:-3.8448125 
0.0001169865012423529 1:0.32683789 2:-6.4313125 
3.54180657360784e-05 1:0.21767773 2:-3.0365625 
0.004947462547167928 1:0.25697852 2:-3.605125 
0.001387915297742536 1:0.23933203 2:-3.2325625 
0.001996056701524812 1:0.19551367 2:-3.2100625 
0.01 1:0.20969922 2:-4.5064375 
0.001452400686923748 1:0.3091875 2:-5.107 
0.01 1:0.23986133 2:-2.677 
0.01 1:0.1204707 2:-2.2618125 
0.0002092262736638723 1:0.15023633 2:-2.348625 
0.0003372068042625601 1:0.14504883 2:-2.4418125 
0.0001748375269706949 1:0.18000586 2:-2.755125 
0.00175619373329827 1:0.20203516 2:-1.9925 
0.002969952173440008 1:0.2940332 2:-3.7155625 
0.01 1:0.2657168 2:-4.5379375 
0.01 1:0.19939453 2:-4.548 
0.01 1:0.14207031 2:-3.0404375 
0.0009079405050198667 1:0.24187695 2:-2.55675 
0.01 1:0.25369141 2:-3.0723125 
0.008826314617380069 1:0.171625 2:-3.0906875 
0.01 1:0.1712168 2:-3.1375625 
0.001530594724307555 1:0.27663672 2:-4.79175 
0.0009530462681039951 1:0.24443945 2:-3.6415 
0.01 1:0.21969531 2:-5.0075 
0.01 1:0.19292188 2:-4.2135 
0.01 1:0.12178906 2:-2.817 
0.0003287159804481777 1:0.24602148 2:-5.08975 
0.007183962349979445 1:0.1992207 2:-4.415625 
0.004359262572296245 1:0.35918359 2:-5.177625 
0.000384077004309356 1:0.31331641 2:-3.9036875 
0.00132239844348746 1:0.24048633 2:-3.747625 
0.0007692297037997909 1:0.27748437 2:-4.232625 
0.007454608336193798 1:0.13432812 2:-2.488 
0.0006308679806323344 1:0.16975977 2:-3.0816875 
0.009179049332180429 1:0.093445313 2:-1.990875 
0.001424008246807481 1:0.26426953 2:-3.7528125 
0.006747448428011185 1:0.1972168 2:-3.4155625 
0.01 1:0.26446289 2:-4.40225 
0.005116109285180055 1:0.38675977 2:-4.5975 
0.01 1:0.32814648 2:-4.10025 
0.004571179490504797 1:0.31074805 2:-4.0411875 
0.007956309323311522 1:0.18567578 2:-3.196375 
0.01 1:0.21371875 2:-2.9296875 
0.003673773393117104 1:0.40342578 2:-6.348125 
0.01 1:0.11514062 2:-2.079875 
0.01 1:0.19082227 2:-4.2091875 
0.01 1:0.20897656 2:-5.02475 
0.004691548466708672 1:0.27491992 2:-5.1063125 
0.001364277966204665 1:0.28536914 2:-4.698875 
0.0007530533595206197 1:0.22514648 2:-3.759375 
0.00213202086980177 1:0.24896289 2:-5.6844375 
0.01 1:0.32592383 2:-4.158 
0.00880783091261152 1:0.26362891 2:-5.6733125 
0.01 1:0.27022461 2:-3.434875 
0.0001268703552774656 1:0.22853516 2:-4.3628125 
0.01 1:0.23918164 2:-4.54575 
0.001475510808979523 1:0.39456641 2:-5.40375 
0.01 1:0.17208594 2:-3.5984375 
0.0006836232158467298 1:0.23752344 2:-3.9145 
0.0004089022124903644 1:0.27080273 2:-4.5884375 
0.0004905850248091172 1:0.19034375 2:-3.3563125 
0.0003639673357077567 1:0.286375 2:-4.498375 
0.007340886417923791 1:0.17992969 2:-3.8296875 
0.01 1:0.18272266 2:-4.05425 
0.006944611533179674 1:0.14129883 2:-3.09775 
0.0006261091773076275 1:0.27161133 2:-4.981 
0.002820712794991343 1:0.1741582 2:-3.27975 
0.01 1:0.20650391 2:-3.9256875 
0.009536208557910953 1:0.11874023 2:-2.7379375 
0.006690357682584878 1:0.12012305 2:-2.803 
0.005283308581345839 1:0.16216797 2:-3.3156875 
0.001844600795026211 1:0.16945117 2:-3.875125 
0.01 1:0.10036328 2:-2.349375 
0.0007176598947101578 1:0.15704297 2:-2.8084375 
0.0007366963042104094 1:0.26841797 2:-5.0613125 
0.01 1:0.22411133 2:-4.558375 
0.0008925791428943736 1:0.18999219 2:-2.8030625 
0.01 1:0.11204297 2:-2.446125 
0.0001933788508526936 1:0.30887305 2:-5.4248125 
0.01 1:0.22826563 2:-3.2530625 
0.01 1:0.20403516 2:-4.382375 
0.002061012772208036 1:0.19595898 2:-3.7265625 
0.01 1:0.19646289 2:-3.268625 
0.000249039337455269 1:0.2550293 2:-2.693875 
0.0002852507824063125 1:0.19602539 2:-4.35925 
0.006808113481700647 1:0.2140918 2:-4.74425 
0.007642808078989417 1:0.23917187 2:-5.222875 
0.008813849179888554 1:0.2800918 2:-3.8188125 
0.01 1:0.25068945 2:-3.924375 
0.001089903845026993 1:0.23817383 2:-3.561625 
0.01 1:0.30120898 2:-4.5260625 
0.009589890485694528 1:0.27466602 2:-6.4654375 
0.001041091484780987 1:0.20672852 2:-4.349125 
0.001053528001281104 1:0.32593555 2:-5.2068125 
0.01 1:0.22719727 2:-4.9126875 
0.0008355968610797992 1:0.13848047 2:-2.4273125 
0.01 1:0.35628711 2:-6.539625 
0.006584625833425515 1:0.1791875 2:-3.6853125 
0.0004441918686178111 1:0.17175391 2:-2.844375 
0.001965345759615988 1:0.2403418 2:-4.1645625 
0.006591102786302812 1:0.273625 2:-3.2185 
0.01 1:0.2635918 2:-5.0038125 
0.01 1:0.34817773 2:-5.007625 
0.009375049210082427 1:0.15477344 2:-3.1905625 
0.00860770397435519 1:0.20798828 2:-4.5903125 
0.001204725214933211 1:0.2029707 2:-4.5528125 
0.0007504539394943795 1:0.16737891 2:-4.012875 
0.01 1:0.22532617 2:-3.8934375 
0.01 1:0.25547266 2:-3.1161875 
0.0008899253708058442 1:0.2628418 2:-2.9529375 
0.005128662342595827 1:0.19902148 2:-3.129625 
4.618513192968208e-05 1:0.25319922 2:-3.517625 
0.01 1:0.18193164 2:-4.0205 
1.052659297359742e-05 1:0.37595117 2:-6.845625 
0.01 1:0.21031641 2:-3.1408125 
0.001668152636906193 1:0.21675781 2:-2.693 
0.003820084108333811 1:0.16562695 2:-2.3655 
0.01 1:0.21192773 2:-2.841125 
0.0004928417792298589 1:0.18839844 2:-2.6835 
0.0006260368793781379 1:0.28082617 2:-2.2118125 
0.01 1:0.23122266 2:-3.48075 
0.002372819065405585 1:0.16104883 2:-3.330625 
0.01 1:0.13779102 2:-2.9471875 
0.01 1:0.14902539 2:-3.169875 
0.01 1:0.1939082 2:-4.118375 
0.001432291931522968 1:0.28336523 2:-4.2206875 
0.01 1:0.27980664 2:-4.7280625 
0.0004719569467927258 1:0.20861133 2:-2.9079375 
0.01 1:0.17895703 2:-3.934375 
0.01 1:0.24078906 2:-3.714875 
0.005565363925823017 1:0.25980859 2:-2.995 
0.0001993142150677368 1:0.32823438 2:-4.709125 
0.0004443595819415246 1:0.18129297 2:-3.3499375 
0.002173635165705103 1:0.30285156 2:-5.0973125 
0.01 1:0.31054492 2:-4.243875 
0.00293898982015405 1:0.20561914 2:-2.3905625 
0.001924459583407397 1:0.16208008 2:-2.296625 
0.01 1:0.12105859 2:-2.527625 
0.00930293659433155 1:0.26615234 2:-6.0169375 
0.0002087815343232229 1:0.24474805 2:-3.388625 
0.01 1:0.1327832 2:-2.80375 
0.01 1:0.1511875 2:-2.6685 
0.01 1:0.11748047 2:-2.1705 
0.00292104961557729 1:0.20666406 2:-3.6920625 
0.01 1:0.15041211 2:-2.840125 
0.01 1:0.16068945 2:-2.8523125 
0.01 1:0.14626172 2:-2.79875 
0.007922350297126651 1:0.31710937 2:-4.3620625 
0.0002774111858175831 1:0.2314668 2:-4.4350625 
0.0001518809939158831 1:0.24578125 2:-3.537125 
0.0002967105608174485 1:0.21201367 2:-2.6100625 
0.006795140978023119 1:0.2820918 2:-3.37775 
0.01 1:0.23898828 2:-4.7155 
0.0018741204991551 1:0.28018164 2:-5.1475625 
0.01 1:0.36618555 2:-6.76 
0.01 1:0.28180273 2:-5.125 
0.0009051532868503082 1:0.23528906 2:-5.5748125 
0.001253914435681517 1:0.15348438 2:-2.6431875 
0.01 1:0.23816602 2:-3.424875 
0.001307644564822245 1:0.16373633 2:-3.692 
0.01 1:0.18764453 2:-4.048125 
0.00507975218706262 1:0.22573437 2:-5.1725625 
0.01 1:0.25813086 2:-3.672125 
0.002229489964043728 1:0.17847266 2:-3.3421875 
0.004884607372386624 1:0.099566406 2:-2.39075 
0.001543592698350093 1:0.12914453 2:-2.9133125 
0.01 1:0.22520898 2:-3.5239375 
0.01 1:0.22447461 2:-3.3846875 
0.01 1:0.11428711 2:-2.539875 
0.01 1:0.13036719 2:-2.7336875 
0.0001530530252245174 1:0.29321875 2:-3.302 
0.009610486175233558 1:0.26445117 2:-6.1681875 
0.0002430323885282006 1:0.1914668 2:-3.376375 
0.007550375265345915 1:0.24329687 2:-3.3068125 
0.01 1:0.24795898 2:-3.6968125 
0.0002600343091097451 1:0.21939063 2:-4.302 
0.01 1:0.1526582 2:-3.2295625 
0.01 1:0.25021875 2:-4.4340625 
0.0001465649889348181 1:0.32796484 2:-5.77075 
0.002009803584306381 1:0.32152344 2:-4.0238125 
0.01 1:0.14826172 2:-3.133125 
2.112050102350018e-05 1:0.18915625 2:-2.730375 
5.174178687124084e-05 1:0.28196289 2:-3.4839375 
0.007920968397071976 1:0.22643555 2:-2.9925625 
0.0006920071979777022 1:0.34605078 2:-4.539 
0.001368901423384362 1:0.20046875 2:-2.5005 
0.007533664649891089 1:0.25445313 2:-3.2235625 
0.0002209204578161525 1:0.16420898 2:-2.2751875 
0.01 1:0.26298828 2:-4.5124375 
0.01 1:0.23587695 2:-3.104625 
0.0002937950821785691 1:0.20524414 2:-2.742625 
0.0006854382953192383 1:0.24691016 2:-5.0823125 
0.0004449554595602867 1:0.34442578 2:-4.14075 
0.003484609323066002 1:0.39397461 2:-5.0691875 
0.007706635730569306 1:0.14244141 2:-2.752 
0.01 1:0.23822656 2:-4.2061875 
0.01 1:0.26416797 2:-4.048625 
0.00195956620273364 1:0.27248438 2:-4.0574375 
0.01 1:0.26773242 2:-4.181625 
0.0008052479198453665 1:0.30394922 2:-5.17475 
0.01 1:0.29808984 2:-4.03125 
0.01 1:0.20539453 2:-4.3329375 
0.001481785410321713 1:0.23125195 2:-4.1251875 
0.01 1:0.11911719 2:-2.54775 
0.006287162058982159 1:0.23319922 2:-5.2978125 
0.01 1:0.24421875 2:-5.166 
0.01 1:0.13181055 2:-2.4746875 
0.002221938509022489 1:0.26878906 2:-2.6270625 
0.01 1:0.21803125 2:-4.6393125 
0.004981366305821358 1:0.27570117 2:-2.78825 
0.0007903810042023042 1:0.21907617 2:-2.309 
0.01 1:0.24589844 2:-2.381375 
0.01 1:0.099 2:-2.1715625 
0.008151660770649102 1:0.14575 2:-3.0774375 
0.0007820134056208012 1:0.17652344 2:-2.8240625 
0.009893935246576925 1:0.28741406 2:-6.508375 
0.01 1:0.14791016 2:-3.037625 
0.001757828607022158 1:0.18537305 2:-2.150125 
0.01 1:0.30507812 2:-4.618125 
0.002075873889498069 1:0.33357617 2:-5.66975 
0.01 1:0.2485918 2:-3.072625 
0.001133633794238268 1:0.19146484 2:-3.2836875 
0.008958541002111065 1:0.16992578 2:-3.4936875 
0.008105308629265992 1:0.14199219 2:-2.8046875 
0.005991378023180247 1:0.20544336 2:-3.30175 
0.005003729513090181 1:0.091894531 2:-1.8661875 
0.01 1:0.26019922 2:-3.834125 
0.001098929650952862 1:0.22251758 2:-4.223375 
0.0001356045424233628 1:0.30435937 2:-6.94625 
7.266308564972922e-05 1:0.31855273 2:-4.2399375 
0.006076004482406291 1:0.35025195 2:-4.0530625 
0.002006133726724416 1:0.22511328 2:-3.103875 
0.009300713275690936 1:0.17662891 2:-4.19575 
0.01 1:0.2345 2:-5.0680625 
0.001908008044664365 1:0.22839258 2:-3.99575 
5.669645897397023e-05 1:0.14820898 2:-3.221625 
0.01 1:0.18423828 2:-4.0299375 
0.006151089934701185 1:0.28318945 2:-4.6805625 
0.01 1:0.35895703 2:-6.632125 
0.00629454193097028 1:0.23399219 2:-2.62225 
0.00256075503714322 1:0.26001172 2:-3.86525 
2.534492413021208e-05 1:0.31582422 2:-4.7633125 
0.01 1:0.23213672 2:-4.9410625 
0.003228980395109579 1:0.24685352 2:-3.0428125 
0.0003444656817423788 1:0.3285918 2:-5.3643125 
0.001834512743833314 1:0.26213867 2:-2.9094375 
0.001616665444065818 1:0.2569082 2:-4.4128125 
0.006654840091863249 1:0.51585742 2:-6.6545 
0.01 1:0.20958594 2:-4.371625 
0.01 1:0.13896484 2:-2.837125 
0.008555509947874197 1:0.16957227 2:-3.7373125 
0.01 1:0.35732227 2:-6.6468125 
0.0004075278797478111 1:0.33188672 2:-4.5985 
0.01 1:0.17953711 2:-3.50825 
0.01 1:0.13338672 2:-2.776875 
0.001293518991601055 1:0.20828906 2:-3.446375 
0.01 1:0.13609375 2:-2.8210625 
0.002403920113257068 1:0.19591602 2:-3.3183125 
0.000826714542457393 1:0.25251367 2:-3.199625 
0.00116304074371907 1:0.20988281 2:-2.778625 
0.001894691370734008 1:0.1367168 2:-2.7264375 
0.01 1:0.12784375 2:-2.3675 
0.01 1:0.1242207 2:-2.5944375 
0.00123186241061308 1:0.25860352 2:-4.259625 
0.0004069719100266676 1:0.23511719 2:-4.8870625 
0.01 1:0.20150977 2:-3.11175 
0.008102850489932556 1:0.29561328 2:-3.4695625 
0.01 1:0.27491016 2:-3.939 
0.0005762108029224828 1:0.2864082 2:-5.2571875 
0.01 1:0.40974609 2:-6.5911875 
0.01 1:0.23354297 2:-3.1538125 
0.0004813570546251335 1:0.24242187 2:-2.8604375 
0.00251553651144977 1:0.2560957 2:-3.5296875 
0.01 1:0.2085332 2:-3.418375 
0.00484735557312756 1:0.21010352 2:-2.54275 
0.001710604229864125 1:0.13687305 2:-2.3974375 
0.01 1:0.21464844 2:-5.0144375 
0.004676349422013831 1:0.2454043 2:-2.608125 
0.01 1:0.12539453 2:-2.4486875 
0.0001789363508734993 1:0.21091211 2:-2.560125 
0.001171757334608979 1:0.15271875 2:-3.000875 
0.0009437199049015957 1:0.30128711 2:-4.9530625 
0.000102626093076526 1:0.28458594 2:-6.0638125 
0.01 1:0.20036719 2:-4.3238125 
0.000866206801746406 1:0.23927539 2:-3.3649375 
0.001136392014711898 1:0.28278906 2:-2.4069375 
0.003414883477794615 1:0.32077539 2:-4.60375 
0.00129121110733742 1:0.31683008 2:-4.07375 
0.0003976929274904976 1:0.24375781 2:-4.0209375 
0.01 1:0.26757422 2:-3.5734375 
0.001815480304262881 1:0.29028516 2:-4.75325 
0.01 1:0.16768555 2:-3.1911875 
0.01 1:0.18057031 2:-4.090625 
0.002819720383671862 1:0.17387305 2:-3.2475 
0.001133741231206349 1:0.29617187 2:-4.460625 
0.001183425915537679 1:0.18317383 2:-2.6414375 
0.001227291075283795 1:0.19910742 2:-3.6005 
0.01 1:0.22824414 2:-4.942875 
0.0006728794808620671 1:0.26807227 2:-5.3609375 
0.001774483847691357 1:0.22942383 2:-3.4251875 
0.01 1:0.20572656 2:-4.2385 
0.01 1:0.20039648 2:-3.85675 
0.01 1:0.23616016 2:-5.0321875 
0.003846265745385667 1:0.35661523 2:-5.604375 
0.001920239087369043 1:0.18711914 2:-2.3135 
0.00115252953483718 1:0.31110156 2:-5.0136875 
0.0005430811274841492 1:0.24218164 2:-3.77425 
3.550342683507005e-05 1:0.14553125 2:-1.92825 
0.000661454366509019 1:0.19087891 2:-2.5153125 
0.002143607676054727 1:0.18012109 2:-3.3941875 
7.233740474177414e-05 1:0.27514453 2:-3.4434375 
5.052118691884274e-05 1:0.37133594 2:-5.0890625 
0.01 1:0.40919141 2:-6.5406875 
0.0009267576254534079 1:0.25279492 2:-3.1105 
-0.01 1:0.23100195 2:-2.88675 
-0.01 1:0.20914258 2:-3.79575 
-0.01 1:0.20682227 2:-2.31725 
-0.01 1:0.21369531 2:-4.2045625 
-0.01 1:0.21297852 2:-4.493375 
-0.01 1:0.12761914 2:-3.1504375 
-0.01 1:0.35700391 2:-5.1086875 
-0.01 1:0.32469141 2:-4.671125 
-0.01 1:0.27167383 2:-5.0855 
-0.01 1:0.22463867 2:-4.466625 
-0.01 1:0.20427539 2:-3.7735625 
-0.01 1:0.32394141 2:-4.4250625 
-0.01 1:0.25138281 2:-4.99325 
-0.01 1:0.31182031 2:-5.115875 
-0.01 1:0.21601367 2:-2.9423125 
-0.01 1:0.27704883 2:-4.812625 
-0.01 1:0.29733594 2:-3.103625 
-0.01 1:0.20225391 2:-2.3948125 
-0.01 1:0.25219727 2:-3.65825 
-0.01 1:0.32179492 2:-4.5561875 
-0.01 1:0.32887109 2:-4.583875 
-0.01 1:0.4166543 2:-6.32025 
-0.01 1:0.21068945 2:-3.207875 
-0.01 1:0.13074219 2:-1.6263125 
-0.01 1:0.15451758 2:-3.617125 
-0.01 1:0.20004297 2:-3.977 
-0.01 1:0.16800391 2:-4.0455 
-0.01 1:0.1593418 2:-2.700125 
-0.01 1:0.13867773 2:-2.1584375 
-0.01 1:0.17995508 2:-2.70825 
-0.01 1:0.26805664 2:-5.3481875 
-0.01 1:0.29344141 2:-5.347125 
-0.01 1:0.27433398 2:-3.6994375 
-0.01 1:0.27416016 2:-5.666125 
-0.01 1:0.17343359 2:-3.47525 
-0.01 1:0.187875 2:-3.811875 
-0.01 1:0.2849375 2:-5.4588125 
-0.01 1:0.18525781 2:-3.2083125 
-0.01 1:0.11014844 2:-2.056 
-0.01 1:0.26129492 2:-2.958625 
-0.01 1:0.088027344 2:-1.490625 
-0.01 1:0.2919043 2:-4.370125 
-0.01 1:0.33907031 2:-5.9951875 
-0.01 1:0.13936914 2:-2.2974375 
-0.01 1:0.22047656 2:-4.6383125 
-0.01 1:0.15067578 2:-3.0638125 
-0.01 1:0.19796094 2:-2.50025 
-0.01 1:0.21633789 2:-4.034625 
-0.01 1:0.11480469 2:-2.3643125 
-0.01 1:0.18969141 2:-2.3571875 
-0.01 1:0.27804688 2:-4.8784375 
-0.01 1:0.15191211 2:-2.062875 
-0.01 1:0.21545312 2:-4.1344375 
-0.01 1:0.31158398 2:-5.0321875 
-0.01 1:0.24237109 2:-4.1006875 
-0.01 1:0.24679687 2:-4.9829375 
-0.01 1:0.22739648 2:-4.514875 
-0.01 1:0.163125 2:-2.3531875 
-0.01 1:0.19030078 2:-4.238 
-0.01 1:0.21238867 2:-3.6073125 
-0.01 1:0.2777832 2:-4.788875 
-0.01 1:0.2340332 2:-4.46175 
-0.01 1:0.23397852 2:-4.0256875 
-0.01 1:0.20435938 2:-4.2846875 
-0.01 1:0.33728711 2:-5.5165625 
-0.01 1:0.22560547 2:-4.3295 
-0.01 1:0.17 2:-3.446 
-0.01 1:0.093355469 2:-1.65375 
-0.01 1:0.28154297 2:-5.29975 
-0.01 1:0.19549805 2:-3.938375 
-0.01 1:0.20729687 2:-2.8753125 
-0.01 1:0.24108398 2:-4.31275 
-0.01 1:0.24236328 2:-2.9716875 
-0.01 1:0.15331641 2:-1.8380625 
-0.01 1:0.13840234 2:-2.729 
-0.01 1:0.22388477 2:-3.3609375 
-0.01 1:0.1829375 2:-3.3390625 
-0.01 1:0.19699805 2:-4.1509375 
-0.01 1:0.20575391 2:-4.6519375 
-0.01 1:0.23243945 2:-3.1105625 
-0.01 1:0.17656641 2:-3.490125 
-0.01 1:0.31034766 2:-5.7493125 
-0.01 1:0.26556641 2:-4.6180625 
-0.01 1:0.23392188 2:-4.871875 
-0.01 1:0.18468164 2:-3.602 
-0.01 1:0.21860547 2:-3.1045625 
-0.01 1:0.25849219 2:-4.3523125 
-0.01 1:0.11633203 2:-2.3460625 
-0.01 1:0.12472852 2:-2.3263125 
-0.01 1:0.17423047 2:-3.274 
-0.01 1:0.13996484 2:-3.0751875 
-0.01 1:0.25586328 2:-3.9335625 
-0.01 1:0.18543555 2:-3.180375 
-0.01 1:0.23319531 2:-4.466125 
-0.01 1:0.21612695 2:-4.571875 
-0.01 1:0.40318555 2:-5.302875 
-0.01 1:0.22222266 2:-3.8930625 
-0.01 1:0.22533789 2:-4.357625 
-0.01 1:0.29157422 2:-3.5221875 
-0.01 1:0.21916016 2:-2.79625 
-0.01 1:0.12272852 2:-2.4301875 
-0.01 1:0.25605273 2:-4.287875 
-0.01 1:0.24605078 2:-3.83775 
-0.01 1:0.20967578 2:-4.212875 
-0.01 1:0.3301582 2:-4.557875 
-0.01 1:0.23467969 2:-3.3324375 
-0.01 1:0.20251562 2:-4.3700625 
-0.01 1:0.29669727 2:-5.4954375 
-0.01 1:0.20708398 2:-4.1880625 
-0.01 1:0.19804102 2:-3.9090625 
-0.01 1:0.18996484 2:-3.868 
-0.01 1:0.20847656 2:-4.722875 
-0.01 1:0.26076367 2:-5.2565625 
-0.01 1:0.10040234 2:-2.00375 
-0.01 1:0.19603711 2:-3.65075 
-0.01 1:0.23883203 2:-4.6520625 
-0.01 1:0.22332031 2:-3.847 
-0.01 1:0.25668555 2:-4.356 
-0.01 1:0.33055664 2:-5.0335 
-0.01 1:0.14039648 2:-2.7203125 
-0.01 1:0.18032227 2:-3.4590625 
-0.01 1:0.20652539 2:-3.2526875 
-0.01 1:0.40971094 2:-4.368375 
-0.01 1:0.1969668 2:-4.3445625 
-0.01 1:0.2788125 2:-4.1191875 
-0.01 1:0.21329492 2:-4.0851875 
-0.01 1:0.28219141 2:-5.6 
-0.01 1:0.41668164 2:-5.924875 
-0.01 1:0.14036523 2:-2.703625 
-0.01 1:0.19635547 2:-4.2664375 
-0.01 1:0.29874609 2:-4.2219375 
-0.01 1:0.34758984 2:-4.6420625 
-0.01 1:0.41588477 2:-5.7424375 
-0.01 1:0.12210156 2:-2.33825 
-0.01 1:0.32420508 2:-5.0073125 
-0.01 1:0.2536543 2:-5.4265 
-0.01 1:0.27801758 2:-3.6923125 
-0.01 1:0.20133203 2:-3.4996875 
-0.01 1:0.18523242 2:-3.55875 
-0.01 1:0.20696875 2:-3.8543125 
-0.01 1:0.24038672 2:-4.892 
-0.01 1:0.20337109 2:-3.343875 
-0.01 1:0.16791992 2:-3.2544375 
-0.01 1:0.30008594 2:-3.7301875 
-0.01 1:0.28879492 2:-3.6378125 
-0.01 1:0.28505859 2:-5.2948125 
-0.01 1:0.28710938 2:-4.5034375 
-0.01 1:0.27832422 2:-5.4890625 
-0.01 1:0.14767578 2:-2.7695625 
-0.01 1:0.165625 2:-2.978625 
-0.01 1:0.15929102 2:-3.25825 
-0.01 1:0.22263086 2:-4.191625 
-0.01 1:0.19228711 2:-3.721375 
-0.01 1:0.16573828 2:-3.3041875 
-0.01 1:0.21158789 2:-3.901625 
-0.01 1:0.165 2:-3.3045625 
-0.01 1:0.26000781 2:-4.66625 
-0.01 1:0.16944336 2:-2.302875 
-0.01 1:0.18390234 2:-3.9641875 
-0.01 1:0.27118945 2:-5.1365625 
-0.01 1:0.19795508 2:-4.1676875 
-0.01 1:0.21932617 2:-4.9929375 
-0.01 1:0.17835937 2:-2.29925 
-0.01 1:0.11040039 2:-1.0778125 
-0.01 1:0.24713086 2:-4.376625 
-0.01 1:0.20826953 2:-3.633 
-0.01 1:0.23423242 2:-3.962625 
-0.01 1:0.18991211 2:-4.3025 
-0.01 1:0.17910547 2:-3.856 
-0.01 1:0.28919727 2:-4.9364375 
-0.01 1:0.28936719 2:-4.1814375 
-0.01 1:0.29653906 2:-5.3133125 
-0.01 1:0.31567578 2:-5.128625 
-0.01 1:0.22663281 2:-4.6451875 
-0.01 1:0.23229883 2:-2.5465625 
-0.01 1:0.28769141 2:-4.7579375 
-0.01 1:0.17220508 2:-3.4438125 
-0.01 1:0.14190234 2:-2.9960625 
-0.01 1:0.16884766 2:-3.1375625 
-0.01 1:0.16263672 2:-3.347625 
-0.01 1:0.18590625 2:-3.2601875 
-0.01 1:0.2465293 2:-4.695875 
-0.01 1:0.10554297 2:-2.39975 
-0.01 1:0.16879297 2:-3.4405 
-0.01 1:0.1496875 2:-2.9224375 
-0.01 1:0.18257227 2:-3.9139375 
-0.01 1:0.16909375 2:-2.936 
-0.01 1:0.26073437 2:-4.258 
-0.01 1:0.21471094 2:-3.5236875 
-0.01 1:0.1538125 2:-2.801 
-0.01 1:0.1951543 2:-2.4258125 
-0.01 1:0.30620117 2:-4.9893125 
-0.01 1:0.19511328 2:-3.0749375 
-0.01 1:0.24404688 2:-4.05025 
-0.01 1:0.27883984 2:-3.5875625 
-0.01 1:0.29112109 2:-4.6861875 
-0.01 1:0.2444375 2:-4.2815625 
-0.01 1:0.18212695 2:-3.46125 
-0.01 1:0.14554883 2:-2.5863125 
-0.01 1:0.22426367 2:-3.909375 
-0.01 1:0.26896484 2:-3.7311875 
-0.01 1:0.22933398 2:-3.2945 
-0.01 1:0.17550586 2:-2.5815625 
-0.01 1:0.20789648 2:-4.8635625 
-0.01 1:0.25982422 2:-4.185375 
-0.01 1:0.1310332 2:-3.0138125 
-0.01 1:0.15527148 2:-3.574 
-0.01 1:0.082253906 2:-1.711875 
-0.01 1:0.25044922 2:-4.85525 
-0.01 1:0.18666406 2:-3.8370625 
-0.01 1:0.18050977 2:-2.87525 
-0.01 1:0.20397266 2:-2.873625 
-0.01 1:0.23849023 2:-4.3308125 
-0.01 1:0.23095508 2:-3.7495625 
-0.01 1:0.21941016 2:-4.4713125 
-0.01 1:0.17560156 2:-3.320375 
-0.01 1:0.14660547 2:-3.27375 
-0.01 1:0.36483398 2:-5.3958125 
-0.01 1:0.1399082 2:-3.0259375 
-0.01 1:0.1665918 2:-2.88275 
-0.01 1:0.1550625 2:-3.471625 
-0.01 1:0.14648633 2:-3.2020625 
-0.01 1:0.17013477 2:-2.714375 
-0.01 1:0.27503906 2:-3.7306875 
-0.01 1:0.14812891 2:-1.9295625 
-0.01 1:0.17887109 2:-3.7491875 
-0.01 1:0.26156836 2:-4.42225 
-0.01 1:0.2255957 2:-4.3601875 
-0.01 1:0.26202148 2:-4.5193125 
-0.01 1:0.23572266 2:-3.609125 
-0.01 1:0.13833594 2:-2.906875 
-0.01 1:0.30663086 2:-4.8278125 
-0.01 1:0.17408984 2:-3.10925 
-0.01 1:0.24000977 2:-3.822125 
-0.01 1:0.24095313 2:-4.219625 
-0.01 1:0.24745703 2:-4.2286875 
-0.01 1:0.24683398 2:-3.15875 
-0.01 1:0.25394141 2:-4.367 
-0.01 1:0.19822656 2:-4.0500625 
-0.01 1:0.20151953 2:-4.1438125 
-0.01 1:0.19595898 2:-3.706625 
-0.01 1:0.27945898 2:-3.1124375 
-0.01 1:0.22888672 2:-4.51275 
-0.01 1:0.18467187 2:-3.978875 
-0.01 1:0.20241016 2:-4.5631875 
-0.01 1:0.3104043 2:-6.1365 
-0.01 1:0.32645508 2:-5.77125 
-0.01 1:0.26445508 2:-4.4808125 
-0.01 1:0.28153906 2:-5.5325 
-0.01 1:0.28383789 2:-4.5254375 
-0.01 1:0.27689648 2:-4.442125 
-0.01 1:0.2390332 2:-4.7351875 
-0.01 1:0.2874082 2:-4.2813125 
-0.01 1:0.26612891 2:-5.0080625 
-0.01 1:0.39117773 2:-4.3866875 
-0.01 1:0.19984375 2:-4.152625 
-0.01 1:0.29000781 2:-4.585125 
-0.01 1:0.41826953 2:-5.916375 
-0.01 1:0.33544727 2:-5.1939375 
-0.01 1:0.12785937 2:-3.4310625 
-0.01 1:0.24168555 2:-5.2645625 
-0.01 1:0.24909961 2:-4.7545 
-0.01 1:0.2892832 2:-4.5595 
-0.01 1:0.13827344 2:-2.6864375 
-0.01 1:0.42748242 2:-5.4629375 
-0.01 1:0.20068945 2:-2.8734375 
-0.01 1:0.21072852 2:-3.4869375 
-0.01 1:0.21630078 2:-3.68425 
-0.01 1:0.18242773 2:-3.8430625 
-0.01 1:0.11307227 2:-2.437125 
-0.01 1:0.25462695 2:-3.4156875 
-0.01 1:0.26659766 2:-4.8791875 
-0.01 1:0.23487305 2:-4.7185625 
-0.01 1:0.36026172 2:-5.9035625 
-0.01 1:0.16170898 2:-3.8336875 
-0.01 1:0.21823438 2:-2.610625 
-0.01 1:0.21625586 2:-3.218125 
-0.01 1:0.17283398 2:-3.513 
-0.01 1:0.2334707 2:-4.02025 
-0.01 1:0.21661328 2:-4.1964375 
-0.01 1:0.19995117 2:-4.736 
-0.01 1:0.14361133 2:-2.7618125 
-0.01 1:0.18596875 2:-3.7434375 
-0.01 1:0.15744727 2:-3.6728125 
-0.01 1:0.22680273 2:-4.3693125 
-0.01 1:0.17967383 2:-4.1776875 
-0.01 1:0.15552148 2:-3.5993125 
-0.01 1:0.17432422 2:-2.6551875 
-0.01 1:0.18891602 2:-2.479875 
-0.01 1:0.15924414 2:-3.456125 
-0.01 1:0.32123828 2:-5.983375 
-0.01 1:0.21264844 2:-2.9796875 
-0.01 1:0.26100195 2:-3.587125 
-0.01 1:0.20888086 2:-3.189875 
-0.01 1:0.27418945 2:-5.417375 
-0.01 1:0.16407617 2:-2.637875 
-0.01 1:0.28564844 2:-5.3563125 
-0.01 1:0.18362305 2:-3.7599375 
-0.01 1:0.15056836 2:-2.9521875 
-0.01 1:0.24398438 2:-3.719375 
-0.01 1:0.19839258 2:-3.6535625 
-0.01 1:0.14796484 2:-3.1890625 
-0.01 1:0.27983203 2:-4.998 
-0.01 1:0.090345703 2:-0.9753125 
-0.01 1:0.17631641 2:-3.155625 
-0.01 1:0.19753125 2:-3.80925 
-0.01 1:0.18713672 2:-3.1725 
-0.01 1:0.10730859 2:-1.8963125 
-0.01 1:0.2102832 2:-4.280125 
-0.01 1:0.17776172 2:-3.941625 
-0.01 1:0.17191797 2:-3.66225 
-0.01 1:0.14380859 2:-2.602 
-0.01 1:0.15630273 2:-3.26325 
-0.01 1:0.24354102 2:-4.6081875 
-0.01 1:0.12801367 2:-2.7581875 
-0.01 1:0.15285937 2:-3.283 
-0.01 1:0.14104297 2:-2.236375 
-0.01 1:0.10699219 2:-1.968375 
-0.01 1:0.20157422 2:-3.8138125 
-0.01 1:0.16484375 2:-2.7686875 
-0.01 1:0.17810742 2:-3.70925 
-0.01 1:0.16781055 2:-3.1551875 
-0.01 1:0.18011914 2:-3.4025625 
-0.01 1:0.2978125 2:-5.98225 
-0.01 1:0.22619531 2:-4.3410625 
-0.01 1:0.13572852 2:-2.5335 
-0.01 1:0.23166406 2:-4.7021875 
-0.01 1:0.20486328 2:-4.3973125 
-0.01 1:0.25088867 2:-4.781375 
-0.01 1:0.2322168 2:-4.5760625 
-0.01 1:0.268375 2:-5.1638125 
-0.01 1:0.23408203 2:-4.2324375 
-0.01 1:0.19877344 2:-3.577625 
-0.01 1:0.22451172 2:-4.5419375 
-0.01 1:0.18489648 2:-2.2105625 
-0.01 1:0.11286719 2:-2.107375 
-0.01 1:0.23531641 2:-4.8604375 
-0.01 1:0.15904297 2:-3.7005625 
-0.01 1:0.2761543 2:-4.952875 
-0.01 1:0.29289063 2:-5.652375 
-0.01 1:0.26100781 2:-4.4465625 
-0.01 1:0.27037305 2:-5.205125 
-0.01 1:0.28202344 2:-4.859375 
-0.01 1:0.22278516 2:-4.4724375 
-0.01 1:0.22197656 2:-4.3826875 
-0.01 1:0.084939453 2:-1.6044375 
-0.01 1:0.14301563 2:-3.3251875 
-0.01 1:0.2355625 2:-5.174625 
-0.01 1:0.18877148 2:-3.6405625 
-0.01 1:0.18665039 2:-4.4296875 
-0.01 1:0.16311133 2:-3.194 
-0.01 1:0.19458984 2:-3.3660625 
-0.01 1:0.23607227 2:-3.9830625 
-0.01 1:0.13747656 2:-2.793375 
-0.01 1:0.23004102 2:-4.380125 
-0.01 1:0.2129668 2:-4.0715 
-0.01 1:0.28174219 2:-4.3183125 
-0.01 1:0.16494336 2:-2.7305625 
-0.01 1:0.25904102 2:-4.564 
-0.01 1:0.19154492 2:-4.0826875 
-0.01 1:0.13604102 2:-2.4754375 
-0.01 1:0.081677734 2:-1.615 
-0.01 1:0.16224609 2:-2.8259375 
-0.01 1:0.183125 2:-3.060875 
-0.01 1:0.25042773 2:-3.641875 
-0.01 1:0.24639453 2:-3.246 
-0.01 1:0.2477793 2:-3.9765 
-0.01 1:0.16329102 2:-2.5095625 
-0.01 1:0.21044922 2:-4.2815625 
-0.01 1:0.17508789 2:-2.977125 
-0.01 1:0.19902344 2:-3.5900625 
-0.01 1:0.21555469 2:-4.5850625 
-0.01 1:0.19360547 2:-2.5951875 
-0.01 1:0.21740625 2:-4.2459375 
-0.01 1:0.22976758 2:-4.4234375 
-0.01 1:0.20479687 2:-4.2284375 
-0.01 1:0.24851172 2:-3.62425 
-0.01 1:0.18811523 2:-2.5400625 
-0.01 1:0.18033008 2:-2.7246875 
-0.01 1:0.17987109 2:-2.704125 
-0.01 1:0.13869727 2:-2.8969375 
-0.01 1:0.27031445 2:-4.449 
-0.01 1:0.22599609 2:-5.2086875 
-0.01 1:0.16815039 2:-3.534125 
-0.01 1:0.19339453 2:-3.85825 
-0.01 1:0.22541211 2:-5.2675 
-0.01 1:0.20551172 2:-4.395125 
-0.01 1:0.17560742 2:-3.4273125 
-0.01 1:0.22531836 2:-4.4789375 
-0.01 1:0.17261719 2:-3.7925 
-0.01 1:0.29859766 2:-4.4423125 
-0.01 1:0.30044727 2:-5.491125 
-0.01 1:0.25801758 2:-4.927125 
-0.01 1:0.1095 2:-2.187375 
-0.01 1:0.37413281 2:-4.75325 
-0.01 1:0.18300781 2:-3.7339375 
-0.01 1:0.26474805 2:-5.0976875 
-0.01 1:0.36801953 2:-6.04 
-0.01 1:0.22574414 2:-3.9910625 
-0.01 1:0.19644141 2:-2.87675 
-0.01 1:0.23780469 2:-3.697 
-0.01 1:0.21116992 2:-3.813625 
-0.01 1:0.19385938 2:-3.8018125 
-0.01 1:0.16942969 2:-3.3154375 
-0.01 1:0.19669336 2:-2.1111875 
-0.01 1:0.17951758 2:-3.3945 
-0.01 1:0.14570898 2:-2.8419375 
-0.01 1:0.18873633 2:-3.803375 
-0.01 1:0.16580273 2:-3.4043125 
-0.01 1:0.16618555 2:-3.896125 
-0.01 1:0.18714648 2:-3.6420625 
-0.01 1:0.30857031 2:-6.0686875 
-0.01 1:0.35262109 2:-3.0621875 
-0.01 1:0.2990332 2:-2.155 
-0.01 1:0.21947852 2:-3.2145625 
-0.01 1:0.18412891 2:-3.661625 
-0.01 1:0.14607617 2:-3.1498125 
-0.01 1:0.259125 2:-3.7574375 
-0.01 1:0.14900391 2:-2.8193125 
-0.01 1:0.16991992 2:-2.7774375 
-0.01 1:0.17307031 2:-2.9628125 
-0.01 1:0.33515234 2:-4.7294375 
-0.01 1:0.12900781 2:-1.6446875 
-0.01 1:0.16150195 2:-3.2275625 
-0.01 1:0.16266602 2:-3.3941875 
-0.01 1:0.23999414 2:-4.667625 
-0.01 1:0.19480664 2:-3.9958125 
-0.01 1:0.14025977 2:-2.854375 
-0.01 1:0.17849023 2:-3.7330625 
-0.01 1:0.17280664 2:-3.4984375 
-0.01 1:0.18266797 2:-3.69325 
-0.01 1:0.26742578 2:-5.334625 
-0.01 1:0.15070703 2:-3.2255625 
-0.01 1:0.13358008 2:-2.647875 
-0.01 1:0.22313086 2:-4.4901875 
-0.01 1:0.14836328 2:-3.05775 
-0.01 1:0.14083984 2:-2.9261875 
-0.01 1:0.18877344 2:-3.624875 
-0.01 1:0.085773437 2:-1.749625 
-0.01 1:0.19626367 2:-2.565125 
-0.01 1:0.20026953 2:-3.1505 
-0.01 1:0.1352793 2:-2.868875 
-0.01 1:0.22264258 2:-4.520375 
-0.01 1:0.22276758 2:-4.9826875 
-0.01 1:0.2627793 2:-5.64825 
-0.01 1:0.19945117 2:-3.270625 
-0.01 1:0.15094531 2:-2.6941875 
-0.01 1:0.27686719 2:-4.9846875 
-0.01 1:0.13232227 2:-1.697 
-0.01 1:0.27602539 2:-4.73425 
-0.01 1:0.30164258 2:-5.5191875 
-0.01 1:0.2019043 2:-4.556625 
-0.01 1:0.19197266 2:-3.4304375 
-0.01 1:0.18352148 2:-2.7554375 
-0.01 1:0.16740625 2:-2.5234375 
-0.01 1:0.2949082 2:-5.2358125 
-0.01 1:0.18071289 2:-3.5975 
-0.01 1:0.25075391 2:-3.267625 
-0.01 1:0.12766797 2:-2.7193125 
-0.01 1:0.27480078 2:-3.3963125 
-0.01 1:0.16439453 2:-3.093875 
-0.01 1:0.3175 2:-5.6600625 
-0.01 1:0.23346289 2:-4.9045 
-0.01 1:0.27125781 2:-5.2478125 
-0.01 1:0.15566992 2:-2.544 
-0.01 1:0.17372461 2:-3.02175 
-0.01 1:0.10651563 2:-2.3258125 
-0.01 1:0.087923828 2:-1.8408125 
-0.01 1:0.25678906 2:-4.986875 
-0.01 1:0.24727539 2:-4.8033125 
-0.01 1:0.30724805 2:-5.9245625 
-0.01 1:0.14311133 2:-0.8130625 
-0.01 1:0.19722656 2:-4.386625 
-0.01 1:0.27801367 2:-5.795875 
-0.01 1:0.25861523 2:-4.216625 
-0.01 1:0.27027148 2:-4.435875 
-0.01 1:0.21971289 2:-3.4724375 
-0.01 1:0.24987695 2:-4.2678125 
-0.01 1:0.2629043 2:-3.59625 
-0.01 1:0.30438281 2:-3.43725 
-0.01 1:0.2158125 2:-3.4626875 
-0.01 1:0.14850586 2:-2.4153125 
-0.01 1:0.11264453 2:-1.797 
-0.01 1:0.22129492 2:-3.366625 
-0.01 1:0.21791797 2:-3.83625 
-0.01 1:0.25853711 2:-4.3913125 
-0.01 1:0.29499023 2:-2.921 
-0.01 1:0.1077793 2:-2.3355 
-0.01 1:0.097115234 2:-2.1411875 
-0.01 1:0.16381055 2:-3.1893125 
-0.01 1:0.16629297 2:-3.0365625 
-0.01 1:0.22960742 2:-4.8444375 
-0.01 1:0.20033008 2:-3.8315 
-0.01 1:0.11080273 2:-1.3539375 
-0.01 1:0.34873828 2:-5.89075 
-0.01 1:0.16670117 2:-3.921 
-0.01 1:0.28290039 2:-3.3270625 
-0.01 1:0.23804687 2:-3.332625 
-0.01 1:0.23100195 2:-2.6498125 
-0.01 1:0.2375957 2:-3.8353125 
-0.01 1:0.25237305 2:-4.612875 
-0.01 1:0.17263867 2:-3.1596875 
-0.01 1:0.10031641 2:-2.1820625 
-0.01 1:0.11855664 2:-2.1941875 
-0.01 1:0.1807832 2:-4.0069375 
-0.01 1:0.13761328 2:-3.332875 
-0.01 1:0.27041016 2:-4.537625 
-0.01 1:0.25979492 2:-4.2139375 
-0.01 1:0.18796484 2:-3.4426875 
-0.01 1:0.19033594 2:-3.621 
-0.01 1:0.20601758 2:-4.127125 
-0.01 1:0.17753906 2:-2.79 
-0.01 1:0.16408594 2:-2.3094375 
-0.01 1:0.084816406 2:-1.8560625 
-0.01 1:0.081591797 2:-1.7980625 
-0.01 1:0.16565625 2:-3.267125 
-0.01 1:0.26061914 2:-4.7349375 
-0.01 1:0.23006445 2:-4.1926875 
-0.01 1:0.31258203 2:-4.3628125 
-0.01 1:0.31218945 2:-4.7634375 
-0.01 1:0.21353125 2:-4.21425 
-0.01 1:0.20321094 2:-4.504 
-0.01 1:0.12641016 2:-2.8191875 
-0.01 1:0.20644336 2:-4.13675 
-0.01 1:0.23423633 2:-3.7383125 
-0.01 1:0.14344727 2:-3.080375 
-0.01 1:0.31641211 2:-5.467875 
-0.01 1:0.19942578 2:-3.9118125 
-0.01 1:0.24919336 2:-3.9710625 
-0.01 1:0.1737207 2:-2.6514375 
-0.01 1:0.1945957 2:-4.7073125 
-0.01 1:0.17439648 2:-2.9799375 
-0.01 1:0.20059961 2:-2.8238125 
-0.01 1:0.17087695 2:-3.3160625 
-0.01 1:0.20785547 2:-3.4725 
-0.01 1:0.12346875 2:-2.673375 
-0.01 1:0.1775332 2:-4.1705625 
-0.01 1:0.16515234 2:-3.647125 
-0.01 1:0.23612695 2:-3.9413125 
-0.01 1:0.23178906 2:-3.548875 
-0.01 1:0.24238281 2:-4.45375 
-0.01 1:0.18704102 2:-3.7403125 
-0.01 1:0.30057422 2:-5.98275 
-0.01 1:0.20570898 2:-3.3461875 
-0.01 1:0.18184961 2:-4.1116875 
-0.01 1:0.14276953 2:-3.45125 
-0.01 1:0.20420508 2:-4.030125 
-0.01 1:0.22185742 2:-4.004375 
-0.01 1:0.24718359 2:-3.56925 
-0.01 1:0.28479102 2:-5.300125 
-0.01 1:0.2156543 2:-4.505875 
-0.01 1:0.21286523 2:-2.987 
-0.01 1:0.34011523 2:-5.440375 
-0.01 1:0.35513477 2:-5.2988125 
-0.01 1:0.30508008 2:-5.212875 
-0.01 1:0.15406055 2:-2.5658125 
-0.01 1:0.23794336 2:-4.468375 
-0.01 1:0.17019531 2:-3.575625 
-0.01 1:0.19077344 2:-3.2408125 
-0.01 1:0.16990234 2:-3.0521875 
-0.01 1:0.24192773 2:-3.6948125 
-0.01 1:0.16608594 2:-3.4151875 
-0.01 1:0.23701172 2:-3.993 
-0.01 1:0.2071875 2:-4.224 
-0.01 1:0.29929883 2:-4.5318125 
-0.01 1:0.29557227 2:-4.465 
-0.01 1:0.23220703 2:-3.9996875 
-0.01 1:0.17206445 2:-3.643125 
-0.01 1:0.105875 2:-2.0600625 
-0.01 1:0.18728125 2:-3.3040625 
-0.01 1:0.23586719 2:-4.0855 
-0.01 1:0.14083398 2:-2.108625 
-0.01 1:0.37617578 2:-6.118875 
-0.01 1:0.16383984 2:-2.9104375 
-0.01 1:0.22544141 2:-4.4345625 
-0.01 1:0.1859668 2:-3.8364375 
-0.01 1:0.23831445 2:-5.6046875 
-0.01 1:0.12451758 2:-2.9953125 
-0.01 1:0.12781641 2:-3.3241875 
-0.01 1:0.21462891 2:-4.4306875 
-0.01 1:0.323375 2:-5.2134375 
-0.01 1:0.22048047 2:-4.1625 
-0.01 1:0.29099414 2:-4.63425 
-0.01 1:0.28833789 2:-5.0376875 
-0.01 1:0.20483008 2:-3.5805 
-0.01 1:0.20837891 2:-3.922875 
-0.01 1:0.20713672 2:-3.63925 
-0.01 1:0.17456055 2:-2.679625 
-0.01 1:0.23809375 2:-4.2235625 
-0.01 1:0.24439453 2:-4.17375 
-0.01 1:0.27764062 2:-4.09275 
-0.01 1:0.24061133 2:-4.476625 
-0.01 1:0.19609766 2:-1.8271875 
-0.01 1:0.23668555 2:-3.42625 
-0.01 1:0.27467578 2:-4.279375 
-0.01 1:0.13169336 2:-2.097 
-0.01 1:0.25162305 2:-3.468375 
-0.01 1:0.18350391 2:-3.443625 
-0.01 1:0.18082227 2:-3.4686875 
-0.01 1:0.27303906 2:-3.137875 
-0.01 1:0.18887695 2:-3.8695 
-0.01 1:0.29649805 2:-4.5945 
-0.01 1:0.21605664 2:-4.026625 
-0.01 1:0.28834766 2:-5.5510625 
-0.01 1:0.14804297 2:-2.4165625 
-0.01 1:0.10482422 2:-1.7215 
-0.01 1:0.12398047 2:-2.4904375 
-0.01 1:0.26880469 2:-4.7704375 
-0.01 1:0.23333008 2:-3.917375 
-0.01 1:0.17957813 2:-3.8024375 
-0.01 1:0.27879492 2:-3.8149375 
-0.01 1:0.30686914 2:-4.639625 
-0.01 1:0.19374805 2:-3.6446875 
-0.01 1:0.29771875 2:-4.9973125 
-0.01 1:0.14139258 2:-2.744625 
-0.01 1:0.22242773 2:-3.79525 
-0.01 1:0.2079375 2:-2.7189375 
-0.01 1:0.1618457 2:-3.0893125 
-0.01 1:0.37288086 2:-4.37825 
-0.01 1:0.15774414 2:-2.6858125 
-0.01 1:0.23880664 2:-3.9678125 
-0.01 1:0.19191992 2:-3.187125 
-0.01 1:0.17105469 2:-2.7609375 
-0.01 1:0.17101563 2:-2.8414375 
-0.01 1:0.27525195 2:-4.4076875 
-0.01 1:0.12617969 2:-2.7285 
-0.01 1:0.21073242 2:-3.7155625 
-0.01 1:0.10108594 2:-1.3268125 
-0.01 1:0.23339258 2:-3.9850625 
-0.01 1:0.19941016 2:-3.5315 
-0.01 1:0.16303711 2:-3.53225 
-0.01 1:0.19958594 2:-3.75225 
-0.01 1:0.29069922 2:-5.8220625 
-0.01 1:0.17688867 2:-3.8666875 
-0.01 1:0.22665625 2:-3.7025625 
-0.01 1:0.21434766 2:-3.661375 
-0.01 1:0.16145117 2:-2.4376875 
-0.01 1:0.33588672 2:-4.1898125 
-0.01 1:0.27160938 2:-4.8741875 
-0.01 1:0.1927832 2:-4.0649375 
-0.01 1:0.22728516 2:-4.5941875 
-0.01 1:0.11111719 2:-2.2655 
-0.01 1:0.25961523 2:-4.507 
-0.01 1:0.13402734 2:-3.0056875 
-0.01 1:0.14599023 2:-2.587 
-0.01 1:0.2994082 2:-5.6973125 
-0.01 1:0.20808789 2:-4.50125 
-0.01 1:0.35899219 2:-4.406625 
-0.01 1:0.15616992 2:-2.4105 
-0.01 1:0.083884766 2:-1.3044375 
-0.01 1:0.14630273 2:-2.197625 
-0.01 1:0.23984961 2:-2.801125 
