svm_type c_svc
kernel_type polynomial
degree 2
gamma 1
coef0 1
nr_class 2
total_sv 1989
rho -1.00389
label 1 0
nr_sv 1258 731
SV
0.003244972398225437 1:0.3410918 2:-4.5289375 
0.009834640874722488 1:0.44413086 2:-5.4968125 
0.01 1:0.28954102 2:-4.644125 
0.01 1:0.25326172 2:-5.5329375 
0.0008302746025726061 1:0.19740234 2:-4.139 
0.003037821031170387 1:0.21369531 2:-4.2045625 
0.005271214959890169 1:0.28341602 2:-4.0206875 
0.01 1:0.29260352 2:-4.7495 
0.01 1:0.35700391 2:-5.1086875 
0.007369973215085449 1:0.34156641 2:-4.8388125 
0.00916955033194217 1:0.28816211 2:-3.75325 
0.0004750595971528325 1:0.26988281 2:-3.781125 
0.003742932763600438 1:0.33792773 2:-3.1846875 
0.003225730415935029 1:0.41233789 2:-5.5705 
0.01 1:0.37638086 2:-6.194875 
0.01 1:0.30213477 2:-3.89275 
0.007008883802775191 1:0.25282812 2:-4.810375 
0.01 1:0.42260938 2:-4.761125 
0.01 1:0.24904883 2:-4.0290625 
0.01 1:0.31361914 2:-3.78425 
0.001993774681465039 1:0.33696094 2:-4.6469375 
6.602410103103943e-05 1:0.31595508 2:-5.7154375 
0.001938779857474715 1:0.39529102 2:-4.564375 
0.0004575866904446524 1:0.39480078 2:-5.1758125 
0.002657853303615524 1:0.39301562 2:-4.5141875 
0.001247736084689629 1:0.31182031 2:-5.115875 
6.393365915896703e-05 1:0.39408398 2:-5.8528125 
0.004012086168435257 1:0.21601367 2:-2.9423125 
0.01 1:0.33870313 2:-4.6759375 
0.01 1:0.36472656 2:-5.27075 
0.01 1:0.25219727 2:-3.65825 
0.01 1:0.32887109 2:-4.583875 
0.002372092213462386 1:0.31819336 2:-4.47875 
0.006287530186962308 1:0.28683789 2:-4.4883125 
0.002689523004451342 1:0.33725781 2:-3.869 
0.01 1:0.4166543 2:-6.32025 
0.01 1:0.21730273 2:-4.058625 
2.688659914198311e-05 1:0.30048633 2:-3.50575 
0.0007068458204511529 1:0.24953906 2:-2.5758125 
0.003906538733600365 1:0.19998828 2:-4.3165625 
0.001574253186626615 1:0.25545898 2:-3.367125 
0.009111870415991753 1:0.21030664 2:-3.8050625 
0.0004429650920611785 1:0.34923437 2:-6.008875 
0.01 1:0.37868359 2:-4.4215 
0.0001721645846795775 1:0.21387305 2:-4.0073125 
0.003881126783826485 1:0.22776367 2:-2.785125 
1.864527682038632e-05 1:0.29884375 2:-5.16125 
0.01 1:0.23999219 2:-3.8719375 
0.0004272334821100173 1:0.25895117 2:-4.7979375 
0.001414957095714261 1:0.27545117 2:-3.180875 
0.0005038619985573213 1:0.24038672 2:-3.35325 
0.002162862332114161 1:0.31657031 2:-3.592375 
0.01 1:0.23658008 2:-4.75075 
0.001848467157832723 1:0.26838477 2:-3.1514375 
2.086218838509664e-06 1:0.17126758 2:-2.6516875 
0.008802172599146374 1:0.26805664 2:-5.3481875 
0.002396280489497731 1:0.26169922 2:-2.8788125 
0.01 1:0.35275195 2:-5.096875 
0.001708766652237162 1:0.20573242 2:-2.702 
0.01 1:0.26702148 2:-5.8805 
0.0001183771281581608 1:0.4447832 2:-5.192375 
0.01 1:0.28956836 2:-6.3693125 
0.01 1:0.30739453 2:-6.3014375 
0.01 1:0.2695293 2:-5.3064375 
0.00845510667928151 1:0.24242383 2:-3.8374375 
0.0004650847150050015 1:0.25563281 2:-5.0321875 
1.215729846479408e-05 1:0.26678516 2:-2.513375 
0.005478597316684841 1:0.28545508 2:-4.1744375 
0.001009894000712367 1:0.35733008 2:-5.43475 
0.002168393282238225 1:0.25408203 2:-4.2065 
0.01 1:0.23699023 2:-4.6709375 
0.0002340699030732449 1:0.31241797 2:-5.316625 
0.001972293457550001 1:0.21047461 2:-3.4828125 
0.002589250459844413 1:0.27054883 2:-3.8561875 
0.0003044015732096928 1:0.17742578 2:-3.540875 
0.007185214481690606 1:0.25773828 2:-3.7175625 
0.0001734492693710264 1:0.17953516 2:-3.5239375 
0.01 1:0.22054102 2:-4.6275625 
0.006396786869512185 1:0.21878516 2:-3.5774375 
0.000303301000694981 1:0.31200586 2:-4.8094375 
0.01 1:0.27999219 2:-5.3160625 
0.003748713227540113 1:0.20078516 2:-3.2855 
0.01 1:0.3094082 2:-3.7965 
0.001081720290502816 1:0.25383398 2:-5.38075 
0.006581289809391967 1:0.2238125 2:-3.79475 
0.01 1:0.16731445 2:-3.6010625 
3.620460327541517e-05 1:0.26242773 2:-3.55675 
0.000950990506992026 1:0.26129492 2:-2.958625 
0.00333248752711859 1:0.22720898 2:-3.548 
9.83443004134261e-05 1:0.27436719 2:-2.3890625 
0.01 1:0.20499219 2:-4.49775 
0.001223655911863746 1:0.28984375 2:-4.7261875 
0.003557764620340005 1:0.23852734 2:-3.167 
0.006678803283351256 1:0.28319336 2:-3.9333125 
0.01 1:0.25331055 2:-5.259125 
0.001164784278784568 1:0.20799219 2:-4.0975625 
0.002001633231051594 1:0.20280859 2:-4.48875 
0.01 1:0.39870508 2:-6.2614375 
0.01 1:0.32891211 2:-3.746125 
0.0001344732927064057 1:0.33263477 2:-5.3505 
0.0006542453080997613 1:0.2579707 2:-2.818 
0.001031913964327794 1:0.33907031 2:-5.9951875 
0.007257975860664261 1:0.35479102 2:-5.16575 
2.527022940394323e-05 1:0.21820898 2:-2.6646875 
0.001269915540506064 1:0.26153125 2:-3.40475 
0.001052129760258997 1:0.19692188 2:-3.39575 
0.0005268264290236828 1:0.31208594 2:-5.566 
0.01 1:0.25940625 2:-5.0618125 
0.01 1:0.25101953 2:-5.5248125 
0.004739474696426124 1:0.22314258 2:-3.736875 
0.01 1:0.3090957 2:-3.85075 
0.01 1:0.308875 2:-5.303375 
0.0003528625450824091 1:0.1849043 2:-3.6331875 
0.0005363542132046238 1:0.35932617 2:-6.08425 
0.002815579349190378 1:0.21788672 2:-4.6306875 
0.01 1:0.33897266 2:-5.44625 
0.01 1:0.21762695 2:-3.75125 
0.003814354660247703 1:0.33381445 2:-2.8750625 
0.001541425490152952 1:0.30499609 2:-2.81075 
0.002265031573255762 1:0.35586719 2:-4.579125 
0.007966926938490366 1:0.18683984 2:-4.0678125 
0.00244078493486512 1:0.28313086 2:-3.6645625 
1.832447503384386e-05 1:0.22491602 2:-2.3835 
0.01 1:0.27696094 2:-3.481375 
0.01 1:0.25381836 2:-5.42575 
0.001505597127235776 1:0.29147852 2:-2.597125 
0.0002618097078995594 1:0.32707617 2:-5.3795 
0.00768276697908678 1:0.40452344 2:-5.27575 
0.006529673002853667 1:0.31 2:-3.2896875 
0.001202186698217685 1:0.31063477 2:-3.77025 
0.00628159319435604 1:0.41410156 2:-6.125625 
0.009922590842619905 1:0.42115039 2:-5.187125 
0.001915219095728704 1:0.4319082 2:-4.9931875 
0.002481515280201756 1:0.3230332 2:-5.3358125 
0.01 1:0.30964844 2:-4.2974375 
0.00266268330074073 1:0.29560352 2:-3.0410625 
0.006387402315418635 1:0.31397852 2:-5.3356875 
0.001471681707719119 1:0.27342773 2:-2.5523125 
0.0006382469984672255 1:0.22780859 2:-3.81325 
0.01 1:0.19793945 2:-4.1524375 
0.002123859754438239 1:0.25568945 2:-2.894875 
0.01 1:0.22748242 2:-4.72475 
0.01 1:0.35771094 2:-4.2160625 
0.01 1:0.24570312 2:-4.9655625 
0.001117906929375911 1:0.33024219 2:-3.121625 
0.003775990547691703 1:0.3985957 2:-4.82175 
0.00310666180001086 1:0.27236914 2:-3.7054375 
0.01 1:0.33359375 2:-4.6084375 
0.01 1:0.2777832 2:-4.788875 
0.01 1:0.39511133 2:-5.375 
0.002714122031826935 1:0.25823242 2:-4.5935 
0.01 1:0.3622207 2:-4.4836875 
0.01 1:0.31777148 2:-5.3259375 
0.008777941899956402 1:0.45618164 2:-6.5829375 
0.01 1:0.21339063 2:-4.5384375 
0.01 1:0.18858594 2:-4.2381875 
0.001200660782464653 1:0.18441602 2:-3.94975 
0.0002426217873646452 1:0.19592383 2:-3.6909375 
0.01 1:0.28154297 2:-5.29975 
0.01 1:0.28090234 2:-3.5523125 
0.01 1:0.35028711 2:-6.351625 
0.01 1:0.30873633 2:-5.4584375 
9.039603945308984e-05 1:0.24236328 2:-2.9716875 
0.004952592396703156 1:0.28832227 2:-3.2866875 
0.0008562670394641327 1:0.13840234 2:-2.729 
0.006742511564086564 1:0.23810742 2:-3.604625 
0.0003881831577471452 1:0.31507617 2:-5.15525 
0.01 1:0.29622656 2:-4.78775 
0.0006994557976574443 1:0.28788477 2:-4.9349375 
0.00976518624744656 1:0.21511719 2:-2.72775 
0.001012036457137327 1:0.1829375 2:-3.3390625 
0.01 1:0.2777793 2:-5.2920625 
0.01 1:0.35138672 2:-6.545875 
0.006119331954617684 1:0.44136914 2:-5.2418125 
0.002795119548277547 1:0.41430469 2:-6.158625 
0.01 1:0.19699805 2:-4.1509375 
0.002562143538560024 1:0.27231445 2:-5.374625 
0.01 1:0.22445117 2:-4.268625 
0.004293520490712722 1:0.19914648 2:-3.0976875 
0.01 1:0.2316875 2:-4.8935 
8.481314485259334e-06 1:0.21748633 2:-2.4785 
0.001327033690577582 1:0.34100781 2:-3.860125 
0.0005538091909894489 1:0.2256875 2:-3.2185625 
0.004087345945823444 1:0.23392188 2:-4.871875 
0.001631476079827946 1:0.22442969 2:-3.56525 
0.008843315749459754 1:0.12512305 2:-2.84225 
0.01 1:0.27114648 2:-4.04875 
0.01 1:0.21854297 2:-4.6409375 
0.01 1:0.40318555 2:-5.302875 
0.000849897677290497 1:0.29157422 2:-3.5221875 
0.01 1:0.37276172 2:-6.2431875 
0.01 1:0.21350781 2:-4.545 
0.001493435023853782 1:0.25605273 2:-4.287875 
0.0009416202468797694 1:0.36882813 2:-4.353 
0.008845294781228115 1:0.24733789 2:-3.4609375 
0.002000899092412404 1:0.23467969 2:-3.3324375 
0.01 1:0.26083398 2:-3.8071875 
0.01 1:0.40899219 2:-5.5123125 
0.01 1:0.35889258 2:-6.5419375 
0.009691311843490452 1:0.19202344 2:-4.285125 
0.00275179947436573 1:0.15200391 2:-2.9595625 
0.01 1:0.43245703 2:-6.32425 
0.001455365573312657 1:0.20708398 2:-4.1880625 
0.001095731701611208 1:0.33651953 2:-5.174875 
0.01 1:0.24186328 2:-3.3234375 
0.01 1:0.1174043 2:-2.6358125 
0.0004584598820109196 1:0.18999414 2:-3.513125 
0.008705581628100399 1:0.21409375 2:-4.2804375 
0.01 1:0.22221484 2:-4.77875 
0.001055725707195024 1:0.26959375 2:-4.9015 
0.001224388757716889 1:0.18996484 2:-3.868 
0.001429414823901884 1:0.25876172 2:-4.130375 
0.0001700737212655462 1:0.20847656 2:-4.722875 
0.01 1:0.23942969 2:-5.0089375 
0.0002862449137889754 1:0.26076367 2:-5.2565625 
0.01 1:0.29941016 2:-4.748375 
0.009118873120663612 1:0.35983789 2:-4.137 
0.0004692385941367585 1:0.31458398 2:-6.05 
0.002947719212282039 1:0.18253516 2:-3.388375 
0.001153278134962566 1:0.30566992 2:-4.4906875 
0.01 1:0.3564082 2:-4.6351875 
0.009079927463209623 1:0.15466797 2:-3.45675 
0.001091294398137724 1:0.29650781 2:-3.8868125 
0.01 1:0.31982812 2:-5.0585 
0.01 1:0.35349219 2:-6.191 
0.01 1:0.37527344 2:-4.52 
0.0003510704894154159 1:0.31701953 2:-3.7220625 
0.0005119704835101706 1:0.19992188 2:-2.851375 
0.01 1:0.23818945 2:-4.0943125 
7.659365032400823e-05 1:0.30717578 2:-3.554125 
0.002685700561736705 1:0.32233594 2:-3.5528125 
0.01 1:0.23883203 2:-4.6520625 
0.0002905281465905773 1:0.17077148 2:-3.607875 
0.008652200058196341 1:0.2487207 2:-5.019875 
0.004365379691076201 1:0.25544727 2:-3.8409375 
0.00404602257868268 1:0.23692383 2:-5.2616875 
0.01 1:0.41492578 2:-5.714125 
0.009840376988047773 1:0.20992187 2:-4.632125 
0.01 1:0.18902344 2:-4.05675 
0.0006909481221576047 1:0.30117969 2:-5.2889375 
0.002040198470234829 1:0.2899082 2:-4.8065 
0.0005223602647388292 1:0.37899609 2:-5.7434375 
0.01 1:0.41662305 2:-5.1686875 
0.001393872290614531 1:0.36931641 2:-4.372125 
0.0005077461197898501 1:0.20934961 2:-3.377625 
0.01 1:0.31426953 2:-4.364125 
0.004690264813456042 1:0.2040625 2:-3.052875 
0.002839432647297615 1:0.30863867 2:-3.7415625 
0.005774241155350048 1:0.21526367 2:-4.8820625 
0.0007752036729122015 1:0.24987891 2:-4.8996875 
0.001411829690245277 1:0.30611523 2:-2.9101875 
0.0003378648485010076 1:0.18490625 2:-4.305 
2.134096770018894e-05 1:0.22350586 2:-3.3078125 
0.001462331803663538 1:0.30395312 2:-2.4815625 
0.001514070809575709 1:0.26745508 2:-3.3273125 
0.01 1:0.11567383 2:-2.49925 
0.01 1:0.1967793 2:-4.2446875 
0.008808896441210422 1:0.24992773 2:-4.3128125 
0.001056592184358499 1:0.32063867 2:-2.9024375 
3.71344648425983e-05 1:0.25153906 2:-3.174125 
0.01 1:0.2692793 2:-4.3863125 
0.01 1:0.25520117 2:-4.0563125 
0.01 1:0.26061719 2:-5.466125 
0.0001149153183429158 1:0.32571484 2:-2.687 
0.003733626974847176 1:0.31239258 2:-3.335375 
0.006906590101644874 1:0.14883398 2:-2.7278125 
0.007336899489817236 1:0.1969668 2:-4.3445625 
0.01 1:0.40561133 2:-5.3205 
0.01 1:0.28219141 2:-5.6 
0.01 1:0.35357227 2:-5.38325 
0.001452859693039356 1:0.30118164 2:-2.975875 
0.0002202993642929097 1:0.16033594 2:-3.4038125 
0.00063496356899361 1:0.2024707 2:-3.138375 
0.01 1:0.25238086 2:-5.8245 
0.008881280168900519 1:0.23483594 2:-5.0375 
0.0001366526271489206 1:0.20562109 2:-4.42025 
0.0001246296684924833 1:0.39354883 2:-5.9889375 
0.01 1:0.29614063 2:-3.1636875 
0.001008912444473604 1:0.27866992 2:-3.1021875 
0.01 1:0.2107832 2:-4.512875 
0.0004195751996822636 1:0.2208125 2:-2.5071875 
0.01 1:0.19635547 2:-4.2664375 
0.009571535325117333 1:0.42217578 2:-5.0205625 
0.01 1:0.34758984 2:-4.6420625 
0.0007406432777039355 1:0.24689063 2:-3.7405625 
0.01 1:0.32481836 2:-6.3535 
0.002293655931090316 1:0.24904688 2:-4.5860625 
0.01 1:0.32765234 2:-4.0785625 
0.0006259716581112678 1:0.35916992 2:-5.396 
0.005691161455977557 1:0.41588477 2:-5.7424375 
0.01 1:0.28972266 2:-3.752625 
0.01 1:0.2536543 2:-5.4265 
0.01 1:0.31465625 2:-3.7899375 
0.01 1:0.27801758 2:-3.6923125 
0.003677541775530738 1:0.2920332 2:-4.6695 
0.0002016625243373671 1:0.20287305 2:-3.1580625 
2.838697753299532e-05 1:0.28486719 2:-3.718875 
0.003640243658450852 1:0.22986133 2:-2.7025625 
0.01 1:0.31603125 2:-3.776875 
0.009587296597270277 1:0.22896484 2:-3.422125 
0.0006655781402314134 1:0.20202539 2:-3.603875 
0.01 1:0.2369043 2:-4.1780625 
0.01 1:0.37572656 2:-4.8021875 
0.0003772152178297487 1:0.23030078 2:-4.562125 
0.0005247971084714081 1:0.26592187 2:-4.030375 
0.0004268411950097345 1:0.26274414 2:-5.226375 
0.001198739684430111 1:0.33235938 2:-5.230375 
0.002443276021104744 1:0.34958789 2:-6.155125 
0.002722185679826762 1:0.26678906 2:-3.29475 
0.01 1:0.27255078 2:-4.94375 
0.007511920204076072 1:0.15868945 2:-3.581875 
0.01 1:0.25418359 2:-5.4633125 
0.01 1:0.30008594 2:-3.7301875 
0.01 1:0.11673633 2:-2.6884375 
0.01 1:0.31766992 2:-6.3675 
0.01 1:0.30758008 2:-4.352375 
0.003645325846559484 1:0.22498242 2:-4.971 
0.0005837635154335224 1:0.14767578 2:-2.7695625 
3.172144858096957e-05 1:0.32047656 2:-5.663 
0.0003417439521335466 1:0.22263086 2:-4.191625 
0.004890768600435241 1:0.29137109 2:-5.3916875 
0.01 1:0.38566406 2:-5.403625 
0.0004743128217449601 1:0.24298438 2:-3.9543125 
0.01 1:0.21582617 2:-4.73525 
0.01 1:0.29443555 2:-4.777625 
0.0005699873558660626 1:0.15181445 2:-2.9251875 
0.001782874381343492 1:0.18080469 2:-3.690125 
0.00524787112800886 1:0.25866406 2:-5.145625 
0.001151924374134624 1:0.38022852 2:-5.2323125 
0.01 1:0.26593359 2:-3.9913125 
0.0002926644954338208 1:0.31988281 2:-3.0180625 
0.009623964437682597 1:0.46235742 2:-5.634125 
0.01 1:0.38319141 2:-5.44775 
0.01 1:0.3807207 2:-4.4460625 
0.01 1:0.13710156 2:-2.3773125 
0.001234373488347315 1:0.32294922 2:-4.96825 
0.004728530712738507 1:0.19035547 2:-3.197625 
0.002403103422368625 1:0.31435742 2:-5.30375 
0.001626779453756068 1:0.37462109 2:-4.6270625 
0.01 1:0.33461719 2:-6.2285 
0.003125562939120572 1:0.3180957 2:-4.3368125 
0.01 1:0.2882832 2:-4.770875 
0.000523076782496656 1:0.18180469 2:-3.0364375 
0.009828420081835055 1:0.42445703 2:-4.7930625 
0.003621349123505955 1:0.31867773 2:-5.0266875 
2.634435666975089e-05 1:0.38185937 2:-5.7153125 
0.001055117302558623 1:0.18390234 2:-3.9641875 
0.0001257109146329285 1:0.31331836 2:-5.234625 
0.01 1:0.27118945 2:-5.1365625 
0.0002580176026396745 1:0.30476953 2:-5.2653125 
0.002580655706529177 1:0.12164258 2:-2.7250625 
0.00064862604107018 1:0.32344922 2:-5.2779375 
0.01 1:0.27122852 2:-3.7273125 
0.01 1:0.21932617 2:-4.9929375 
0.0008602307191950293 1:0.19612891 2:-4.27875 
0.01 1:0.30842383 2:-5.3401875 
0.01 1:0.24145703 2:-5.20275 
0.01 1:0.30098828 2:-6.4419375 
0.01 1:0.22320313 2:-2.806375 
0.01 1:0.36860742 2:-5.2060625 
0.0005602072984750104 1:0.31378711 2:-4.869 
0.01 1:0.2720625 2:-5.821875 
6.234494164833468e-05 1:0.23871094 2:-3.58175 
0.0003564966718182359 1:0.37411719 2:-4.8251875 
0.01 1:0.26652148 2:-4.352875 
0.00947082112581606 1:0.32399805 2:-3.6455625 
0.001349934495329686 1:0.17764258 2:-3.615625 
0.01 1:0.25649609 2:-4.84025 
0.01 1:0.18991211 2:-4.3025 
0.009837919091087726 1:0.16984375 2:-3.620125 
0.01 1:0.20867383 2:-3.7443125 
0.01 1:0.11468945 2:-2.700125 
2.768944820615284e-05 1:0.40891211 2:-5.9803125 
0.01 1:0.28354492 2:-5.3231875 
0.01 1:0.31990625 2:-4.2178125 
0.002136034923103726 1:0.19199219 2:-3.532125 
0.01 1:0.19237891 2:-4.173875 
0.0003534386435935476 1:0.33127734 2:-3.2449375 
0.01 1:0.29367383 2:-5.8570625 
0.0009070714825766203 1:0.29558984 2:-2.858 
0.01 1:0.1796543 2:-4.172875 
0.0002819978089800927 1:0.2641543 2:-3.894125 
0.01 1:0.34370508 2:-6.6133125 
0.01 1:0.22076758 2:-3.50925 
0.00101145554932726 1:0.18545703 2:-3.2850625 
0.001017878468453219 1:0.28352734 2:-3.212875 
3.839804064005661e-05 1:0.30418555 2:-2.98925 
0.0004709508357585264 1:0.17923633 2:-3.3268125 
0.000580277426080873 1:0.27653711 2:-3.3175625 
0.006261798666113348 1:0.27126758 2:-4.673875 
0.0003121271778391472 1:0.26604883 2:-5.25375 
8.685984359488621e-05 1:0.29217773 2:-3.0855625 
0.0038657041853058 1:0.18101367 2:-3.8128125 
0.01 1:0.29156445 2:-5.253375 
0.01 1:0.39798438 2:-6.242 
0.001228198184450746 1:0.2566875 2:-3.594875 
0.0003195100039209109 1:0.16263672 2:-3.347625 
0.01 1:0.11232422 2:-2.5880625 
0.01 1:0.2493457 2:-4.6851875 
0.001602100438491324 1:0.22959961 2:-2.5274375 
3.072404108897534e-05 1:0.24679883 2:-3.1264375 
0.01 1:0.32786133 2:-4.434 
0.006255628060112484 1:0.31150781 2:-4.6233125 
0.004640984197685253 1:0.38049805 2:-4.2808125 
0.008823582349293447 1:0.17934961 2:-4.0168125 
0.00100338029967488 1:0.10554297 2:-2.39975 
0.0002569153661494881 1:0.19249609 2:-3.75625 
0.01 1:0.20332227 2:-4.2685625 
0.01 1:0.26706836 2:-5.5515625 
0.01 1:0.21953711 2:-4.6820625 
0.01 1:0.40013867 2:-4.9890625 
0.006477114364674292 1:0.24657422 2:-5.283375 
0.007770059620613306 1:0.26252344 2:-3.743625 
0.01 1:0.42236328 2:-6.1394375 
0.01 1:0.37757422 2:-4.804125 
0.01 1:0.26073437 2:-4.258 
0.005819527855876772 1:0.20479297 2:-4.5269375 
0.0002298057519329811 1:0.31609375 2:-4.556375 
0.0008328189464721275 1:0.1538125 2:-2.801 
0.004655814709978219 1:0.29176172 2:-4.8688125 
0.001860047880865677 1:0.3836875 2:-4.3201875 
0.000875981500712191 1:0.17598047 2:-3.4860625 
0.01 1:0.33366406 2:-5.530375 
0.001870195163888389 1:0.31636133 2:-2.7805 
0.01 1:0.30620117 2:-4.9893125 
0.0058451223580442 1:0.2800332 2:-3.6730625 
0.0070446619254075 1:0.24281641 2:-5.575625 
0.01 1:0.33454297 2:-4.7880625 
0.0002297892119403117 1:0.38089258 2:-4.9790625 
0.002286706674871756 1:0.21361133 2:-3.8678125 
0.01 1:0.21028906 2:-4.5154375 
0.01 1:0.3780293 2:-5.445875 
0.0003599563932974065 1:0.30508789 2:-5.8201875 
0.01 1:0.31277148 2:-4.653625 
0.01 1:0.31042773 2:-4.4314375 
0.0009323557838312309 1:0.35018164 2:-5.125875 
0.01 1:0.2117207 2:-4.1814375 
0.01 1:0.41067188 2:-4.9038125 
3.440472862404225e-05 1:0.3770293 2:-6.11475 
0.009741477209050237 1:0.1425293 2:-2.8435 
0.01 1:0.13337695 2:-2.63725 
0.0006947777393813774 1:0.15659961 2:-3.070875 
0.009814166553848015 1:0.18933789 2:-4.245625 
0.01 1:0.20493945 2:-4.4815625 
0.01 1:0.28427539 2:-6.015875 
0.0001490380281253983 1:0.27028711 2:-2.9045 
0.006219692434198378 1:0.36425586 2:-4.5600625 
0.007056840904571334 1:0.2082207 2:-4.359125 
0.0002978138651965917 1:0.31678516 2:-5.1941875 
0.01 1:0.32064062 2:-4.5230625 
0.0005210358152773581 1:0.27479297 2:-3.251625 
0.0004188951510384091 1:0.32768164 2:-3.8809375 
0.01 1:0.20391602 2:-4.0611875 
0.0005800895896210861 1:0.16025195 2:-3.435125 
0.01 1:0.42924219 2:-6.279125 
0.01 1:0.32485938 2:-5.72375 
0.01 1:0.29679883 2:-4.7449375 
0.0001307931796723368 1:0.38264844 2:-5.1065 
0.0007128883672950755 1:0.31408984 2:-5.2239375 
0.01 1:0.13055664 2:-2.9695625 
0.0006528268276920811 1:0.1299375 2:-2.358625 
0.002431053483489013 1:0.34810156 2:-5.0919375 
0.01 1:0.24269336 2:-4.49325 
0.01 1:0.39140039 2:-5.2985625 
0.002389497580332354 1:0.34706836 2:-4.571625 
0.002234280429619918 1:0.32758203 2:-4.008125 
0.00324514007986153 1:0.42402148 2:-4.7025625 
0.01 1:0.25982422 2:-4.185375 
0.001684482004066122 1:0.27592773 2:-3.5386875 
0.01 1:0.13798438 2:-3.302 
0.01 1:0.26537109 2:-3.0890625 
0.002783437721662741 1:0.3324668 2:-3.562 
0.01 1:0.1310332 2:-3.0138125 
0.01 1:0.25016406 2:-5.0289375 
0.002263383695776246 1:0.17253516 2:-3.41425 
0.003047253061799631 1:0.30179687 2:-4.583125 
0.004182548320642532 1:0.32547656 2:-3.5169375 
0.01 1:0.15878516 2:-3.40725 
0.01 1:0.29676953 2:-4.008375 
0.001079557587785438 1:0.23849023 2:-4.3308125 
0.001733270439780076 1:0.24010938 2:-4.32075 
0.01 1:0.14660547 2:-3.27375 
0.01 1:0.38570117 2:-6.1624375 
0.01 1:0.2179043 2:-4.7313125 
0.0002850077012653135 1:0.19526562 2:-3.679375 
0.009122345615765526 1:0.14648633 2:-3.2020625 
0.007296360293141191 1:0.35900977 2:-5.2805 
0.006666337608432337 1:0.27503906 2:-3.7306875 
0.0008556072663236666 1:0.36764648 2:-5.1503125 
0.009923216992643548 1:0.46247266 2:-6.5006875 
0.001794730287965503 1:0.17887109 2:-3.7491875 
0.008155573441286422 1:0.31097266 2:-5.580875 
0.01 1:0.28662109 2:-4.48925 
0.002513751961085673 1:0.34935352 2:-5.6198125 
0.003644180585976893 1:0.20293359 2:-3.7611875 
0.01 1:0.25415039 2:-4.566625 
0.006973301483802005 1:0.18521094 2:-4.1219375 
0.009190769954832537 1:0.24000977 2:-3.822125 
0.008949953644332848 1:0.18203125 2:-3.7155625 
0.0007682442999400361 1:0.33318164 2:-5.25925 
0.0003232776585896774 1:0.24745703 2:-4.2286875 
0.001150029333281937 1:0.24683398 2:-3.15875 
0.001421704776888509 1:0.25394141 2:-4.367 
0.01 1:0.22788867 2:-3.7604375 
0.00107126345185021 1:0.21207031 2:-3.7689375 
0.003092644965847215 1:0.20957227 2:-4.60125 
0.005035721293976229 1:0.20241016 2:-4.5631875 
0.01 1:0.24993945 2:-5.5373125 
0.0007684441477240358 1:0.24440234 2:-2.9349375 
0.0001395924761048639 1:0.29781641 2:-4.276625 
1.667477129286644e-05 1:0.36661328 2:-6.022 
0.00510477981359063 1:0.29732031 2:-4.5391875 
0.01 1:0.26445508 2:-4.4808125 
0.0002401975889121104 1:0.28153906 2:-5.5325 
0.01 1:0.28383789 2:-4.5254375 
0.01 1:0.27689648 2:-4.442125 
0.0004422618277006991 1:0.29697656 2:-3.7760625 
0.000211976496346827 1:0.36959961 2:-5.9623125 
0.0002770541165182067 1:0.2390332 2:-4.7351875 
0.01 1:0.2874082 2:-4.2813125 
0.01 1:0.34438281 2:-4.893 
0.01 1:0.32726172 2:-4.3330625 
0.01 1:0.32344922 2:-4.7141875 
0.0005288021975353918 1:0.26612891 2:-5.0080625 
0.003753630381303737 1:0.19649219 2:-3.337625 
0.0006503365182944278 1:0.13750977 2:-3.2733125 
0.0002033441903267383 1:0.21245312 2:-2.58725 
0.003152771312968901 1:0.29786133 2:-5.276125 
0.0007608584414727606 1:0.34066992 2:-5.281875 
0.0001763130012962726 1:0.22749609 2:-2.9654375 
0.01 1:0.34091016 2:-6.29425 
0.01 1:0.4509043 2:-6.5925625 
0.002964011532734299 1:0.28838281 2:-3.5944375 
0.01 1:0.38269531 2:-4.839625 
0.01 1:0.33039063 2:-4.84375 
0.006748663394435667 1:0.2568418 2:-4.657 
0.007902513942511243 1:0.1232832 2:-2.5836875 
0.001527638533159187 1:0.17984766 2:-3.559 
0.01 1:0.23810352 2:-4.97125 
0.001103955724730887 1:0.27083008 2:-5.292 
0.01 1:0.41826953 2:-5.916375 
0.001378081832703647 1:0.33544727 2:-5.1939375 
0.004612563287256477 1:0.31787891 2:-2.8479375 
0.01 1:0.22231836 2:-4.296375 
0.01 1:0.24168555 2:-5.2645625 
0.001093630183123885 1:0.53747656 2:-5.9125 
0.005112179038999075 1:0.24554492 2:-4.076375 
0.01 1:0.35889453 2:-4.4951875 
0.01 1:0.23286914 2:-5.2669375 
0.002753626407521402 1:0.36937305 2:-4.2165 
0.01 1:0.30651367 2:-4.6270625 
0.006485181504084805 1:0.27312891 2:-4.0998125 
0.003205266586848852 1:0.37286523 2:-4.83775 
0.0009580524910621339 1:0.15975391 2:-3.0234375 
0.01 1:0.23656641 2:-5.13225 
0.0001263045804713872 1:0.26051563 2:-3.0916875 
0.0002006398505033847 1:0.34912305 2:-3.1158125 
0.01 1:0.24624609 2:-5.011375 
0.006458180419982112 1:0.12365625 2:-2.7953125 
0.01 1:0.27323437 2:-4.4154375 
0.01 1:0.21630078 2:-3.68425 
0.01 1:0.32371875 2:-4.4525 
0.01 1:0.21940625 2:-4.2265625 
0.01 1:0.25458203 2:-3.885375 
0.0003202934087105679 1:0.16032422 2:-3.1524375 
0.005443724625272835 1:0.15376367 2:-2.8881875 
0.0003527495373742873 1:0.25799414 2:-3.7411875 
0.00923387483565347 1:0.21282422 2:-4.698 
0.01 1:0.2372207 2:-4.8894375 
0.006348083964484745 1:0.30839453 2:-3.525375 
0.001038466097716873 1:0.2247832 2:-3.946875 
0.0003768602261670997 1:0.20357617 2:-2.9443125 
0.0004722944015379131 1:0.25332031 2:-3.16875 
0.00169895707929398 1:0.20067773 2:-3.568125 
0.008320984295964257 1:0.32909766 2:-4.8469375 
0.01 1:0.32768359 2:-4.3649375 
0.01 1:0.21848242 2:-4.455375 
0.01 1:0.16926953 2:-3.60625 
0.0001675968006838247 1:0.22861523 2:-3.7775 
0.01 1:0.31093164 2:-4.075 
0.0009695953210967174 1:0.13674414 2:-2.6331875 
0.009023957060068439 1:0.23544531 2:-5.3535 
0.01 1:0.23659766 2:-4.324125 
0.01 1:0.18235938 2:-3.0129375 
0.001119081971365055 1:0.28030664 2:-4.3249375 
0.002679949620354225 1:0.21383594 2:-4.016125 
0.01 1:0.23461328 2:-5.1766875 
0.01 1:0.35353711 2:-6.4664375 
0.01 1:0.249375 2:-5.0311875 
0.01 1:0.2622793 2:-3.6535625 
0.0001669686632121835 1:0.24138477 2:-4.280625 
0.01 1:0.18686914 2:-3.620375 
0.01 1:0.26659766 2:-4.8791875 
0.004273211518767339 1:0.3510918 2:-5.0261875 
0.01 1:0.19796289 2:-3.3866875 
1.903986473158178e-05 1:0.22554688 2:-3.4891875 
0.01 1:0.33039648 2:-5.4395 
0.0003052206169212777 1:0.17283398 2:-3.513 
0.002492822780471336 1:0.20204688 2:-3.360375 
0.0001588616034222352 1:0.32543164 2:-5.8575625 
0.0007666372996000758 1:0.30475 2:-3.782375 
0.01 1:0.29289258 2:-3.71 
0.01 1:0.2334707 2:-4.02025 
0.01 1:0.25084766 2:-3.399625 
0.01 1:0.27606055 2:-4.38525 
0.01 1:0.21464258 2:-4.6244375 
0.01 1:0.24214063 2:-4.5038125 
0.01 1:0.43591602 2:-5.860375 
0.004513571195428841 1:0.35918359 2:-5.1936875 
0.01 1:0.37999023 2:-5.022125 
0.01 1:0.34343359 2:-4.500875 
0.0005210172102846145 1:0.22680273 2:-4.3693125 
0.01 1:0.23888281 2:-5.203 
0.01 1:0.11834375 2:-2.6625 
0.01 1:0.22809766 2:-2.4148125 
0.01 1:0.45997461 2:-6.2921875 
0.007747472750791904 1:0.129375 2:-2.6505625 
0.0005127052370620301 1:0.29291016 2:-3.6591875 
0.00466990718050722 1:0.40568359 2:-4.743125 
0.01 1:0.28276953 2:-4.7361875 
0.01 1:0.29339648 2:-3.8018125 
0.01 1:0.32123828 2:-5.983375 
0.0002184565274954739 1:0.20005273 2:-3.7125625 
0.0003394873937923992 1:0.26610937 2:-4.7318125 
0.01 1:0.23483008 2:-3.5435 
0.01 1:0.11894727 2:-2.755 
0.009674249010112703 1:0.11764648 2:-2.7798125 
0.01 1:0.22804492 2:-3.699125 
0.0002561580175844093 1:0.33430664 2:-3.9859375 
0.0001119816846339542 1:0.26100195 2:-3.587125 
0.001233559881463108 1:0.22642578 2:-3.8066875 
0.0002014783851823858 1:0.20888086 2:-3.189875 
0.0019395254070793 1:0.20431445 2:-3.215375 
0.01 1:0.273875 2:-5.762125 
0.002193973437853635 1:0.35210742 2:-4.3413125 
0.001448292600209205 1:0.26938086 2:-3.7621875 
0.01 1:0.27418945 2:-5.417375 
0.005919518611643133 1:0.31341016 2:-3.07175 
0.01 1:0.15662109 2:-3.363625 
0.01 1:0.28550391 2:-5.3475 
0.0004542321049524332 1:0.18749609 2:-3.3806875 
0.01 1:0.27007617 2:-3.8908125 
0.01 1:0.28564844 2:-5.3563125 
0.01 1:0.37045117 2:-4.9888125 
0.002261511179350225 1:0.18362305 2:-3.7599375 
0.0007249453570849411 1:0.15580078 2:-2.8648125 
0.001188677918806608 1:0.26342773 2:-5.2706875 
0.0001070078618445253 1:0.25330078 2:-2.620125 
0.000277004370896802 1:0.13378516 2:-3.048875 
0.0001932117949820362 1:0.33393945 2:-5.0185 
0.01 1:0.10449414 2:-2.4495 
0.01 1:0.17631641 2:-3.155625 
2.51161146065938e-05 1:0.23705078 2:-3.43175 
0.01 1:0.24403516 2:-3.33375 
0.004649985536780458 1:0.19147852 2:-2.9933125 
0.004657189000657312 1:0.32245703 2:-3.907375 
0.003689874543864331 1:0.30638672 2:-3.60425 
0.0001551775675749973 1:0.31149023 2:-4.888 
0.008285610443456317 1:0.26500391 2:-5.61825 
0.01 1:0.29332227 2:-5.5399375 
0.004758063495148451 1:0.27932617 2:-4.1611875 
0.001784296947353037 1:0.12801367 2:-2.7581875 
0.01 1:0.26442188 2:-5.5128125 
0.0009194402683762545 1:0.18700195 2:-3.6405 
0.0005822114171896943 1:0.2469043 2:-4.0656875 
0.01 1:0.2462207 2:-5.1228125 
0.002857184945683198 1:0.22376562 2:-3.1526875 
0.003054299271056959 1:0.22346289 2:-3.69775 
0.007420640959759804 1:0.12804883 2:-2.8983125 
0.0006150901531620271 1:0.18944141 2:-3.60075 
0.01 1:0.33949219 2:-4.249625 
0.0001956383507739489 1:0.23691406 2:-3.568375 
0.00741224551854601 1:0.31226367 2:-3.6335625 
0.01 1:0.35580078 2:-6.299125 
0.01 1:0.34071094 2:-6.2910625 
0.007095397183496416 1:0.15605664 2:-3.3848125 
0.0007570659338415379 1:0.3218125 2:-4.0596875 
0.007396621710609116 1:0.34258594 2:-4.0031875 
0.01 1:0.44792773 2:-5.903 
0.0002154119953218184 1:0.25020898 2:-5.5086875 
0.01 1:0.20486328 2:-4.3973125 
0.002910193500087556 1:0.25425781 2:-3.375125 
4.703914007362276e-05 1:0.30444727 2:-5.1534375 
0.01 1:0.37479883 2:-5.386375 
0.008799503148468118 1:0.39944727 2:-5.0774375 
0.000277517043613311 1:0.268375 2:-5.1638125 
0.0002317262139824278 1:0.19877344 2:-3.577625 
0.004919603985898051 1:0.23632617 2:-4.5579375 
0.01 1:0.35527734 2:-2.8031875 
0.009908203145080098 1:0.51403125 2:-6.2425 
0.00136955740770033 1:0.27617578 2:-2.6374375 
0.01 1:0.14875 2:-3.2656875 
0.01 1:0.12463281 2:-2.6011875 
0.005696562824322416 1:0.2189375 2:-4.7980625 
0.006475135374800775 1:0.14513867 2:-3.324375 
0.01 1:0.13299805 2:-2.9773125 
0.01 1:0.14148828 2:-3.1513125 
0.0002935512190249584 1:0.20524805 2:-3.2940625 
0.01 1:0.26100781 2:-4.4465625 
0.0009973173299512479 1:0.1769707 2:-3.981125 
0.01 1:0.22323828 2:-4.847625 
0.01 1:0.36413867 2:-6.3994375 
0.01 1:0.41241016 2:-5.256375 
0.0004331695468133076 1:0.32287109 2:-2.40375 
0.01 1:0.24639063 2:-4.836125 
0.0006291940751336384 1:0.28037109 2:-3.8800625 
0.007184826863043776 1:0.10407031 2:-2.424125 
0.01 1:0.14301563 2:-3.3251875 
0.01 1:0.37326563 2:-4.7308125 
0.00372422923259281 1:0.2355625 2:-5.174625 
0.01 1:0.25172266 2:-5.077125 
0.005193132705124937 1:0.26679102 2:-4.0938125 
0.002817271164321134 1:0.15973242 2:-3.5840625 
0.002634024812423202 1:0.28167578 2:-3.8419375 
0.008104776992719822 1:0.39617188 2:-4.6318125 
0.001726921433390052 1:0.27303906 2:-3.471875 
0.0004004083556007576 1:0.26198242 2:-4.4570625 
0.0007117249104295014 1:0.27155469 2:-3.040875 
0.001913540824576274 1:0.18387891 2:-3.7400625 
0.01 1:0.35895312 2:-5.38 
0.002020745632083196 1:0.30421484 2:-4.210125 
0.01 1:0.37807812 2:-5.0475 
0.01 1:0.29329687 2:-4.0680625 
0.00209820078974601 1:0.25073828 2:-3.981875 
0.001635308917712837 1:0.19116797 2:-3.537 
0.01 1:0.15425 2:-3.3069375 
0.01 1:0.37899609 2:-6.203375 
1.485034082061835e-05 1:0.43064648 2:-5.9849375 
0.0007324353600755011 1:0.26006055 2:-4.025625 
0.003922296048470272 1:0.26134961 2:-5.7624375 
0.01 1:0.33210742 2:-3.9484375 
0.002654640071698005 1:0.21588086 2:-4.6470625 
0.009619603652471446 1:0.34614648 2:-2.4749375 
0.002775198702331089 1:0.18858008 2:-3.26925 
6.767281692113185e-05 1:0.29062305 2:-5.0640625 
0.01 1:0.3282168 2:-6.19075 
0.01 1:0.39866602 2:-5.4680625 
0.01 1:0.26534961 2:-4.584875 
0.01 1:0.24965039 2:-3.8403125 
0.004087284362246963 1:0.2504668 2:-3.255625 
0.006927637903988143 1:0.21326367 2:-4.75775 
0.01 1:0.26407422 2:-4.263 
0.01 1:0.23644727 2:-3.2451875 
0.01 1:0.32963867 2:-4.34625 
0.005351976858750128 1:0.22646094 2:-4.0330625 
0.002700050148827935 1:0.29203516 2:-4.9071875 
0.01 1:0.25509375 2:-4.5146875 
0.01 1:0.22640625 2:-4.277375 
0.007917757366806862 1:0.45663086 2:-6.1100625 
0.001076139736688741 1:0.2292832 2:-3.793375 
0.01 1:0.24031641 2:-4.144875 
0.01 1:0.2839375 2:-3.751 
0.004923748573765479 1:0.29016016 2:-4.3633125 
0.005550659511220715 1:0.23755859 2:-3.473125 
0.01 1:0.34943555 2:-4.5045 
0.01 1:0.24220117 2:-5.2620625 
0.01 1:0.24301953 2:-5.067625 
0.01 1:0.25045312 2:-5.030375 
0.01 1:0.35855859 2:-5.03625 
0.005967632163648729 1:0.38863281 2:-5.3104375 
0.003979172262215469 1:0.24222656 2:-5.4225625 
0.01 1:0.13869727 2:-2.8969375 
0.001305185907457914 1:0.24638867 2:-2.7195625 
0.01 1:0.27758789 2:-5.3843125 
0.002541809823632086 1:0.30742383 2:-3.268875 
0.0002226038670895255 1:0.28044922 2:-4.8344375 
0.01 1:0.31078125 2:-6.1899375 
1.765148037572634e-05 1:0.23514258 2:-3.5215 
0.0009865963218217543 1:0.27904687 2:-4.1286875 
0.002574056720327584 1:0.22908008 2:-3.718375 
0.01 1:0.26394336 2:-5.5184375 
0.003438502183144095 1:0.32322656 2:-3.5009375 
0.01 1:0.25221875 2:-5.3188125 
0.00646431778249569 1:0.22599609 2:-5.2086875 
0.01 1:0.31682031 2:-3.3043125 
0.01 1:0.24296484 2:-4.9265625 
0.007289797936234559 1:0.096158203 2:-2.4403125 
0.00813944627476362 1:0.22541211 2:-5.2675 
0.002397946816490583 1:0.31826172 2:-5.8076875 
0.01 1:0.20551172 2:-4.395125 
0.002298367955098881 1:0.17340039 2:-2.8970625 
0.0007311379954722685 1:0.22170898 2:-2.994125 
0.01 1:0.25135156 2:-5.2499375 
0.001787758619225363 1:0.2585625 2:-5.0456875 
0.0006646148880649431 1:0.20775781 2:-3.3715 
0.006154374875309647 1:0.32995703 2:-5.0885625 
0.006834790832490918 1:0.29859766 2:-4.4423125 
0.002103103288464658 1:0.3418125 2:-4.4185625 
0.01 1:0.37594727 2:-4.9313125 
0.01 1:0.26025391 2:-4.943875 
0.01 1:0.37413281 2:-4.75325 
0.0002496127679636264 1:0.28764844 2:-2.8450625 
0.01 1:0.18769531 2:-4.1099375 
0.0005178723080703825 1:0.26124219 2:-4.48975 
0.006966326860719264 1:0.2531543 2:-3.0548125 
0.0003205379737759693 1:0.35150195 2:-5.98175 
3.254949986444057e-05 1:0.36801953 2:-6.04 
0.00172367347374836 1:0.21948047 2:-3.96125 
0.01 1:0.21728125 2:-3.6040625 
0.01 1:0.26517773 2:-5.7705 
0.0042301429576669 1:0.23208594 2:-4.444875 
0.002695901195745547 1:0.28085547 2:-3.77075 
0.01 1:0.19710742 2:-4.32825 
0.01 1:0.38377344 2:-6.2124375 
0.0009093564301584865 1:0.21083008 2:-3.9205 
0.01 1:0.11510742 2:-2.670625 
0.01 1:0.14829883 2:-3.12725 
0.0009017839942287128 1:0.20247656 2:-3.79575 
0.00822836272636201 1:0.156 2:-3.389625 
0.01 1:0.44400781 2:-5.9770625 
0.003072445017881341 1:0.26255859 2:-3.6566875 
0.003002708568332773 1:0.39941406 2:-5.231875 
0.009946926077495531 1:0.42876367 2:-5.30325 
6.469530225602338e-05 1:0.33180469 2:-5.012375 
0.01 1:0.31420117 2:-4.928125 
0.01 1:0.27499609 2:-5.066875 
0.008674299869068754 1:0.19295312 2:-3.474625 
0.01 1:0.25664063 2:-5.19725 
0.005128584989131692 1:0.28025586 2:-5.4515 
0.0002239277186290119 1:0.17387305 2:-3.586375 
0.001568545852865804 1:0.26146289 2:-3.535125 
0.004359167859114221 1:0.21947852 2:-3.2145625 
0.004627548577530693 1:0.27118945 2:-3.6079375 
0.01 1:0.23002734 2:-4.8020625 
0.01 1:0.32921094 2:-5.0735625 
0.002063480018040672 1:0.20898242 2:-4.439375 
0.0009400502408939155 1:0.18412891 2:-3.661625 
0.007715901810938064 1:0.14607617 2:-3.1498125 
0.001291338023394229 1:0.27688086 2:-3.00525 
0.01 1:0.24838867 2:-5.320625 
0.002246267429271817 1:0.25696484 2:-2.8865625 
0.0004573647019544196 1:0.22000586 2:-2.8480625 
0.000192941712932603 1:0.28778516 2:-4.2623125 
0.01 1:0.28263867 2:-4.5860625 
0.01 1:0.40020312 2:-5.3531875 
0.009622932334683768 1:0.33515234 2:-4.7294375 
0.001234097637086918 1:0.23976953 2:-3.0374375 
0.0004688057337646369 1:0.29423437 2:-5.510375 
0.01 1:0.43492188 2:-5.8491875 
0.005485250306314864 1:0.17849023 2:-3.7330625 
0.01 1:0.22142969 2:-3.6686875 
0.000188733337202373 1:0.2359043 2:-3.896125 
0.01 1:0.28213672 2:-5.9331875 
0.0003351550598453571 1:0.17280664 2:-3.4984375 
0.01 1:0.26322461 2:-5.4883125 
0.003447644929974944 1:0.18266797 2:-3.69325 
0.01 1:0.35208008 2:-4.6825 
0.00844021132789009 1:0.26742578 2:-5.334625 
0.01 1:0.15070703 2:-3.2255625 
0.00843047393059302 1:0.15353906 2:-3.362 
0.00778125414443196 1:0.32939453 2:-4.4934375 
0.0004230225913806251 1:0.14836328 2:-3.05775 
0.0004454096544081566 1:0.14083984 2:-2.9261875 
0.007095804413059406 1:0.29189063 2:-3.62475 
0.0008724999919308084 1:0.26226563 2:-4.5395 
0.01 1:0.19635742 2:-4.18325 
0.001023167906721992 1:0.17468945 2:-3.070375 
0.01 1:0.15937305 2:-3.3386875 
0.007930365505968869 1:0.12753711 2:-2.747625 
0.01 1:0.39202148 2:-4.8614375 
0.01 1:0.39500586 2:-4.4770625 
0.003912046783962564 1:0.1371543 2:-3.1536875 
0.01 1:0.3160957 2:-4.733375 
0.0006593668919727019 1:0.24029297 2:-3.9731875 
0.01 1:0.27334961 2:-5.794 
0.01 1:0.22604883 2:-4.733125 
0.01 1:0.15794727 2:-3.4435 
0.0005234218861092858 1:0.26061328 2:-5.075375 
0.005135648031099653 1:0.32199414 2:-3.3899375 
0.01 1:0.22276758 2:-4.9826875 
0.01 1:0.2627793 2:-5.64825 
0.003905077764724956 1:0.3845 2:-6.7055 
0.01 1:0.22876367 2:-4.0488125 
0.01 1:0.29471289 2:-3.5785625 
0.01 1:0.34606445 2:-6.244125 
0.0004302624899880969 1:0.27218164 2:-4.5251875 
0.0007687286232149101 1:0.37111523 2:-5.247875 
0.008611698915132649 1:0.10349609 2:-2.527125 
0.01 1:0.27532422 2:-4.362 
0.007861122651911941 1:0.33609961 2:-3.7926875 
0.0006037517311857123 1:0.21640234 2:-3.2531875 
0.01 1:0.34149805 2:-4.603125 
0.01 1:0.27701758 2:-4.0153125 
0.01 1:0.2019043 2:-4.556625 
0.01 1:0.45644531 2:-5.909 
0.0005897412998531099 1:0.28070703 2:-3.386625 
0.005039503817800495 1:0.2469707 2:-3.532625 
0.01 1:0.44727148 2:-5.6630625 
0.006402267386828652 1:0.19197266 2:-3.4304375 
0.01 1:0.24900586 2:-5.3428125 
0.01 1:0.32193359 2:-4.249 
0.01 1:0.36598828 2:-5.2701875 
0.00786408594744189 1:0.2949082 2:-5.2358125 
0.01 1:0.44730469 2:-5.969375 
0.01 1:0.30044727 2:-3.9584375 
1.538012323280838e-05 1:0.26847266 2:-2.5329375 
0.01 1:0.40866992 2:-6.1975625 
0.0003257509898872971 1:0.23867578 2:-2.756 
0.01 1:0.25119922 2:-4.5901875 
0.01 1:0.39750977 2:-6.3005625 
0.01 1:0.29013086 2:-5.3005625 
0.009556963305221402 1:0.14205078 2:-3.3005 
0.006416264558912316 1:0.10792188 2:-2.571 
0.005514896188330669 1:0.10254883 2:-2.6481875 
0.001701869743853521 1:0.37596094 2:-4.226625 
0.004362650514032372 1:0.22188477 2:-3.3343125 
0.01 1:0.35803711 2:-4.82725 
0.0006712770935633852 1:0.16439453 2:-3.093875 
0.01 1:0.23346289 2:-4.9045 
0.0005154696748654863 1:0.19924219 2:-3.78625 
0.002880706579968801 1:0.19591406 2:-3.7290625 
0.0005951277402520931 1:0.18010938 2:-3.24625 
0.0004271700343306028 1:0.19158008 2:-3.4986875 
0.001133362609786798 1:0.18298047 2:-3.544875 
0.0002428823095267778 1:0.24120508 2:-4.85975 
0.01 1:0.30007813 2:-4.4925625 
0.0003500165337826839 1:0.28121875 2:-5.2725 
0.0005655289009252335 1:0.14239648 2:-2.7166875 
0.01 1:0.20489258 2:-4.5708125 
0.0008275306325581489 1:0.19722656 2:-4.386625 
0.005982803800582328 1:0.27801367 2:-5.795875 
0.003049648487674407 1:0.24784766 2:-3.7591875 
0.01 1:0.29777344 2:-3.685375 
0.001203494414416851 1:0.39331055 2:-4.977875 
0.002146988289001927 1:0.37664063 2:-5.6056875 
0.0002537895377788561 1:0.24987695 2:-4.2678125 
0.01 1:0.32683789 2:-6.4313125 
0.002016821763000999 1:0.21767773 2:-3.0365625 
0.01 1:0.25697852 2:-3.605125 
0.01 1:0.20969922 2:-4.5064375 
0.01 1:0.25415625 2:-5.34975 
0.007145316621420807 1:0.26219922 2:-5.5840625 
0.01 1:0.3091875 2:-5.107 
0.0004498309646992836 1:0.22129492 2:-3.366625 
9.250982063764954e-05 1:0.38613477 2:-4.4948125 
0.00340391208247783 1:0.32717578 2:-3.737625 
0.01 1:0.42033008 2:-5.502875 
0.01 1:0.28774805 2:-4.69975 
0.01 1:0.29613086 2:-3.8143125 
0.001372886936700698 1:0.32254492 2:-3.2290625 
0.01 1:0.29278125 2:-3.8043125 
0.001827238543373773 1:0.33518359 2:-4.321625 
0.001554229416402304 1:0.29499023 2:-2.921 
0.01 1:0.29483008 2:-4.1045625 
0.0008660103416668081 1:0.16629297 2:-3.0365625 
0.01 1:0.22960742 2:-4.8444375 
0.005507443918216216 1:0.45176563 2:-4.928 
0.002694538432812876 1:0.16031445 2:-3.2430625 
0.002725236162371076 1:0.28290039 2:-3.3270625 
0.01 1:0.12178906 2:-2.817 
0.01 1:0.2375957 2:-3.8353125 
0.009156876048216614 1:0.1807832 2:-4.0069375 
0.001154401261843552 1:0.21741602 2:-3.2058125 
0.01 1:0.3034707 2:-4.362875 
0.001817961625508722 1:0.34039258 2:-4.108125 
0.002586839620928482 1:0.20601758 2:-4.127125 
0.01 1:0.35224805 2:-6.4756875 
0.002129365880084652 1:0.36310352 2:-2.8215625 
0.01 1:0.27748437 2:-4.232625 
0.0002431517043323025 1:0.19722461 2:-3.7011875 
0.0003296473903675538 1:0.30195117 2:-4.4536875 
0.008684104940174726 1:0.32065234 2:-3.4786875 
0.001872644438840736 1:0.36498437 2:-5.0790625 
1.914533717056228e-05 1:0.32814648 2:-4.10025 
0.005911994016883367 1:0.46754492 2:-5.648125 
0.01 1:0.40231445 2:-5.663875 
0.004424467240449202 1:0.31074805 2:-4.0411875 
0.01 1:0.43192969 2:-5.2444375 
0.001853742108104547 1:0.13778906 2:-3.1403125 
3.49325073557581e-05 1:0.39713867 2:-5.9639375 
0.009188040933430505 1:0.19082227 2:-4.2091875 
0.01 1:0.12641016 2:-2.8191875 
0.01 1:0.22978125 2:-3.6273125 
0.01 1:0.23423633 2:-3.7383125 
0.0008341973879680534 1:0.29637891 2:-4.25375 
0.001381993746703837 1:0.34613867 2:-4.878 
9.325526549891822e-05 1:0.14344727 2:-3.080375 
3.30750724785851e-05 1:0.30482617 2:-3.0379375 
0.0003568551493500972 1:0.31641211 2:-5.467875 
0.01 1:0.26362891 2:-5.6733125 
0.01 1:0.27022461 2:-3.434875 
0.00946487329645021 1:0.39456641 2:-5.40375 
0.0003306999366128079 1:0.17208594 2:-3.5984375 
0.01 1:0.24919336 2:-3.9710625 
0.001036669711191635 1:0.26944727 2:-3.966375 
0.007868372327341938 1:0.31878516 2:-2.9740625 
0.0006329601913920528 1:0.23275195 2:-4.741375 
0.01 1:0.38733984 2:-6.4479375 
0.01 1:0.26600391 2:-5.95225 
0.00292799063127218 1:0.1741582 2:-3.27975 
0.009430114699177415 1:0.12846289 2:-2.95275 
0.01 1:0.20650391 2:-3.9256875 
0.008982121531546781 1:0.1423125 2:-3.2208125 
0.01 1:0.11874023 2:-2.7379375 
0.01 1:0.12012305 2:-2.803 
0.005954587112069748 1:0.37748242 2:-5.4595 
0.001575214673117961 1:0.39850391 2:-5.1421875 
0.01 1:0.40545312 2:-6.2274375 
0.01 1:0.39028711 2:-4.6720625 
0.0009998102064952444 1:0.32581836 2:-5.1521875 
0.01 1:0.20403516 2:-4.382375 
0.01 1:0.32716211 2:-4.7526875 
0.01 1:0.29498828 2:-3.6255 
0.01 1:0.28974219 2:-4.1793125 
0.002110795315261136 1:0.20059961 2:-2.8238125 
0.009000301250903791 1:0.45595703 2:-5.719625 
0.0009717621906576812 1:0.330375 2:-4.9874375 
0.01 1:0.42158008 2:-4.9910625 
0.01 1:0.2140918 2:-4.74425 
0.01 1:0.23917187 2:-5.222875 
0.001535353592490902 1:0.19100977 2:-3.729375 
0.007004278663123612 1:0.21905469 2:-3.8708125 
0.003344928926294148 1:0.1775332 2:-4.1705625 
0.01 1:0.41617578 2:-5.48325 
0.01 1:0.30858789 2:-4.687 
0.01 1:0.26789844 2:-4.5989375 
0.001737395141910645 1:0.34806445 2:-5.270625 
0.01 1:0.23817383 2:-3.561625 
0.01 1:0.34435742 2:-4.3355625 
0.0004715884134911077 1:0.2174043 2:-3.4804375 
0.01 1:0.26128711 2:-4.145875 
0.01 1:0.30795703 2:-6.1831875 
0.01 1:0.27466602 2:-6.4654375 
5.287423479766588e-05 1:0.32593555 2:-5.2068125 
0.01 1:0.42124023 2:-5.3928125 
0.009905727158641582 1:0.22719727 2:-4.9126875 
0.002003507660041271 1:0.28123828 2:-2.438375 
0.009590411129798374 1:0.18184961 2:-4.1116875 
0.001340585930011804 1:0.22897461 2:-3.203625 
0.01 1:0.35628711 2:-6.539625 
0.01 1:0.24758594 2:-5.0631875 
7.027198135398961e-05 1:0.34576953 2:-4.79525 
0.005811869793172854 1:0.34544336 2:-5.7846875 
0.002467085560282601 1:0.34107617 2:-5.24025 
2.011528803942558e-05 1:0.273625 2:-3.2185 
0.003859084547912046 1:0.2029707 2:-4.5528125 
0.0005561216083871949 1:0.16221484 2:-3.8394375 
0.001284750433322866 1:0.16737891 2:-4.012875 
0.01 1:0.22532617 2:-3.8934375 
0.01 1:0.39371289 2:-5.3565 
0.0008534700693912198 1:0.4003418 2:-4.8186875 
0.01 1:0.35513477 2:-5.2988125 
0.01 1:0.27208203 2:-3.9379375 
0.01 1:0.41813477 2:-4.671875 
0.002153531505303503 1:0.27323828 2:-3.409 
0.001411568256279728 1:0.25547266 2:-3.1161875 
0.000493144626119429 1:0.18985547 2:-2.84425 
0.005518190727106848 1:0.3116875 2:-3.424125 
0.003396572617272707 1:0.31269922 2:-4.47825 
0.008060099200399398 1:0.2912832 2:-3.3300625 
0.0003290263512372749 1:0.23841602 2:-4.7885625 
0.01 1:0.16672461 2:-3.398875 
0.006347201009552299 1:0.29275781 2:-4.2250625 
0.01 1:0.35748437 2:-4.221125 
0.01 1:0.39505078 2:-4.75675 
0.01 1:0.28565039 2:-3.8091875 
0.0006785632333411458 1:0.21031641 2:-3.1408125 
0.000718664217549775 1:0.27574414 2:-3.3558125 
0.0008613225507067573 1:0.15406055 2:-2.5658125 
0.01 1:0.30757422 2:-4.07725 
0.0004564268396929315 1:0.24851563 2:-4.2783125 
0.00629444021620881 1:0.23122266 2:-3.48075 
0.009322552702821877 1:0.27910352 2:-3.861875 
0.01 1:0.13779102 2:-2.9471875 
0.01 1:0.28336523 2:-4.2206875 
0.01 1:0.31816797 2:-3.9778125 
0.01 1:0.29929883 2:-4.5318125 
0.01 1:0.29557227 2:-4.465 
0.008479175871535984 1:0.36631055 2:-4.4484375 
0.002004033390911427 1:0.21966992 2:-3.706125 
0.01 1:0.24937305 2:-5.06975 
0.001679190998823309 1:0.21107031 2:-2.5110625 
0.01 1:0.3006875 2:-3.8331875 
0.003691877975608073 1:0.23905859 2:-4.34175 
0.0005066687024396592 1:0.31645703 2:-4.6393125 
0.009517039636149239 1:0.21133984 2:-4.653 
0.0007196092432364253 1:0.25103711 2:-5.075625 
0.001085993436630101 1:0.26028125 2:-5.3745 
0.01 1:0.36097461 2:-6.4238125 
0.001361993343768923 1:0.3050957 2:-3.9534375 
0.01 1:0.32730664 2:-4.8165625 
0.01 1:0.24078906 2:-3.714875 
0.005285262447985985 1:0.32823438 2:-4.709125 
0.006837102140386467 1:0.32877344 2:-5.270875 
0.005245571747767332 1:0.36097656 2:-4.47375 
0.0002416515439429801 1:0.31054492 2:-4.243875 
0.0008930649260939929 1:0.27562305 2:-3.7109375 
0.0003816235596518915 1:0.27436328 2:-4.999875 
0.00555036207868229 1:0.26903906 2:-3.6906875 
0.01 1:0.25060937 2:-5.4385 
0.01 1:0.21148828 2:-4.67825 
0.009804162660393875 1:0.2517832 2:-5.5881875 
0.009207088383124342 1:0.25700195 2:-5.4485 
0.01 1:0.31710937 2:-4.3620625 
0.004356004238345586 1:0.338875 2:-3.906625 
0.004067751359724628 1:0.28018164 2:-5.1475625 
3.681828376821322e-05 1:0.36618555 2:-6.76 
0.005378307412566785 1:0.28180273 2:-5.125 
0.01 1:0.41792383 2:-5.6728125 
0.01 1:0.28910742 2:-3.9309375 
0.01 1:0.23580859 2:-4.9935 
0.006450553329605377 1:0.28633789 2:-6.1458125 
0.004088026939630781 1:0.22732031 2:-4.0624375 
0.007150869664557778 1:0.23831445 2:-5.6046875 
0.003079761470122041 1:0.31997461 2:-4.7644375 
0.0007546768352826136 1:0.15392383 2:-3.092 
0.005623767186121687 1:0.099566406 2:-2.39075 
0.0052159604436409 1:0.12914453 2:-2.9133125 
0.0002107049514110535 1:0.19 2:-2.9119375 
0.01 1:0.11428711 2:-2.539875 
0.01 1:0.41570703 2:-5.70025 
0.0005687942741519792 1:0.1760957 2:-3.3080625 
0.003178085505622407 1:0.29727539 2:-3.397 
0.004065032578873194 1:0.22874609 2:-4.1489375 
0.009868894530194785 1:0.26445117 2:-6.1681875 
0.01 1:0.26888086 2:-3.809625 
0.01 1:0.28005078 2:-4.63375 
0.000433720824522431 1:0.1914668 2:-3.376375 
0.004495392507906079 1:0.12451758 2:-2.9953125 
0.01 1:0.1853418 2:-4.0305625 
0.01 1:0.32984766 2:-4.237625 
3.134508910669163e-05 1:0.35183594 2:-4.9570625 
0.01 1:0.26300977 2:-3.754 
0.01 1:0.25852734 2:-4.3065 
0.01 1:0.2424082 2:-4.52975 
0.001502048219507667 1:0.34605078 2:-4.539 
0.01 1:0.28729883 2:-5.168375 
0.002903672803229325 1:0.21462891 2:-4.4306875 
0.01 1:0.29725 2:-3.954375 
0.003003642680801596 1:0.18900781 2:-3.5194375 
0.0009497630412743423 1:0.323375 2:-5.2134375 
0.004485894238004668 1:0.23587695 2:-3.104625 
0.0002716138946301794 1:0.20524414 2:-2.742625 
0.01 1:0.34828516 2:-4.4009375 
0.01 1:0.24691016 2:-5.0823125 
0.006828737291909358 1:0.25215234 2:-4.9543125 
0.004964195443875148 1:0.23498242 2:-3.247 
0.01 1:0.34442578 2:-4.14075 
0.01 1:0.21408984 2:-4.0924375 
0.0005684745685276721 1:0.40263672 2:-5.2531875 
0.001929602127154079 1:0.26674219 2:-3.784625 
0.001613584822300221 1:0.33398242 2:-4.921625 
0.01 1:0.33244727 2:-5.4505 
0.01 1:0.24421875 2:-5.166 
0.01 1:0.22920898 2:-4.2850625 
0.01 1:0.26645117 2:-3.9381875 
0.001258396612114685 1:0.28439453 2:-2.960375 
0.000722093295159973 1:0.21825195 2:-3.4581875 
0.0006987251151263154 1:0.27570117 2:-2.78825 
0.003170809446791968 1:0.30881055 2:-3.461625 
0.008374981481295811 1:0.41218555 2:-5.1688125 
0.01 1:0.23809375 2:-4.2235625 
0.01 1:0.36270117 2:-5.643375 
0.01 1:0.41494922 2:-6.254125 
0.0003915053456887327 1:0.26446094 2:-4.773 
0.01 1:0.26779102 2:-3.713875 
0.01 1:0.38399023 2:-4.735 
0.003207742962443921 1:0.25939062 2:-4.4408125 
0.001431875500700593 1:0.14199219 2:-2.8046875 
5.31101280694534e-05 1:0.28924414 2:-6.0709375 
0.003979243189001547 1:0.29636133 2:-3.4575 
0.01 1:0.328875 2:-6.424 
0.01 1:0.24952539 2:-3.982125 
0.008045914088225872 1:0.27551563 2:-4.810875 
4.674798330077449e-05 1:0.31682227 2:-3.2665 
0.004395126266300728 1:0.22511328 2:-3.103875 
0.006150226895933526 1:0.17662891 2:-4.19575 
0.007636440026190299 1:0.2345 2:-5.0680625 
0.01 1:0.14820898 2:-3.221625 
0.01 1:0.40796094 2:-6.3503125 
0.01 1:0.35895703 2:-6.632125 
0.0001078280796650293 1:0.24530078 2:-2.4893125 
0.001737263403299435 1:0.33358203 2:-3.0415 
0.01 1:0.31470898 2:-5.022375 
0.01 1:0.41917187 2:-5.483375 
0.008982667923244357 1:0.33156641 2:-3.792 
0.001695296045162901 1:0.23399219 2:-2.62225 
3.451109518394724e-05 1:0.18386523 2:-2.3635 
0.01 1:0.22955859 2:-3.2878125 
0.001011205102402485 1:0.27406641 2:-5.22475 
0.002231377583976613 1:0.27773047 2:-3.5765625 
0.001709026202518509 1:0.31573633 2:-3.224125 
0.01 1:0.23213672 2:-4.9410625 
0.01 1:0.30987109 2:-4.26675 
0.01 1:0.42212695 2:-5.196375 
0.01 1:0.17957813 2:-3.8024375 
0.01 1:0.20745508 2:-3.2791875 
0.01 1:0.26777344 2:-3.47225 
0.01 1:0.39512695 2:-4.9090625 
0.01 1:0.27879492 2:-3.8149375 
0.01 1:0.35916016 2:-4.7018125 
0.01 1:0.2569082 2:-4.4128125 
0.01 1:0.36837695 2:-6.2575 
0.01 1:0.20958594 2:-4.371625 
0.01 1:0.32889453 2:-3.90775 
0.0001848625944662271 1:0.28948047 2:-5.2085 
0.00700948378540791 1:0.16957227 2:-3.7373125 
0.0007200386867251449 1:0.36358984 2:-4.906375 
0.009562118358280547 1:0.35732227 2:-6.6468125 
0.002452968049739242 1:0.33188672 2:-4.5985 
0.001479102041280538 1:0.22953516 2:-4.7948125 
0.01 1:0.24111133 2:-4.3975625 
0.002718062753537244 1:0.20012695 2:-3.5238125 
0.004475794121256285 1:0.20828906 2:-3.446375 
0.000487027574314408 1:0.13609375 2:-2.8210625 
3.239904072994225e-05 1:0.25251367 2:-3.199625 
0.01 1:0.23511719 2:-4.8870625 
0.001524777068544399 1:0.29561328 2:-3.4695625 
0.0004973981432850579 1:0.2864082 2:-5.2571875 
0.009797330796979167 1:0.26810547 2:-6.101125 
0.0004644457405409783 1:0.33385547 2:-3.1575 
0.004591018576219709 1:0.36582813 2:-4.68175 
0.01 1:0.27525195 2:-4.4076875 
0.01 1:0.28458594 2:-6.0638125 
0.009828602409250608 1:0.23927539 2:-3.3649375 
5.302787480628928e-05 1:0.2566543 2:-2.5156875 
0.0001723044950619165 1:0.26591016 2:-3.618625 
6.68881602595475e-05 1:0.34071484 2:-2.841 
0.008810996555405962 1:0.32321094 2:-4.373875 
0.01 1:0.28653711 2:-3.8649375 
0.01 1:0.23612109 2:-4.8973125 
0.01 1:0.43819336 2:-6.483 
0.01 1:0.32016211 2:-4.0165625 
0.01 1:0.30686133 2:-6.5006875 
0.0002398485125710949 1:0.19958594 2:-3.75225 
0.003845461146847237 1:0.17387305 2:-3.2475 
0.01 1:0.394125 2:-5.0828125 
0.0009966736188079894 1:0.17688867 2:-3.8666875 
0.01 1:0.4194082 2:-4.9998125 
0.004328148049426595 1:0.21434766 2:-3.661375 
0.0006872448224299318 1:0.27724023 2:-3.912125 
0.003350683275210427 1:0.34041602 2:-5.3165625 
0.001005759868756802 1:0.33588672 2:-4.1898125 
0.001768673620589397 1:0.2860332 2:-5.7048125 
0.008620129419648723 1:0.31548633 2:-4.1495 
0.01 1:0.22728516 2:-4.5941875 
0.001717024188771532 1:0.30680469 2:-5.958625 
0.01 1:0.13402734 2:-3.0056875 
0.008627113063299302 1:0.13801953 2:-3.2393125 
0.01 1:0.3889668 2:-4.9733125 
0.01 1:0.24310742 2:-3.7805625 
0.01 1:0.23616016 2:-5.0321875 
0.01 1:0.27812891 2:-5.2914375 
0.002680576362150633 1:0.37833008 2:-5.1865 
0.01 1:0.25216211 2:-4.5590625 
0.01 1:0.27465625 2:-4.9960625 
3.507244758923752e-05 1:0.3233418 2:-5.5028125 
0.001514994849152377 1:0.20808789 2:-4.50125 
0.0007442843196276307 1:0.24218164 2:-3.77425 
0.00047443628301962 1:0.27296094 2:-5.079125 
0.0006768031484485203 1:0.16157031 2:-3.1691875 
0.004513151233979542 1:0.32408008 2:-3.10675 
0.01 1:0.19947461 2:-4.2119375 
0.0001884042413816299 1:0.20666992 2:-3.698125 
0.01 1:0.4300293 2:-5.5360625 
0.01 1:0.38016016 2:-4.81675 
0.01 1:0.31038086 2:-3.6683125 
0.01 1:0.40919141 2:-6.5406875 
-0.01 1:0.30232617 2:-5.9131875 
-0.01 1:0.16425195 2:-2.8780625 
-0.01 1:0.23323633 2:-4.245875 
-0.01 1:0.26739844 2:-3.47025 
-0.01 1:0.23461914 2:-3.3475 
-0.01 1:0.28325195 2:-4.861125 
-0.01 1:0.33435352 2:-3.808875 
-0.01 1:0.19907422 2:-3.6469375 
-0.01 1:0.11708789 2:-2.7410625 
-0.01 1:0.2636875 2:-4.38825 
-0.01 1:0.30964648 2:-4.949125 
-0.01 1:0.29937891 2:-5.5686875 
-0.01 1:0.40496289 2:-6.0150625 
-0.01 1:0.3134707 2:-3.9344375 
-0.01 1:0.32455469 2:-6.3529375 
-0.01 1:0.27851172 2:-5.1588125 
-0.01 1:0.161375 2:-3.141875 
-0.01 1:0.30006445 2:-4.989 
-0.01 1:0.25207813 2:-5.338125 
-0.01 1:0.24014258 2:-2.9931875 
-0.01 1:0.39188867 2:-5.9671875 
-0.01 1:0.20572852 2:-3.8619375 
-0.01 1:0.34291211 2:-6.461375 
-0.01 1:0.31355664 2:-4.3781875 
-0.01 1:0.16754883 2:-3.00825 
-0.01 1:0.2195957 2:-4.1358125 
-0.01 1:0.15616016 2:-3.1676875 
-0.01 1:0.16002539 2:-2.419375 
-0.01 1:0.19980273 2:-2.6626875 
-0.01 1:0.28785156 2:-4.107875 
-0.01 1:0.1929668 2:-3.8806875 
-0.01 1:0.17541602 2:-3.6166875 
-0.01 1:0.34135156 2:-3.9849375 
-0.01 1:0.29270117 2:-3.2854375 
-0.01 1:0.26468555 2:-4.594875 
-0.01 1:0.2980332 2:-4.735125 
-0.01 1:0.37451172 2:-5.1918125 
-0.01 1:0.36505469 2:-6.3261875 
-0.01 1:0.22577344 2:-4.980125 
-0.01 1:0.17110742 2:-3.0755625 
-0.01 1:0.33290039 2:-3.62125 
-0.01 1:0.32070508 2:-4.3083125 
-0.01 1:0.46189453 2:-4.7460625 
-0.01 1:0.34991016 2:-4.7875 
-0.01 1:0.2875332 2:-5.1054375 
-0.01 1:0.36113672 2:-5.1243125 
-0.01 1:0.36351563 2:-4.783125 
-0.01 1:0.18582227 2:-3.371625 
-0.01 1:0.3866875 2:-5.8071875 
-0.01 1:0.18260156 2:-3.7633125 
-0.01 1:0.29004102 2:-4.75775 
-0.01 1:0.19016016 2:-2.035125 
-0.01 1:0.26513867 2:-4.947625 
-0.01 1:0.27569727 2:-5.115 
-0.01 1:0.22478906 2:-4.116125 
-0.01 1:0.23526758 2:-3.806875 
-0.01 1:0.22725781 2:-4.50175 
-0.01 1:0.40533789 2:-6.4565 
-0.01 1:0.13626172 2:-2.8964375 
-0.01 1:0.18567383 2:-3.1919375 
-0.01 1:0.23300781 2:-4.5359375 
-0.01 1:0.29791797 2:-4.2606875 
-0.01 1:0.13382422 2:-2.432 
-0.01 1:0.27994922 2:-4.938125 
-0.01 1:0.22071289 2:-3.80325 
-0.01 1:0.15137891 2:-3.006625 
-0.01 1:0.19955273 2:-3.771 
-0.01 1:0.27325391 2:-4.1274375 
-0.01 1:0.24926172 2:-4.9521875 
-0.01 1:0.23277148 2:-3.7389375 
-0.01 1:0.33430664 2:-5.211375 
-0.01 1:0.25137305 2:-4.0179375 
-0.01 1:0.35638672 2:-4.4035 
-0.01 1:0.32558398 2:-5.3535625 
-0.01 1:0.33105664 2:-4.730375 
-0.01 1:0.22247266 2:-3.88825 
-0.01 1:0.21736328 2:-4.1575 
-0.01 1:0.25207227 2:-3.5475625 
-0.01 1:0.31178906 2:-5.2914375 
-0.01 1:0.42903711 2:-5.4879375 
-0.01 1:0.34298242 2:-4.6171875 
-0.01 1:0.31602344 2:-4.9779375 
-0.01 1:0.20891211 2:-4.05275 
-0.01 1:0.23894141 2:-3.915 
-0.01 1:0.25526562 2:-5.0723125 
-0.01 1:0.24241602 2:-4.259875 
-0.01 1:0.32598828 2:-4.6885625 
-0.01 1:0.28779688 2:-4.5116875 
-0.01 1:0.20727734 2:-4.0871875 
-0.01 1:0.17242188 2:-3.959375 
-0.01 1:0.34061719 2:-4.7765625 
-0.01 1:0.26540234 2:-4.78625 
-0.01 1:0.34503711 2:-5.2139375 
-0.01 1:0.35044531 2:-4.216 
-0.01 1:0.27610742 2:-4.125 
-0.01 1:0.31813086 2:-3.305625 
-0.01 1:0.29736914 2:-3.4948125 
-0.01 1:0.34364453 2:-4.4915 
-0.01 1:0.25074023 2:-3.61675 
-0.01 1:0.33061523 2:-4.770625 
-0.01 1:0.32033008 2:-5.8004375 
-0.01 1:0.32923242 2:-4.2795625 
-0.01 1:0.30735742 2:-5.0974375 
-0.01 1:0.37532617 2:-3.6785 
-0.01 1:0.29718555 2:-5.8158125 
-0.01 1:0.18749414 2:-3.6476875 
-0.01 1:0.37076953 2:-6.1594375 
-0.01 1:0.36164258 2:-6.250875 
-0.01 1:0.19467773 2:-4.1794375 
-0.01 1:0.17297461 2:-3.49175 
-0.01 1:0.27598633 2:-4.2910625 
-0.01 1:0.32173047 2:-4.30175 
-0.01 1:0.30709375 2:-4.985375 
-0.01 1:0.35232031 2:-6.1666875 
-0.01 1:0.26931836 2:-4.2143125 
-0.01 1:0.26952539 2:-5.3805 
-0.01 1:0.30012305 2:-4.593625 
-0.01 1:0.39472266 2:-4.070375 
-0.01 1:0.25833789 2:-4.347125 
-0.01 1:0.29372266 2:-4.1110625 
-0.01 1:0.16129102 2:-2.2840625 
-0.01 1:0.35225586 2:-5.7073125 
-0.01 1:0.34220117 2:-4.86175 
-0.01 1:0.30457617 2:-4.800375 
-0.01 1:0.26139648 2:-3.9065 
-0.01 1:0.23833789 2:-3.5234375 
-0.01 1:0.25609961 2:-4.8286875 
-0.01 1:0.46158789 2:-6.3245 
-0.01 1:0.18111133 2:-3.8718125 
-0.01 1:0.10470117 2:-2.0403125 
-0.01 1:0.25066016 2:-5.3246875 
-0.01 1:0.31887695 2:-4.1925625 
-0.01 1:0.28611328 2:-4.2628125 
-0.01 1:0.29109961 2:-4.8304375 
-0.01 1:0.3342832 2:-5.083375 
-0.01 1:0.37238281 2:-5.6673125 
-0.01 1:0.35248828 2:-6.0931875 
-0.01 1:0.23925195 2:-3.3940625 
-0.01 1:0.29116406 2:-4.66075 
-0.01 1:0.16525 2:-3.4219375 
-0.01 1:0.34221484 2:-5.6703125 
-0.01 1:0.36295508 2:-4.2379375 
-0.01 1:0.34278125 2:-6.560875 
-0.01 1:0.18889648 2:-4.22575 
-0.01 1:0.34974219 2:-5.7724375 
-0.01 1:0.45111328 2:-4.638 
-0.01 1:0.2734082 2:-5.0863125 
-0.01 1:0.25859961 2:-4.34675 
-0.01 1:0.31899414 2:-5.4053125 
-0.01 1:0.32048242 2:-5.0265 
-0.01 1:0.34374023 2:-5.2498125 
-0.01 1:0.37499023 2:-5.383375 
-0.01 1:0.23031055 2:-5.0878125 
-0.01 1:0.30944727 2:-5.53075 
-0.01 1:0.1929082 2:-3.553125 
-0.01 1:0.46312695 2:-4.068625 
-0.01 1:0.42146484 2:-5.1829375 
-0.01 1:0.32608203 2:-5.2506875 
-0.01 1:0.32270898 2:-4.6103125 
-0.01 1:0.18949023 2:-2.7203125 
-0.01 1:0.33836133 2:-3.841 
-0.01 1:0.1909375 2:-3.7321875 
-0.01 1:0.29849609 2:-4.329875 
-0.01 1:0.23940039 2:-4.7823125 
-0.01 1:0.20805078 2:-3.4991875 
-0.01 1:0.28728125 2:-5.9145 
-0.01 1:0.18129297 2:-3.7985625 
-0.01 1:0.18807031 2:-4.1786875 
-0.01 1:0.27955469 2:-5.9626875 
-0.01 1:0.23505273 2:-4.928375 
-0.01 1:0.28495703 2:-4.809125 
-0.01 1:0.31384961 2:-5.691875 
-0.01 1:0.22788086 2:-4.53975 
-0.01 1:0.29710352 2:-5.6455625 
-0.01 1:0.3482832 2:-5.8353125 
-0.01 1:0.37054687 2:-5.4014375 
-0.01 1:0.20766602 2:-4.0169375 
-0.01 1:0.29980664 2:-6.0154375 
-0.01 1:0.24275586 2:-4.3421875 
-0.01 1:0.3327168 2:-4.190125 
-0.01 1:0.23866406 2:-4.9033125 
-0.01 1:0.3979668 2:-6.434375 
-0.01 1:0.3255625 2:-6.09575 
-0.01 1:0.28389648 2:-5.61625 
-0.01 1:0.20483398 2:-3.5325625 
-0.01 1:0.27905078 2:-4.1588125 
-0.01 1:0.30452148 2:-5.4704375 
-0.01 1:0.22775977 2:-4.160375 
-0.01 1:0.3599668 2:-4.7544375 
-0.01 1:0.32683008 2:-4.0153125 
-0.01 1:0.16895703 2:-2.7516875 
-0.01 1:0.18250586 2:-3.7494375 
-0.01 1:0.27755664 2:-5.39075 
-0.01 1:0.226 2:-4.10375 
-0.01 1:0.20174609 2:-3.821375 
-0.01 1:0.33484766 2:-6.761375 
-0.01 1:0.23505469 2:-3.79325 
-0.01 1:0.47209961 2:-4.102375 
-0.01 1:0.2723418 2:-3.8523125 
-0.01 1:0.30117187 2:-4.8214375 
-0.01 1:0.39258008 2:-5.3465 
-0.01 1:0.21582812 2:-3.5631875 
-0.01 1:0.39804688 2:-4.837375 
-0.01 1:0.28095313 2:-3.7199375 
-0.01 1:0.25234375 2:-3.647875 
-0.01 1:0.33180273 2:-4.425125 
-0.01 1:0.17717383 2:-3.5808125 
-0.01 1:0.33639062 2:-5.632125 
-0.01 1:0.29933398 2:-5.322 
-0.01 1:0.46201172 2:-5.260375 
-0.01 1:0.39512695 2:-6.255875 
-0.01 1:0.264375 2:-3.62875 
-0.01 1:0.31404102 2:-4.346125 
-0.01 1:0.28978516 2:-5.5816875 
-0.01 1:0.17264844 2:-2.9095625 
-0.01 1:0.24851367 2:-4.4968125 
-0.01 1:0.20826953 2:-2.767125 
-0.01 1:0.28607422 2:-5.5879375 
-0.01 1:0.19273242 2:-3.776 
-0.01 1:0.28648438 2:-5.312 
-0.01 1:0.44980664 2:-3.9481875 
-0.01 1:0.22086914 2:-3.7381875 
-0.01 1:0.33143359 2:-5.4431875 
-0.01 1:0.32681055 2:-5.6421875 
-0.01 1:0.25287305 2:-4.3624375 
-0.01 1:0.30970703 2:-5.2878125 
-0.01 1:0.22991602 2:-5.1326875 
-0.01 1:0.25782422 2:-4.0645625 
-0.01 1:0.12288477 2:-2.757375 
-0.01 1:0.19742187 2:-4.047875 
-0.01 1:0.3624082 2:-4.4905625 
-0.01 1:0.39014258 2:-6.121875 
-0.01 1:0.28554492 2:-5.41175 
-0.01 1:0.26200195 2:-4.2871875 
-0.01 1:0.17265039 2:-3.02575 
-0.01 1:0.40245898 2:-4.9370625 
-0.01 1:0.17937695 2:-2.999875 
-0.01 1:0.29432422 2:-5.3350625 
-0.01 1:0.21678516 2:-3.9260625 
-0.01 1:0.19486914 2:-3.263375 
-0.01 1:0.2285293 2:-4.7909375 
-0.01 1:0.25946094 2:-4.9086875 
-0.01 1:0.32372266 2:-4.3731875 
-0.01 1:0.36457422 2:-5.483875 
-0.01 1:0.29497266 2:-5.505625 
-0.01 1:0.3433125 2:-5.63875 
-0.01 1:0.31481055 2:-3.7885625 
-0.01 1:0.309625 2:-4.95275 
-0.01 1:0.27708008 2:-6.11525 
-0.01 1:0.24723047 2:-4.4385 
-0.01 1:0.098121094 2:-1.977625 
-0.01 1:0.33994922 2:-5.904125 
-0.01 1:0.35743555 2:-5.2845 
-0.01 1:0.30871875 2:-4.3361875 
-0.01 1:0.30313867 2:-3.5388125 
-0.01 1:0.33349023 2:-5.87225 
-0.01 1:0.36463672 2:-5.2138125 
-0.01 1:0.29096289 2:-5.5216875 
-0.01 1:0.21616992 2:-4.3509375 
-0.01 1:0.25119336 2:-5.2188125 
-0.01 1:0.30472266 2:-6.0991875 
-0.01 1:0.24595313 2:-5.170875 
-0.01 1:0.34316602 2:-5.2844375 
-0.01 1:0.12046484 2:-2.772625 
-0.01 1:0.37414063 2:-4.146625 
-0.01 1:0.2322793 2:-4.3825625 
-0.01 1:0.32144727 2:-5.7114375 
-0.01 1:0.29976758 2:-5.8829375 
-0.01 1:0.25285937 2:-4.1435625 
-0.01 1:0.25238281 2:-3.4760625 
-0.01 1:0.32075781 2:-5.06075 
-0.01 1:0.35883984 2:-5.7729375 
-0.01 1:0.17863086 2:-3.4599375 
-0.01 1:0.19761133 2:-2.0180625 
-0.01 1:0.15392578 2:-3.3181875 
-0.01 1:0.21429492 2:-4.0885625 
-0.01 1:0.15913672 2:-2.57275 
-0.01 1:0.33027148 2:-4.956875 
-0.01 1:0.27220117 2:-3.6044375 
-0.01 1:0.33854492 2:-5.526625 
-0.01 1:0.25274414 2:-3.2659375 
-0.01 1:0.36293945 2:-4.72275 
-0.01 1:0.38269336 2:-5.2319375 
-0.01 1:0.096986328 2:-2.1764375 
-0.01 1:0.38685742 2:-5.72125 
-0.01 1:0.36966211 2:-4.90725 
-0.01 1:0.36369922 2:-5.36625 
-0.01 1:0.36968945 2:-4.4983125 
-0.01 1:0.20227539 2:-2.6524375 
-0.01 1:0.32687305 2:-5.4759375 
-0.01 1:0.20184766 2:-3.3630625 
-0.01 1:0.32619922 2:-5.0000625 
-0.01 1:0.31619727 2:-6.3761875 
-0.01 1:0.31189453 2:-5.001625 
-0.01 1:0.32946484 2:-5.1068125 
-0.01 1:0.30473828 2:-5.8505 
-0.01 1:0.28028516 2:-4.858875 
-0.01 1:0.2922207 2:-5.43275 
-0.01 1:0.23249414 2:-3.9426875 
-0.01 1:0.26087305 2:-4.1783125 
-0.01 1:0.34523242 2:-6.061875 
-0.01 1:0.33458398 2:-5.768125 
-0.01 1:0.38610742 2:-6.1371875 
-0.01 1:0.24331641 2:-4.9111875 
-0.01 1:0.22683203 2:-4.1194375 
-0.01 1:0.35151367 2:-5.6770625 
-0.01 1:0.20374609 2:-3.9115625 
-0.01 1:0.34056836 2:-6.399125 
-0.01 1:0.14449023 2:-3.170375 
-0.01 1:0.32004297 2:-4.86475 
-0.01 1:0.37266602 2:-5.2381875 
-0.01 1:0.25951563 2:-3.7545625 
-0.01 1:0.25950391 2:-5.104375 
-0.01 1:0.29525 2:-4.57775 
-0.01 1:0.18617969 2:-3.2291875 
-0.01 1:0.17439063 2:-3.1875 
-0.01 1:0.19478711 2:-3.9204375 
-0.01 1:0.38851953 2:-5.6038125 
-0.01 1:0.4188418 2:-5.466875 
-0.01 1:0.41641016 2:-4.679 
-0.01 1:0.20263086 2:-3.304875 
-0.01 1:0.30674414 2:-6.0086875 
-0.01 1:0.38054102 2:-4.196375 
-0.01 1:0.32592969 2:-5.55525 
-0.01 1:0.41155273 2:-6.8126875 
-0.01 1:0.24235156 2:-4.3270625 
-0.01 1:0.32580078 2:-5.342 
-0.01 1:0.3574375 2:-5.559125 
-0.01 1:0.31873438 2:-5.045375 
-0.01 1:0.22789648 2:-4.39775 
-0.01 1:0.23656055 2:-4.7846875 
-0.01 1:0.302 2:-6.17125 
-0.01 1:0.35835547 2:-6.3311875 
-0.01 1:0.26091406 2:-5.306875 
-0.01 1:0.17083203 2:-4.0699375 
-0.01 1:0.18941211 2:-4.615375 
-0.01 1:0.24383789 2:-4.421625 
-0.01 1:0.30045117 2:-5.435 
-0.01 1:0.13873633 2:-2.1679375 
-0.01 1:0.24426367 2:-5.466 
-0.01 1:0.099441406 2:-2.0795 
-0.01 1:0.18944727 2:-4.271 
-0.01 1:0.20151562 2:-4.401 
-0.01 1:0.3229082 2:-6.2829375 
-0.01 1:0.23021875 2:-4.95975 
-0.01 1:0.24755859 2:-4.672875 
-0.01 1:0.31121484 2:-5.3504375 
-0.01 1:0.27235742 2:-4.1454375 
-0.01 1:0.31517969 2:-4.672375 
-0.01 1:0.35369141 2:-5.0035 
-0.01 1:0.34079687 2:-4.7308125 
-0.01 1:0.28069141 2:-5.3175625 
-0.01 1:0.33494336 2:-6.0705625 
-0.01 1:0.17751758 2:-3.8049375 
-0.01 1:0.48474609 2:-6.674125 
-0.01 1:0.31896094 2:-5.0758125 
-0.01 1:0.42489258 2:-5.367 
-0.01 1:0.28961328 2:-5.0679375 
-0.01 1:0.20986914 2:-3.282625 
-0.01 1:0.29611914 2:-4.7405 
-0.01 1:0.22431836 2:-4.4473125 
-0.01 1:0.23323438 2:-4.785 
-0.01 1:0.28777148 2:-3.8546875 
-0.01 1:0.22549609 2:-5.097125 
-0.01 1:0.23999023 2:-4.5229375 
-0.01 1:0.33577344 2:-4.9798125 
-0.01 1:0.36389453 2:-4.4950625 
-0.01 1:0.29553906 2:-3.6444375 
-0.01 1:0.25910937 2:-4.9125 
-0.01 1:0.19036914 2:-4.209875 
-0.01 1:0.16502344 2:-2.9746875 
-0.01 1:0.27081641 2:-5.5245 
-0.01 1:0.28028516 2:-4.547 
-0.01 1:0.15526172 2:-3.1831875 
-0.01 1:0.2285625 2:-4.742625 
-0.01 1:0.31305664 2:-5.7598125 
-0.01 1:0.27074414 2:-3.84525 
-0.01 1:0.18848047 2:-3.5241875 
-0.01 1:0.23993359 2:-3.5594375 
-0.01 1:0.32173438 2:-3.9305 
-0.01 1:0.24639844 2:-4.5955625 
-0.01 1:0.23110156 2:-3.36125 
-0.01 1:0.23009766 2:-4.3459375 
-0.01 1:0.36611328 2:-5.1491875 
-0.01 1:0.38274023 2:-5.827375 
-0.01 1:0.17215039 2:-3.63775 
-0.01 1:0.27383008 2:-5.41075 
-0.01 1:0.33 2:-5.3965625 
-0.01 1:0.3435332 2:-5.4168125 
-0.01 1:0.2544375 2:-4.094875 
-0.01 1:0.24917187 2:-4.7546875 
-0.01 1:0.22132813 2:-4.737625 
-0.01 1:0.38236328 2:-5.1270625 
-0.01 1:0.15141602 2:-3.1495 
-0.01 1:0.35045508 2:-5.5129375 
-0.01 1:0.11356445 2:-1.707875 
-0.01 1:0.28158594 2:-4.8255 
-0.01 1:0.28799609 2:-4.1228125 
-0.01 1:0.38253711 2:-4.640375 
-0.01 1:0.15877148 2:-2.7178125 
-0.01 1:0.18411523 2:-3.1863125 
-0.01 1:0.13429297 2:-3.16725 
-0.01 1:0.25813672 2:-5.1858125 
-0.01 1:0.36211133 2:-5.380375 
-0.01 1:0.19598633 2:-3.6105625 
-0.01 1:0.28885156 2:-5.466625 
-0.01 1:0.22812891 2:-3.6428125 
-0.01 1:0.31932422 2:-5.7755 
-0.01 1:0.35314844 2:-5.3280625 
-0.01 1:0.35810352 2:-5.0428125 
-0.01 1:0.34525391 2:-5.8870625 
-0.01 1:0.31505469 2:-4.7126875 
-0.01 1:0.31575195 2:-5.014625 
-0.01 1:0.25590625 2:-4.9785625 
-0.01 1:0.16066602 2:-3.24775 
-0.01 1:0.26879688 2:-3.7056875 
-0.01 1:0.23321484 2:-5.1535625 
-0.01 1:0.24242187 2:-4.7375625 
-0.01 1:0.15169531 2:-2.536625 
-0.01 1:0.32768555 2:-5.0791875 
-0.01 1:0.19032617 2:-3.7165 
-0.01 1:0.33830469 2:-5.4771875 
-0.01 1:0.23816016 2:-3.161375 
-0.01 1:0.2439668 2:-3.3909375 
-0.01 1:0.25033008 2:-4.57875 
-0.01 1:0.25346875 2:-4.811125 
-0.01 1:0.28091016 2:-5.2229375 
-0.01 1:0.37686719 2:-6.1020625 
-0.01 1:0.37833398 2:-4.7169375 
-0.01 1:0.40001758 2:-6.005875 
-0.01 1:0.32817578 2:-4.99775 
-0.01 1:0.24972461 2:-4.840625 
-0.01 1:0.19108789 2:-4.133375 
-0.01 1:0.25584961 2:-3.3073125 
-0.01 1:0.21626758 2:-3.0046875 
-0.01 1:0.24691016 2:-4.2561875 
-0.01 1:0.27854297 2:-5.9966875 
-0.01 1:0.21939258 2:-4.7096875 
-0.01 1:0.29558789 2:-5.2064375 
-0.01 1:0.36405469 2:-5.506625 
-0.01 1:0.32339258 2:-4.312625 
-0.01 1:0.18537695 2:-3.6905 
-0.01 1:0.24902539 2:-4.4651875 
-0.01 1:0.31235938 2:-3.728625 
-0.01 1:0.31249219 2:-4.5206875 
-0.01 1:0.28220898 2:-5.411 
-0.01 1:0.34674219 2:-6.1005625 
-0.01 1:0.25249414 2:-4.8134375 
-0.01 1:0.15475781 2:-3.454125 
-0.01 1:0.30721289 2:-5.265875 
-0.01 1:0.22701367 2:-3.6714375 
-0.01 1:0.2453125 2:-4.7945625 
-0.01 1:0.26214648 2:-5.489875 
-0.01 1:0.13599414 2:-3.2916875 
-0.01 1:0.13015625 2:-2.3803125 
-0.01 1:0.22891992 2:-4.087 
-0.01 1:0.22679297 2:-4.1190625 
-0.01 1:0.088638672 2:-1.6873125 
-0.01 1:0.18546484 2:-3.7265625 
-0.01 1:0.27930469 2:-4.776375 
-0.01 1:0.21380859 2:-4.451875 
-0.01 1:0.20828516 2:-3.778375 
-0.01 1:0.23928711 2:-4.3355625 
-0.01 1:0.26014062 2:-5.9321875 
-0.01 1:0.13742773 2:-2.704375 
-0.01 1:0.24703516 2:-4.5748125 
-0.01 1:0.21986328 2:-4.9395 
-0.01 1:0.30321094 2:-5.1368125 
-0.01 1:0.25118164 2:-5.15825 
-0.01 1:0.29588281 2:-5.0153125 
-0.01 1:0.25108789 2:-5.1398125 
-0.01 1:0.3152832 2:-4.88725 
-0.01 1:0.18689844 2:-4.18925 
-0.01 1:0.1223125 2:-2.686875 
-0.01 1:0.36935156 2:-4.7301875 
-0.01 1:0.23406836 2:-3.316875 
-0.01 1:0.40715039 2:-4.4429375 
-0.01 1:0.36196094 2:-4.796 
-0.01 1:0.24729492 2:-4.18675 
-0.01 1:0.26040039 2:-4.4934375 
-0.01 1:0.25937695 2:-3.4583125 
-0.01 1:0.21744336 2:-4.209875 
-0.01 1:0.26240039 2:-4.5095625 
-0.01 1:0.33195117 2:-4.290125 
-0.01 1:0.34316211 2:-5.11375 
-0.01 1:0.3021875 2:-4.1948125 
-0.01 1:0.28017773 2:-4.6630625 
-0.01 1:0.19176953 2:-3.300375 
-0.01 1:0.18700586 2:-3.968875 
-0.01 1:0.33394141 2:-5.1305 
-0.01 1:0.20199219 2:-4.3338125 
-0.01 1:0.3560332 2:-4.8226875 
-0.01 1:0.26353125 2:-5.2593125 
-0.01 1:0.25404492 2:-4.9859375 
-0.01 1:0.3019375 2:-5.195875 
-0.01 1:0.22598828 2:-4.0158125 
-0.01 1:0.19266211 2:-3.5565625 
-0.01 1:0.35314648 2:-5.098125 
-0.01 1:0.29303711 2:-5.9831875 
-0.01 1:0.30941602 2:-4.469125 
-0.01 1:0.35025195 2:-5.4346875 
-0.01 1:0.17841406 2:-3.1833125 
-0.01 1:0.32103516 2:-4.3830625 
-0.01 1:0.31308203 2:-6.5335625 
-0.01 1:0.2569082 2:-4.61875 
-0.01 1:0.31373047 2:-4.525875 
-0.01 1:0.10522656 2:-1.86675 
-0.01 1:0.24534766 2:-4.24725 
-0.01 1:0.19892578 2:-2.933375 
-0.01 1:0.29341211 2:-5.0375625 
-0.01 1:0.14224023 2:-3.3098125 
-0.01 1:0.28376367 2:-5.632375 
-0.01 1:0.37445117 2:-4.3005625 
-0.01 1:0.31049414 2:-5.8270625 
-0.01 1:0.23560938 2:-4.2560625 
-0.01 1:0.40345508 2:-5.1710625 
-0.01 1:0.2657168 2:-4.5379375 
-0.01 1:0.24109766 2:-4.7700625 
-0.01 1:0.21969531 2:-5.0075 
-0.01 1:0.27729492 2:-5.7964375 
-0.01 1:0.30561719 2:-4.2335 
-0.01 1:0.29319922 2:-4.9666875 
-0.01 1:0.19292188 2:-4.2135 
-0.01 1:0.16263281 2:-4.21425 
-0.01 1:0.24239453 2:-3.683875 
-0.01 1:0.16492383 2:-2.9089375 
-0.01 1:0.19742383 2:-3.058375 
-0.01 1:0.32304297 2:-5.7953125 
-0.01 1:0.23500977 2:-4.5056875 
-0.01 1:0.22179883 2:-4.311125 
-0.01 1:0.33344922 2:-4.6826875 
-0.01 1:0.27213672 2:-4.651375 
-0.01 1:0.28000586 2:-5.0475 
-0.01 1:0.24602148 2:-5.08975 
-0.01 1:0.34460547 2:-4.783125 
-0.01 1:0.20388867 2:-4.0078125 
-0.01 1:0.23042383 2:-4.1130625 
-0.01 1:0.19194727 2:-3.5285 
-0.01 1:0.1992207 2:-4.415625 
-0.01 1:0.19694531 2:-3.9195625 
-0.01 1:0.28355469 2:-4.5768125 
-0.01 1:0.2641875 2:-4.3831875 
-0.01 1:0.35918359 2:-5.177625 
-0.01 1:0.20975977 2:-3.153625 
-0.01 1:0.29563281 2:-5.2989375 
-0.01 1:0.27587695 2:-3.5220625 
-0.01 1:0.22634375 2:-4.1656875 
-0.01 1:0.23654492 2:-4.495125 
-0.01 1:0.31331641 2:-3.9036875 
-0.01 1:0.24048633 2:-3.747625 
-0.01 1:0.32211914 2:-4.326625 
-0.01 1:0.31715625 2:-4.7206875 
-0.01 1:0.33679883 2:-3.4530625 
-0.01 1:0.30251172 2:-3.3386875 
-0.01 1:0.39397461 2:-3.8175 
-0.01 1:0.25571094 2:-4.712625 
-0.01 1:0.32649414 2:-4.8268125 
-0.01 1:0.30823633 2:-5.581375 
-0.01 1:0.26426953 2:-3.7528125 
-0.01 1:0.22072852 2:-3.839 
-0.01 1:0.22940039 2:-3.371875 
-0.01 1:0.34047852 2:-4.48025 
-0.01 1:0.39775781 2:-5.4693125 
-0.01 1:0.18567578 2:-3.196375 
-0.01 1:0.40342578 2:-6.348125 
-0.01 1:0.11514062 2:-2.079875 
-0.01 1:0.27491992 2:-5.1063125 
-0.01 1:0.34011523 2:-4.4020625 
-0.01 1:0.19501367 2:-2.6203125 
-0.01 1:0.3259375 2:-5.6773125 
-0.01 1:0.25251953 2:-4.5294375 
-0.01 1:0.24896289 2:-5.6844375 
-0.01 1:0.35208398 2:-2.5773125 
-0.01 1:0.47109961 2:-4.566125 
-0.01 1:0.32918945 2:-4.736375 
-0.01 1:0.24475781 2:-5.235875 
-0.01 1:0.249 2:-3.5843125 
-0.01 1:0.34269922 2:-4.25825 
-0.01 1:0.30334375 2:-5.173875 
-0.01 1:0.27080273 2:-4.5884375 
-0.01 1:0.2614707 2:-4.7341875 
-0.01 1:0.28152734 2:-5.4225 
-0.01 1:0.2542793 2:-4.8716875 
-0.01 1:0.43359375 2:-3.0754375 
-0.01 1:0.38183594 2:-4.813125 
-0.01 1:0.32441602 2:-5.6034375 
-0.01 1:0.30524609 2:-3.7535625 
-0.01 1:0.20672852 2:-4.349125 
-0.01 1:0.18959375 2:-3.477625 
-0.01 1:0.3448418 2:-4.1620625 
-0.01 1:0.19666016 2:-2.7878125 
-0.01 1:0.23275 2:-3.6356875 
-0.01 1:0.4310957 2:-3.0286875 
-0.01 1:0.30914844 2:-5.638125 
-0.01 1:0.18744141 2:-4.0124375 
-0.01 1:0.19954297 2:-4.1919375 
-0.01 1:0.25959375 2:-4.4963125 
-0.01 1:0.29066602 2:-5.2228125 
-0.01 1:0.16261914 2:-3.700375 
-0.01 1:0.29131055 2:-5.148 
-0.01 1:0.56246484 2:-4.2535625 
-0.01 1:0.25485742 2:-3.544625 
-0.01 1:0.16104883 2:-3.330625 
-0.01 1:0.046820312 2:-0.9586875 
-0.01 1:0.067253906 2:-1.4940625 
-0.01 1:0.22654297 2:-4.5641875 
-0.01 1:0.28054102 2:-4.74375 
-0.01 1:0.29606055 2:-4.3289375 
-0.01 1:0.27980664 2:-4.7280625 
-0.01 1:0.37046094 2:-5.16625 
-0.01 1:0.36050586 2:-5.13925 
-0.01 1:0.21078516 2:-3.50975 
-0.01 1:0.17895703 2:-3.934375 
-0.01 1:0.26287891 2:-5.386375 
-0.01 1:0.41386719 2:-5.3438125 
-0.01 1:0.25487305 2:-4.266625 
-0.01 1:0.30711719 2:-6.25125 
-0.01 1:0.26615234 2:-6.0169375 
-0.01 1:0.21031055 2:-4.0326875 
-0.01 1:0.1327832 2:-2.80375 
-0.01 1:0.20666406 2:-3.6920625 
-0.01 1:0.24755078 2:-4.476 
-0.01 1:0.2448418 2:-3.6040625 
-0.01 1:0.22137305 2:-4.4660625 
-0.01 1:0.16068945 2:-2.8523125 
-0.01 1:0.14626172 2:-2.79875 
-0.01 1:0.38603711 2:-5.7089375 
-0.01 1:0.36771484 2:-4.042875 
-0.01 1:0.42561328 2:-5.0830625 
-0.01 1:0.25457422 2:-4.7360625 
-0.01 1:0.40423828 2:-5.0844375 
-0.01 1:0.23528906 2:-5.5748125 
-0.01 1:0.23816602 2:-3.424875 
-0.01 1:0.22977344 2:-4.459 
-0.01 1:0.22573437 2:-5.1725625 
-0.01 1:0.24811523 2:-4.385125 
-0.01 1:0.19322656 2:-3.948625 
-0.01 1:0.25514844 2:-3.4875 
-0.01 1:0.33202344 2:-4.4995625 
-0.01 1:0.43722656 2:-4.279375 
-0.01 1:0.3137832 2:-4.3058125 
-0.01 1:0.26782227 2:-4.34 
-0.01 1:0.25541797 2:-3.2610625 
-0.01 1:0.33197852 2:-4.3599375 
-0.01 1:0.24795898 2:-3.6968125 
-0.01 1:0.41069727 2:-6.33175 
-0.01 1:0.35206836 2:-4.7219375 
-0.01 1:0.30229102 2:-4.7425 
-0.01 1:0.33002344 2:-4.5489375 
-0.01 1:0.30280078 2:-5.24075 
-0.01 1:0.25445313 2:-3.2235625 
-0.01 1:0.5255957 2:-5.70775 
-0.01 1:0.2941543 2:-5.671 
-0.01 1:0.30228516 2:-4.418375 
-0.01 1:0.27196875 2:-4.4168125 
-0.01 1:0.3350332 2:-4.747125 
-0.01 1:0.32950586 2:-5.28025 
-0.01 1:0.28805859 2:-4.6735 
-0.01 1:0.27817773 2:-5.013 
-0.01 1:0.3691582 2:-5.221 
-0.01 1:0.26773242 2:-4.181625 
-0.01 1:0.30394922 2:-5.17475 
-0.01 1:0.29885547 2:-5.465125 
-0.01 1:0.23125195 2:-4.1251875 
-0.01 1:0.27708008 2:-3.813875 
-0.01 1:0.29437695 2:-4.4804375 
-0.01 1:0.21803125 2:-4.6393125 
-0.01 1:0.28741406 2:-6.508375 
-0.01 1:0.27556055 2:-4.5849375 
-0.01 1:0.19014453 2:-3.5728125 
-0.01 1:0.47537305 2:-4.7585 
-0.01 1:0.33665625 2:-4.9698125 
-0.01 1:0.33357617 2:-5.66975 
-0.01 1:0.29271875 2:-4.6921875 
-0.01 1:0.098136719 2:-1.4321875 
-0.01 1:0.22839258 2:-3.99575 
-0.01 1:0.36239258 2:-5.0970625 
-0.01 1:0.39016797 2:-4.9833125 
-0.01 1:0.37181836 2:-4.92175 
-0.01 1:0.34039844 2:-5.828875 
-0.01 1:0.3381582 2:-5.9806875 
-0.01 1:0.26001172 2:-3.86525 
-0.01 1:0.27386914 2:-3.9796875 
-0.01 1:0.3414082 2:-4.7151875 
-0.01 1:0.19181836 2:-4.0843125 
-0.01 1:0.25605078 2:-4.6960625 
-0.01 1:0.33826953 2:-5.990625 
-0.01 1:0.29062891 2:-4.898125 
-0.01 1:0.29903516 2:-4.6679375 
-0.01 1:0.23970312 2:-3.829 
-0.01 1:0.28197461 2:-5.886 
-0.01 1:0.37932617 2:-3.9695 
-0.01 1:0.21333594 2:-3.8818125 
-0.01 1:0.17953711 2:-3.50825 
-0.01 1:0.16666602 2:-3.181875 
-0.01 1:0.25860352 2:-4.259625 
-0.01 1:0.40974609 2:-6.5911875 
-0.01 1:0.23354297 2:-3.1538125 
-0.01 1:0.2085332 2:-3.418375 
-0.01 1:0.33665234 2:-5.5881875 
-0.01 1:0.35732422 2:-5.45525 
-0.01 1:0.29158789 2:-5.2996875 
-0.01 1:0.36516211 2:-4.9870625 
-0.01 1:0.35107031 2:-5.908875 
-0.01 1:0.41186133 2:-5.304625 
-0.01 1:0.21062695 2:-4.137 
-0.01 1:0.24916992 2:-4.545 
-0.01 1:0.12539453 2:-2.4486875 
-0.01 1:0.29625195 2:-4.1665 
-0.01 1:0.30539844 2:-5.5684375 
-0.01 1:0.32077539 2:-4.60375 
-0.01 1:0.39958398 2:-4.91325 
-0.01 1:0.34628711 2:-5.7885625 
-0.01 1:0.39264844 2:-5.5818125 
-0.01 1:0.26417188 2:-4.3373125 
-0.01 1:0.45968945 2:-5.043375 
-0.01 1:0.29028516 2:-4.75325 
-0.01 1:0.25547266 2:-4.4555 
-0.01 1:0.27573828 2:-4.6065625 
-0.01 1:0.44541211 2:-6.16325 
-0.01 1:0.39750586 2:-5.7055625 
-0.01 1:0.29246875 2:-5.152625 
-0.01 1:0.28086523 2:-5.5986875 
-0.01 1:0.35510156 2:-5.9024375 
-0.01 1:0.5193418 2:-3.74275 
-0.01 1:0.2403418 2:-4.811 
-0.01 1:0.22824414 2:-4.942875 
-0.01 1:0.23441406 2:-3.7499375 
-0.01 1:0.31110156 2:-5.0136875 
-0.01 1:0.37423047 2:-5.276625 
-0.01 1:0.18012109 2:-3.3941875 
